2405 128
1397 0.0 0.0 0.0 0.0 0.0 0.0 6.2618914 0.0 0.0 0.0 0.0 0.0 0.0 0.0 0.0 0.0 2.9883437 0.0 0.0 0.0 0.0 0.0 0.0 0.0 0.0 0.0 0.0 0.0 0.0 0.0 0.0 0.0 0.0 0.0 0.0 0.0 0.0 0.0 0.0 0.0 5.632076 0.0 0.0 0.0 0.0 0.0 0.0 0.0 0.41357902 2.4559007 0.0 0.0 1.2334121 0.0 0.0 0.0 0.0 0.0 0.0 0.0 0.0 0.0 0.0 3.0614405 0.0 0.0 4.1068683 0.0 0.1697471 0.0 0.0 0.0 0.7092454 0.0 2.0562856 5.94859 0.0 0.0 0.0 0.0 0.0 2.0263178 0.0 0.0 0.0 0.0 1.6382195 0.0 0.0 0.0 0.41115165 0.0 0.0 0.0 3.1112452 0.0 0.0 0.0 0.0 4.7033734 0.0 0.0 0.0 0.0 1.5133938 0.0 0.0 0.0 0.39039865 0.0 1.8656399 0.0 0.6596466 0.0 2.5537035 0.0 2.2605805 0.0 0.0 0.0 2.1126156 0.0 0.14784773 0.0 0.0 0.74460024 0.0 0.0
1470 0.0 0.0 0.0 0.0 0.0 0.0 7.5327015 0.0 0.0 0.0 0.0 0.0 0.0 0.0 0.0 0.0 0.18639751 0.31355095 0.0 0.0 0.0 0.0 0.0 0.0 0.0 0.0 0.0 0.0 0.0 0.0 1.8580319 0.0 0.0 0.0 0.0 0.0 0.0 0.0 0.0 0.0 2.939815 0.0 0.0 0.0 0.0 0.0 0.0 0.0 2.1520844 1.2556928 0.0 0.0 0.7787952 0.0 0.0 0.0 0.0 0.0 0.0 0.0 0.0 0.0 0.0 3.3731935 0.0 0.0 1.7307293 0.0 0.07244675 0.0 0.0 0.0 0.0 0.0 0.0 5.3571377 0.0 0.0 0.0 0.0 4.238005 0.11274745 0.0 0.0 0.0 1.3159906 0.46495947 0.0 0.0 1.449674 0.0 0.0 0.0 0.0 1.2416041 0.0 0.0 0.0 0.0 0.8356335 0.0 0.0 0.0 0.0 0.9813916 0.0 0.0 0.0 0.0 0.0 1.2101465 0.0 0.0 0.0 0.0 0.0 0.0 0.0 0.0 0.0 3.8560247 0.0 1.742223 0.0 0.0 0.0 0.0 0.14019218
362 0.0 0.0 0.0 0.0 0.0 0.0 3.8569725 0.0 0.0 0.0 1.4216373 0.0 0.0 0.0 1.5515308 0.3794803 0.0 0.0 1.163301 0.0 0.0 0.0 0.0 0.0 0.55087954 0.0 0.0 0.0 0.0 0.0 0.0 0.6803152 0.0 0.0 0.0 0.0 0.0 0.0 0.30265653 0.0 1.4338316 0.0 0.0 0.0 0.0 0.0 1.1234161 0.0 1.7388538 1.2550142 0.0 0.0 1.7812427 0.0 0.069747865 0.0 0.0 0.0 0.0 0.0 0.0 0.0 0.0 1.8459909 0.0 0.0 1.552299 0.0 3.6636162 0.0 0.0 0.0 0.0 0.0 2.3182662 5.021623 0.0 0.0 0.0 0.0 3.6530037 0.0 0.0 0.0 0.0 0.0 0.0 0.0 0.0 0.0 0.0 0.0 0.0 0.0 3.0545275 0.0 0.0 0.0 0.0 1.7917013 0.0 0.0 0.0 0.0 1.3673744 0.0 0.0 0.0 0.33684707 0.0 2.8485224 0.0 0.022802789 1.1438047 0.9037202 0.0 0.7448272 0.06962828 0.0 0.0040351637 3.1140022 0.0 0.0 0.0 0.0 0.8551435 0.0 0.67959726
226 0.0 0.0 0.0 0.0 0.0 0.0 0.0 0.0 0.0 0.0 0.0 0.0 0.0 0.0 0.0 0.13508354 7.5137763 0.0 0.0 0.0 0.0 0.20945996 0.0 0.0 0.0 0.0 0.0 0.0 0.42865428 0.0 0.0 0.0 0.0 0.0 0.0 0.0 0.0 0.0 0.0 0.0 9.928965 0.0 0.0 0.0 0.0 0.0 0.0 0.0 0.0 8.062499 0.0 0.0 3.6090157 0.0 0.4405127 0.0 0.0 0.0 0.0 0.0 0.0 0.0 0.0 7.6734757 0.0 0.0 10.966272 0.0 0.0 0.0 0.0 0.0 3.9237742 0.0 3.4234147 0.0 0.0 0.0 0.0 0.0 0.0 0.0 0.0 0.0 0.0 0.0 0.0 0.0 0.0 4.1587234 0.0 0.0 0.0 0.0 0.0 0.0 0.0 0.0 0.0 2.7513926 0.0 0.0 0.0 0.0 4.3353257 0.0 0.0 0.0 0.0 0.0 0.0 0.016531296 0.0 0.0 3.8539453 0.0 7.657282 0.0 0.0 0.0 0.05361214 0.0 0.0 0.0 0.0 1.3761828 0.0 0.0
750 0.0 0.0 0.0 0.6090354 0.0 0.0 6.1112247 2.0753012 0.0 0.0 0.0 0.0 0.0 0.0 0.06701585 0.0 0.0 0.0 0.0 0.0 0.0 0.0 0.0 0.0 0.0 0.0 0.0 0.0 1.3402582 0.0 0.22216798 0.0 0.0 0.0 0.42907116 0.0 0.0 0.12327866 0.0 0.0 0.7390304 0.05082108 0.0 0.20962226 0.0 0.0 0.0 0.0 0.0 0.49281096 0.0 0.0 0.0 0.0 0.0 0.0 0.4196583 0.0 0.0 0.0 0.0 0.0 0.0 0.7977453 0.0 0.0 1.1896937 0.0 1.5429686 0.0 0.0 0.0 0.0 0.0 0.0 6.577666 0.5951568 0.0 0.0 0.0 3.9737725 1.3232961 0.0 0.0 0.0 0.0 1.2185738 0.0 0.0 0.0 0.0 0.0 0.0 0.0 6.36857 0.0 0.0 0.0 0.0 0.0 0.0 0.0 0.0 1.0446754 0.0 0.0 0.0 0.0 0.0 0.0 0.99529105 0.0 0.0 0.0 0.0 0.0 0.0 0.0 0.0 0.0 1.9832522 0.0 0.07605537 0.0 0.0 1.1169672 0.0 0.0
489 0.0 0.0 0.0 0.0 0.0 0.0 0.0 0.0 0.0 0.0 0.0 0.0 6.6551127 0.0 0.0 0.0 0.0 0.0 0.0 0.0 0.0 0.0 0.0 0.0 0.0 0.0 0.0 0.0 0.0 0.0 0.0 0.0 0.0 0.0 0.0 0.0 0.0 12.621283 0.0 0.0 0.0 0.0 0.0 0.0 0.0 0.0 0.0 0.0 0.0 0.0 0.0 0.0 0.0 0.0 0.0 0.0 7.2588797 0.0 0.0 0.0 0.0 0.0 0.0 0.0 0.0 0.0 0.0 0.0 0.0 0.0 0.0 0.0 0.0 0.0 0.0 0.96795976 0.0 0.0 0.0 0.0 0.0 0.0 0.0 0.0 0.0 0.0 0.0 0.0 0.0 0.0 0.0 0.0 0.0 2.130145 0.0 0.0 0.0 0.0 0.0 0.0 0.0 0.0 0.0 0.0 0.0 0.0 0.0 0.0 0.0 0.0 18.359764 0.0 0.0 3.6883779 0.0 0.0 0.0 0.0 0.0 0.0 5.967324 0.0 0.0 0.0 0.0 0.8777609 0.0 0.0
1462 0.0 0.0 0.0 0.0 0.0 0.0 0.0 0.0 0.098226205 0.0 0.0 0.0 0.0 0.0 0.0 0.0 6.505826 0.0 0.0 0.0 0.0 0.0 0.0 0.0 0.36199248 0.0 0.0 0.0 0.0 0.0 0.0 0.0 0.0 0.0 0.0 0.0 0.0 0.0 0.0 0.0 7.67436 0.0 0.0 0.0 0.0 0.0 0.0 0.0 0.0 4.2294455 0.0 0.0 1.0071307 0.0 0.0 0.0 0.0 0.0 0.0 0.0 0.0 0.0 0.0 7.4834547 0.0 0.0 7.099712 0.0 0.0 0.0 0.0 0.0 4.431927 0.0 5.260606 1.0542547 0.21645424 0.0 0.0 0.0 0.23565364 0.0 0.0 0.0 0.0 0.0 0.0 0.0 0.0 0.0 0.0 0.0 0.0 0.0 0.0 0.0 0.1772652 0.0 0.0 8.055952 0.0 0.0 0.0 0.0 4.1978707 0.0 0.0 0.0 0.0 0.0 0.0 0.0 0.0 0.0 5.408918 0.0 6.310546 0.0 0.0 0.0 0.0 0.0 0.0 0.0 0.0 0.55172306 0.0 0.19397356
1713 0.0 0.0 0.0 0.0 0.5691272 0.0 0.0 0.0 0.0 0.0 0.0 0.0 0.24350452 0.0 0.0 0.0 0.34642142 0.0 0.0 4.292176 0.0 0.0 5.7879496 0.0 0.0 0.0 1.0819504 0.0 1.6095637 0.0 1.791615 0.0 0.0 0.0 0.0 0.0 0.0 0.0 0.0 0.0 2.6369634 0.0 5.507167 5.845693 0.0 0.0 0.0 0.0 0.0 0.0 0.0 0.0 0.0 0.0 0.0 0.0 0.0 0.0 0.0 0.0 0.0 0.0 0.0 0.0 0.0 0.0 0.0 0.0 0.0 0.0 0.0 0.0 0.0 0.0 0.0 0.0 0.0 0.0 0.0 0.0 0.0 0.0 0.0 0.0 0.0 0.0 0.0 0.0 0.0 0.0 0.0 0.0 0.0 0.0 6.8581214 0.0 0.0 0.0 0.0 0.0 0.0 0.0 0.0 6.3012357 0.0 0.0 0.0 0.0 0.0 3.9433978 0.0 0.0 0.0 0.0 0.0 0.0 0.0 0.0 0.0 1.7449892 0.0 0.0 2.9586735 0.0 0.0 0.0 0.0 0.0
393 0.0 0.0 0.0 0.0 0.0 0.0 0.0 0.0 0.0 0.0 0.0 0.0 0.19144085 0.0 0.0 0.0 0.0010138955 0.0 0.0 11.2236395 0.0 0.0 12.611757 0.0 0.0 0.0 0.0 0.0 0.0 0.0 0.0 0.0 0.0 0.0 0.0 0.0 0.0 0.0 0.0 0.0 5.8830643 1.2033426 8.678952 1.730894 0.0 0.0 0.0 0.0 0.0 0.0 0.0 0.0 0.0 0.0 0.0 0.0 0.0 0.0 0.0 0.0 0.0 0.0 0.0 0.0 0.0 0.0 0.0 0.0 0.0 0.752193 0.0 1.4306034 0.0 0.0 0.0 0.0 0.0 0.0 0.0 0.0 0.0 0.0 0.0 0.0 0.0 0.0 0.33305466 0.0 0.0 0.0 0.0 0.0 0.0 0.0 8.103727 0.0 0.0 0.0 0.0 0.0 0.0 0.0 0.0 0.0 0.0 0.0 0.071701564 0.0 0.0 7.2838464 0.0 0.0 0.0 0.0 0.0 0.0 0.0 0.91283906 0.0 6.125629 0.0 0.0 0.0 0.0 0.0 0.0 0.0 0.0
445 0.0 0.0 0.0 0.0 0.0 0.0 0.0 0.0 0.0 0.0 0.0 0.0 1.1154286 0.0 0.0 0.0 0.0 0.0 0.0 0.0 0.0 0.0 0.0 0.0 0.0026602214 0.0 3.734765 0.0 7.9759774 0.0 0.0 0.0 0.0 0.0 0.0 0.0 0.0 0.0 0.0 0.0 1.8471162 0.30300546 0.0 8.466764 0.0 0.0 0.0 0.0 0.0 0.0 0.0 0.0 0.0 0.0 0.0 0.0 0.0 0.0 0.0 0.0 0.0 0.0 0.0 0.3271027 0.0 0.0 0.0 0.0 0.0 0.0 0.0 0.0 0.0 0.0 0.0 0.0 0.0 0.0 0.0 0.0 0.0 0.0 0.0 0.0 0.0 0.0 0.0 0.0 0.0 0.0 0.0 0.0 0.0 0.0 11.697867 0.0 0.0 2.5632482 0.0 0.0 0.0 0.0 0.0 9.245124 0.0 0.0 0.0 0.0 0.0 0.0 0.0 0.0 0.0 0.0 0.0 0.0 0.0 0.0 0.0 0.0 0.0 0.0 0.0 0.0 0.0 0.0 0.0 0.0
696 0.0 0.0 0.0 0.0 0.95810145 0.0 0.0 0.0 3.7634256 0.0 0.0 0.0 0.0 0.0 0.0 0.0 0.0 0.0 9.90769 0.0 0.0 2.0437412 0.0 0.0 4.8490777 0.0 0.62374604 0.0 0.0 0.0 0.0 0.0 0.0 0.0 0.0 7.0559306 0.0 0.0 0.0 0.0 5.294666 0.0 0.0 0.0 0.0 0.0 0.0 0.0 0.0 0.0 0.0 0.0 0.0 0.0 0.0 0.0 0.0 0.0 0.0 0.0 0.0 0.0 0.0 6.325838 0.0 0.0 0.0 4.953524 0.0 0.0 0.0 0.0 0.0 0.0 0.9954637 0.0 4.7987676 0.0 0.0 0.0 1.5506696 0.0 0.0 0.0 0.0 0.0 0.0 0.0 0.0 0.0 0.0 0.0 0.0 0.0 0.0 0.0 0.0 0.0 0.0 8.121427 0.0 0.0 0.0 0.0 0.0 0.0 0.0 0.0 0.0 0.0 0.0 0.0 0.52012 0.0 0.0 0.0 1.214269 0.0 0.0 0.0 0.0 0.0 0.0 0.0 0.0 0.4900923 0.87117213 0.0
1610 0.0 0.0 0.0 0.0 0.0 0.0 0.0 0.2034574 0.090401754 0.0 0.0 0.0 0.0 0.0 0.0 0.0 3.9807336 0.0 4.713915 0.0 0.0 1.4499377 0.0 0.0 5.7694726 0.0 0.0 0.0 0.0 0.0 1.2877114 1.2229047 0.0 0.0 0.0 2.4645238 0.0 0.0 0.0 0.0 6.2500253 0.0 0.0 0.0 0.0 0.0 0.0 0.0 0.0 0.28381556 0.8621123 0.0 0.0 0.0 0.0 0.0 0.0 0.0 0.0 0.0 0.0 0.0 0.0 7.984635 0.0 0.0 4.354286 2.4669132 0.0 0.0 0.0 0.0 2.6102617 0.0 4.0209546 0.0 2.1094408 0.0 0.2694613 0.0 2.27982 0.0 0.0 0.0 0.0 0.0 0.0 0.0 0.0 0.0 0.0 0.0 0.0 0.0 0.0 1.8953958 0.0 0.0 0.0 10.088932 0.0 0.0 0.0 0.0 0.7124776 0.0 0.32891303 0.2781481 0.0 0.0 0.0 0.0 0.0 0.0 5.2145777 0.0 4.7765822 0.0 0.0 0.0 0.0 0.0 0.0 0.0 0.0 1.0973625 1.1924864 0.0
889 0.0 0.0 0.0 0.0 1.2096255 0.0 0.0 3.1514876 4.005362 0.0 0.0 0.0 0.0 0.0 0.0 0.0 0.0 0.0 5.1573353 0.0 0.0 2.1932 0.0 0.0 2.5854013 0.0 2.3868802 0.0 0.0 0.0 7.051127 0.0 0.0 0.0 0.0 6.6801777 0.0 0.0 0.0 0.0 1.4371537 0.0 0.12408832 0.0 0.9741645 0.0 2.3158898 0.0 0.0 0.27621233 0.0 0.30674535 0.0 0.0 0.0 0.0 0.0 0.0 0.0 0.0 0.0 1.0341932 0.0 2.3311827 0.0 0.0 0.0 1.7203871 0.0 0.0 0.0 0.0 0.0 0.0 0.0 0.0 3.304758 0.0 0.0 0.0 0.0 0.0 0.0 0.0 0.0 0.0 0.0 0.0 0.0 0.0 1.4309522 0.0 0.0 0.0 0.0 4.3525224 0.0 0.0 0.0 2.1741881 0.0 0.0 0.0 0.0 0.0 0.0 0.0 1.5473562 0.0 0.0 0.0 0.0 0.0 0.0 0.0 0.0 0.55984133 0.0 0.0 0.0 0.0 0.0 0.4661213 0.0 0.75112146 0.0 0.0 0.0
1615 0.0 0.0 0.0 0.5480669 0.0 0.0 0.0 6.5534854 5.832254 0.0 0.0 0.8738904 0.0 0.0 0.0 0.0 0.0 0.0 5.6610513 0.0 0.0 0.0 0.022350883 0.0 5.8055177 0.0 3.1032891 0.0 0.0 0.0 0.0 0.0 0.0 0.0 0.0 4.8059072 0.0 0.0 0.0 0.0 0.0 0.0 0.0 1.5807648 0.0 0.0 0.0 0.0 0.0 0.0 0.0 0.0 0.0 0.0 0.0 0.0 0.0 0.0 0.0 0.0 0.0 0.0 0.0 2.3810008 0.0 0.0 0.0 8.972285 0.0 0.0 0.0 0.0 0.083810866 0.0 0.0 0.0 7.5377116 0.0 0.0 0.0 4.953982 0.0 0.0 0.0 0.0 0.22840959 0.0 0.0 0.0 0.0 0.0 0.0 0.0 0.0 0.0 0.0 0.04366467 0.56647307 0.0 1.0009205 0.0 1.7502859 0.0 0.2728501 0.0 0.0 0.0 0.0 0.0 0.0 0.0 0.0 0.0 0.0 0.0 0.0 0.0 0.0 0.0 0.0 0.0 3.8408525 0.0 0.0 0.0 0.0 0.25216225 0.0
708 0.0 0.0 0.0 3.2007055 0.0 0.0 0.0 0.0 0.0 0.14998841 0.0 1.542842 0.0 0.0 0.0 0.0 0.0 0.0 0.0 0.0 0.0 0.0 0.0 0.0 0.0 0.0 1.0832429 0.0 0.0 0.0 0.0 0.0 0.0 0.0 3.8194454 10.03393 0.0 0.0 0.0 5.5228252 0.0 0.0 0.0 0.0 0.0 0.0 0.0 0.0 0.0 0.0 0.18478942 0.0 0.0 0.0 0.0 0.0 0.0 0.0 0.0 0.0 0.0 0.1592889 0.0 0.0 0.0 0.0 0.0 0.0 0.0 0.0 0.0 5.6687365 0.0 0.0 0.0 0.0 0.0 0.0 0.0 0.0 0.0 6.129502 0.0 0.0 2.7468972 0.0 3.481738 0.0 0.0 0.0 0.0 0.0 0.0 0.0 1.9676481 0.0 0.0 0.0 0.0 0.0 0.0 0.0 0.0 0.6560924 0.0 0.0 0.0 0.0 0.0 2.6268103 0.0 0.0 0.0 0.0 0.0 0.0 0.0 1.303633 0.0 0.6680236 0.9300131 0.0 0.0 0.0 0.0 0.0 4.6636314 0.0
713 0.0 0.0 0.0 1.9328719 0.0 0.0 0.0 9.406423 6.198106 0.0 0.0 0.25505844 0.0 0.0 0.0 0.0 0.0 0.0 6.4657674 0.0 0.0 0.0 0.0 0.0 1.221893 0.0 5.45043 0.0 0.0 0.0 0.0 0.0 0.0 0.0 0.0 6.941642 0.0 0.0 0.99908364 0.0 0.0 0.0 0.0 3.009434 0.0 0.0 0.0 0.0 0.0 0.0 0.0 0.0 0.0 0.0 0.0 0.0 0.0 0.0 0.0 0.0 0.0 0.53934103 0.0 2.9194703 0.0 0.0 0.0 8.812931 0.0 0.0 0.0 0.0 0.0 0.0 0.0 0.0 13.358349 0.0 0.0 0.0 3.1660569 0.0 0.0 0.0 0.0 0.0 0.0 0.0 0.0 0.0 0.0 0.0 0.0 0.0 0.0 0.0 0.0287674 0.17262922 0.0 0.23668408 0.0 0.0 0.0 0.0 0.0 0.0 0.0 0.0 0.0 0.0 0.0 0.0 0.0 0.0 0.0 0.0 0.0 0.0 0.0 0.0 0.0 4.4108377 0.0 0.0 0.0 0.0 0.0 0.0
718 0.0 0.0 0.0 6.5527296 0.0 0.0 0.0 2.1545503 0.4241224 0.0 0.0 0.06174673 0.0 0.0 0.0 0.0 0.0 0.0 7.010226 0.0 0.0 7.6842117 0.0 0.0 0.0 0.0 0.0 0.0 0.0 0.0 0.0 0.0 0.0 2.6820204 0.59296346 12.101202 0.10289959 0.0 0.0 6.348973 1.02112 0.0 0.0 0.0 0.0 0.0 0.0 0.0 0.0 0.0 3.427908 0.0 0.0 0.0 0.0 0.0 0.0 0.0 0.0 0.0 0.0 1.3838993 0.0 2.082011 0.0 0.0 0.55573255 1.0545152 0.0 0.0 0.0 0.0 0.0 0.0 0.0 0.0 8.8965025 0.0 0.0 0.0 0.0 0.0 0.0 0.0 0.0 0.0 0.0 0.0 3.0954304 0.0 0.0 0.0 0.0 0.0 0.0 0.0 0.0 0.0 0.14744952 5.3638163 0.0 2.965562 0.0 0.0 0.0 0.0 0.0 0.0 0.0 0.0 0.0 0.0 2.3468208 0.0 0.0 0.0 0.0 0.0 0.0 0.0 0.0 0.0 0.0 0.0 0.0 0.0 3.7359922 0.0
1630 0.0 0.0 0.0 0.29686585 0.0 0.0 0.0 6.5134015 6.465801 0.0 0.0 0.008703648 0.0 0.0 0.0 0.0 0.0 0.0 7.1380615 0.0 0.0 0.0 0.0 0.0 4.9645333 0.0 4.7296352 0.0 0.0 0.0 0.0 0.0 0.0 0.0 0.0 4.8168435 0.0 0.0 0.0 0.0 0.0 0.0 0.0 2.7459974 0.0 0.0 0.0 0.0 0.0 0.0 0.0 0.0 0.0 0.0 0.0 0.0 0.0 0.0 0.0 0.0 0.0 0.0 0.0 2.5979018 0.0 0.0 0.0 9.164707 0.0 0.0 0.0 0.0 0.00752969 0.0 0.0 0.0 9.707972 0.0 0.0 0.28067344 5.271847 0.0 0.0 0.0 0.0 0.0 0.0 0.0 0.0 0.0 0.0 0.0 0.0 0.0 0.0 0.5346208 0.0 0.10149048 0.0 1.3319986 0.0 0.0 0.0 0.0 0.0 0.0 0.0 0.0 0.0 0.0 0.0 0.0 0.0 0.0 0.0 0.0 0.0 0.0 0.0 0.0 0.0 4.524073 0.0 0.0 0.0 0.0 0.0 0.0
734 0.0 0.0 0.0 0.0 0.0 0.0 0.0 0.18468927 0.98214895 0.0 0.0 2.6783879 0.0 0.0 0.0 0.0 1.2233285 0.0 9.125915 0.0 0.0 5.7452097 0.0 0.0 0.0 0.0 0.0 0.0 0.0 0.0 0.0 0.0 0.0 0.0 0.0 7.67341 0.0 0.0 0.0 0.0 3.8158789 0.0 0.0 0.0 0.0 0.0 0.0 0.0 0.0 0.0 0.0 0.0 0.0 0.0 0.0 0.0 0.0 0.0 0.0 0.0 0.0 3.2397363 0.0 4.192171 0.0 0.0 1.3432391 0.0 0.0 0.0 0.0 0.07786834 1.5070431 0.0 2.3130236 0.0 10.025992 0.0 0.0 0.0 0.0 0.0 0.0 0.0 0.11993052 0.0 0.0 0.0 0.0 0.0 0.0 0.0 0.0 0.0 0.0 0.0 0.0 0.0 0.0 7.7669516 0.0 0.0 0.0 0.17284565 0.0 0.0 0.0 0.0 0.0 0.0 0.0 0.0 4.2011814 0.0 0.0 0.0 1.519426 0.0 0.0 0.0 0.0 0.19162425 0.0 0.0 0.0 0.0 1.3371207 0.0
776 0.0 0.0 0.0 3.3004854 0.0 0.0 0.10445021 0.0 0.6323184 0.0 0.0 2.5411942 0.0 0.0 0.4922364 0.0 0.0 0.0 8.433872 0.0 0.0 10.121256 0.0 0.0 0.0 0.0 0.0 0.0 0.0 0.0 0.0 0.0 0.0 0.0 0.0 9.629414 0.0 0.0 0.0 0.035527483 1.4186641 0.0 0.0 0.0 0.0 0.0 0.0 0.0 0.0 0.0 4.3165307 0.0 0.0 0.0 0.0 0.0 0.0 0.0 0.0 0.0 0.0 2.9887924 0.0 3.1194851 0.0 0.0 0.0 0.0 0.0 0.0 0.0 0.0 0.0 0.0 0.0 0.0 10.83334 0.0 0.0 0.0 0.0 0.0 0.0 0.0 0.0 0.0 0.0 0.0 0.40643507 0.0 0.0 0.0 0.0 0.0 0.0 0.3668872 0.0 0.0 0.0 7.1238375 0.0 0.62313 0.0 1.968033 0.0 0.0 0.0 0.0 0.0 0.0 0.0 0.0 3.7459848 0.0 0.0 0.0 0.0 0.0 0.0 0.0 0.0 0.0 0.0 0.0 0.07255309 0.0 3.8473656 0.0
814 0.0 0.0 0.0 3.7209828 0.0 0.0 0.0 0.0 0.9574708 0.0 0.0 0.95015097 0.0 0.0 0.0 0.0 0.0 0.0 7.6116557 0.0 0.0 7.1000233 0.0 0.0 0.0 0.0 1.2517823 0.0 0.0 0.0 0.0 0.0 0.0 0.0 0.7068895 11.549574 0.0 0.0 0.0 2.0771003 0.53115684 0.0 0.0 0.0 0.0 0.0 0.0 0.0 0.0 0.0 2.1059124 0.0 0.0 0.0 0.0 0.0 0.0 0.0 0.0 0.0 0.0 2.9036944 0.0 2.1405513 0.0 0.0 0.0 3.3968058 0.0 0.0 0.0 0.0 0.0 0.0 0.0 0.0 11.729251 0.0 0.0 0.0 0.0 0.0 0.0 0.0 0.0 0.0 0.0 0.0 0.019931246 0.0 0.0 0.0 0.0 0.0 0.0 0.49790633 0.0 0.0 0.0 5.526269 0.0 0.16239022 0.0 0.0 0.0 0.0 0.0 0.0 0.0 0.0 0.0 0.0 1.297954 0.0 0.0 0.0 0.0 0.0 0.0 0.0 0.0 0.0 0.0 0.0 0.0 0.0 3.701876 0.0
818 0.0 0.0 0.0 0.30967274 0.0 0.0 0.0 0.61487377 1.6143695 0.0 0.0 1.9016707 0.0 0.0 0.0 0.0 0.0 0.0 8.836774 0.0 0.0 7.415973 0.0 0.0 0.0 0.0 0.0 0.0 0.0 0.0 0.26616707 0.0 0.0 0.0 0.0 8.477095 0.0 0.0 0.0 0.0 2.708813 0.0 0.0 0.0 0.0 0.0 0.0 0.0 0.0 0.0 0.26363093 0.0 0.0 0.0 0.0 0.0 0.0 0.0 0.0 0.0 0.1200053 3.5042026 0.0 1.8540812 0.0 0.0 0.0 0.0 0.0 0.0 0.0 0.0 0.0 0.0 0.0 0.0 12.840826 0.0 0.0 0.0 0.0 0.0 0.0 0.0 0.0 0.0 0.0 0.0 0.0 0.0 0.0 0.0 0.0 0.0 0.0 0.0 0.0 0.0 0.0 5.556518 0.0 0.0 0.0 0.0 0.0 0.0 0.0 0.0 0.0 0.0 0.0 0.0 2.5042841 0.0 0.0 0.0 1.0369229 0.0 0.0 0.0 0.0 0.0 0.39512202 0.0 0.0 0.0 2.4289615 0.0
1401 0.0 0.0 0.0 0.0 0.0 0.0 0.0 0.0 0.0 0.0 0.0 0.0 0.0 0.0 0.0 0.0 5.813778 0.0 0.0 0.0 0.0 0.0 0.0 0.0 0.0 0.0 0.0 0.0 0.11926518 0.0 0.0 0.0 0.0 0.0 0.0 0.0 0.0 0.0 0.0 0.0 7.329423 0.0 0.0 0.0 0.0 0.0 0.0 0.0 0.0 6.0138474 0.0 0.0 4.7273064 0.0 0.0 0.0 0.0 0.17284334 0.0 0.0 0.0 0.0 0.0 9.265148 0.0 0.0 11.077787 0.0 0.0 0.0 0.0 0.0 3.7098725 0.0 1.6463828 0.56498295 0.0 0.0 0.0 0.0 0.0 0.0 0.0 0.0 0.0 0.0 0.0 0.0 0.0 5.3062706 0.0 0.0 0.0 0.0 0.0 0.0 0.0 0.0 0.0 2.4713888 0.0 0.0 0.0 0.0 4.7692065 0.0 0.0 0.6296404 0.0 0.0 0.0 0.0 0.0 0.0 2.8049092 0.0 7.3256288 0.0 0.0 0.0 0.0 0.0 0.9989089 0.0 0.0 0.8991061 0.0 0.0
220 0.0 0.0 0.0 0.0 0.0 0.0 0.0 0.0 0.0 0.0 0.0 0.0 0.0 0.0 0.0 0.0 5.114794 0.0 0.0 0.0 0.0 0.0 0.0 0.0 0.0 0.0 0.0 0.0 0.0 0.0 0.0 0.0 0.0 0.5892877 0.0 0.4900622 0.0 0.0 0.0 0.0 6.265974 0.0 0.0 0.0 0.0 0.0 0.0 0.0 0.0 6.560285 0.0 0.0 2.1537569 0.0 0.0 0.0 0.0 0.0 0.0 0.0 0.0 0.0 0.0 5.1983733 0.0 0.0 7.9308853 0.0 0.0 0.0 0.0 0.0 1.7499716 0.0 0.0 0.0 0.0 0.0 0.0 0.0 0.0 0.0 0.0 0.0 0.0 0.0 0.096832246 0.0 0.0 2.6465063 0.0 0.0 0.0 0.0 0.0 0.0 0.0 0.0 0.0 0.2612498 0.0 0.0 0.0 0.0 3.2811508 0.0 0.0 0.0 0.0 0.0 0.0 0.0 0.0 0.0 2.9899514 0.0 6.9332104 0.0 0.0 0.0 0.0 0.0 0.0 0.0 0.0 0.3525798 0.59653157 0.0
1412 0.0 0.0 0.0 0.0 0.0 0.0 0.0 0.0 0.0 0.0 0.0 0.0 0.0 0.0 0.0 0.0 6.9978924 0.0 0.0 0.0 0.0 0.0 0.0 0.0 0.0 0.0 0.0 0.0 0.0 0.0 0.0 0.0 0.0 0.0 0.0 0.0 0.0 0.0 0.0 0.0 8.503973 0.0 0.16603413 0.0 0.0 0.0 0.0 0.0 0.0 5.550993 0.0 0.0 1.3414568 0.0 0.0 0.0 0.0 0.0 0.0 0.0 0.0 0.0 0.0 6.694431 0.0 0.0 8.05213 0.0 0.0 0.0 0.053525183 0.0 2.330911 0.0 4.662152 0.0 0.0 0.0 0.0 0.0 0.0 0.0 0.0 0.0 0.0 0.0 0.0 0.0 0.0 0.0 0.0 0.0 0.0 0.0 0.0 0.0 0.0 0.0 0.0 6.4820495 0.0 0.0 0.0 0.0 4.4724197 0.39966103 0.0 0.0 0.0 0.0 0.0 0.0 0.0 0.0 3.7236474 0.0 10.485951 0.0 0.0 0.0 0.0 0.0 0.0 0.0 0.0 1.3296976 0.0 0.0
1413 0.0 0.0 0.0 0.0 0.0 0.0 0.63926023 0.0 0.0 0.0 0.0 0.0 0.0 0.0 0.0 0.4101451 5.799046 0.0 0.0 0.0 0.0 0.0 0.0 0.0 0.0 0.0 0.0 0.0 0.0 0.0 0.0 0.0 0.0 0.0 0.0 0.0 0.0 0.0 0.0 0.0 7.347279 0.0 0.0 0.0 0.0 0.0 0.0 0.0 0.0 6.22917 0.0 0.0 4.22127 0.0 0.0 0.0 0.0 0.0 0.0 0.0 0.0 0.0 0.0 9.116215 0.0 0.0 9.692795 0.0 0.0 0.0 0.0 0.0 2.5371141 0.0 0.7742915 0.0 0.0 0.0 0.0 0.0 0.0 0.0 0.0 0.0 0.0 0.0 0.0 0.0 0.0 5.3510585 0.0 0.0 0.0 0.0 0.0 0.0 0.0 0.0 0.0 0.0 0.0 0.0 0.0 0.0 3.2272549 0.0 0.0 0.0 0.0 0.0 0.0 0.0 0.0 0.0 4.78839 0.0 7.477844 0.0 0.0 0.0 0.0 0.0 0.0 0.0 0.0 0.0 0.0 0.0
228 0.0 0.0 0.0 0.0 0.0 0.0 0.0 0.0 0.0 0.0 0.0 0.0 0.0 0.0 0.0 0.0 4.469262 0.0 0.11842141 0.0 0.0 0.0 0.0 0.0 0.0 0.0 0.0 0.0 0.1068661 0.0 0.0 0.0 0.0 0.0 0.0 0.0 0.0 0.0 0.0 0.0 9.677447 0.0 0.0 0.0 0.0 0.0 0.0 0.0 0.0 8.34604 0.0 0.0 6.6843615 0.0 0.0 0.3391009 0.0 0.0 0.0 0.0 0.0 0.0 0.0 10.130271 0.0 0.0 10.199541 0.47563225 0.0 0.0 0.0 0.0 0.80370945 0.0 2.7005203 0.0 0.0 0.0 0.0 0.0 0.0 0.0 0.0 0.0 0.0 0.0 0.0 0.0 0.0 6.010337 0.0 0.0 0.0 0.0 0.0 0.0 0.0 0.0 0.0 1.5597726 0.0 0.0 0.0 0.0 3.1201923 0.0 0.0 0.0 0.0 0.0 0.0 0.0 0.0 0.0 2.6890116 0.0 4.868821 0.0 0.0 0.0 0.101372726 0.0 0.0 0.0 0.0 0.5496056 0.0 0.0
233 0.0 0.0 0.0 0.0 0.0 0.0 0.0 0.0 0.0 0.0 0.0 0.0 0.0 0.0 0.0 0.0 5.269139 0.0 0.0 0.0 0.0 0.0 0.0 0.0 0.0 0.0 0.0 0.0 0.0 0.0 0.0 0.0 0.0 0.0 0.0 0.0 0.0 0.0 0.0 0.0 6.4680877 0.0 0.0 0.0 0.0 0.0 0.0 0.0 0.0 7.5962987 0.0 0.0 4.083981 0.0 0.0 0.0 0.0 0.0 0.0 0.0 0.0 0.0 0.0 6.492142 0.0 0.0 9.257335 0.0 0.0 0.12300586 0.0 0.0 3.6367567 0.0 0.7039155 0.0 0.0 0.0 0.0 0.0 0.0 0.0 0.0 0.0 0.0 0.0 0.0 0.0 0.0 3.8935595 0.0 0.0 0.0 0.0 0.1169758 0.0 0.0 0.0 0.0 0.0 0.0 0.0 0.0 0.0 3.194023 0.0 0.0 0.0 0.0 0.0 0.0 0.0 0.0 0.0 1.3526193 0.0 6.6284738 0.0 0.0 0.0 0.0 0.0 0.0 0.0 0.0 0.0 0.0 0.0
235 0.0 0.0 0.0 0.0 0.0 0.0 0.0 0.0 0.0 0.0 0.0 0.0 0.0 0.0 0.0 0.0 4.8573346 0.0 0.0 0.0 0.0 0.0 0.0 0.0 0.0 0.0 0.0 0.0 0.0 0.0 0.0 0.0 0.0 0.0 0.0 0.0 0.0 0.0 0.0 0.0 9.583004 0.0 0.0 0.0 0.0 0.0 0.0 0.0 0.0 6.585263 0.0 0.0 3.7530074 0.0 0.0 0.0 0.0 0.0 0.0 0.0 0.0 0.0 0.0 11.17372 0.0 0.0 9.7596035 0.0 0.0 0.0 0.0 0.0 0.0 0.0 2.6763852 0.0 0.0 0.0 0.0 0.0 0.0 0.0 0.0 0.0 0.0 0.0 0.0 0.0 0.0 7.6550546 0.0 0.0 0.0 0.0 0.0 0.0 0.0 0.0 0.0 1.8464214 0.0 0.0 0.0 0.0 0.99107546 0.0 0.0 0.0 0.0 0.0 0.0 0.0 0.0 0.0 1.5104038 0.0 4.7515054 0.0 0.0 0.0 1.9550337 0.0 0.0 0.0 0.0 0.34385404 0.0 0.0
1450 0.0 0.0 0.0 0.0 0.0 0.0 0.0 0.0 0.0 0.3932835 0.0 0.0 0.0 0.0 0.0 0.0 6.1736035 0.0 0.0 0.0 0.0 0.0 0.0 0.0 0.0 0.0 0.0 0.0 0.0 0.0 0.0 0.0 0.0 0.0 0.0 0.0 0.0 0.0 0.0 0.0 7.905249 0.0 0.0 0.0 0.0 0.0 0.0 0.0 0.0 7.836224 0.0 0.0 6.0830426 0.0 0.0 0.0 0.0 0.0 0.0 0.0 0.0 0.0 0.0 10.395457 0.0 0.0 10.389654 1.3929611 0.0 0.0 0.0 0.0 1.8926402 0.0 1.4978938 0.68710524 0.27032435 0.0 0.0 0.0 0.0 0.0 0.0 0.0 0.0 0.0 0.0 0.0 0.0 4.402204 0.0 0.0 0.048010543 0.0 0.0 0.0 0.0 0.0 0.0 2.9819438 0.0 0.0 0.0 0.0 2.1045241 0.0 0.0 0.0 0.0 0.0 0.0 0.0 0.0 0.0 4.1725855 0.0 6.369832 0.0 0.0 0.0 0.9331152 0.0 0.0 0.0 0.0 0.013683712 0.0 0.0
236 0.0 0.0 0.0 0.0 0.0 0.0 0.0 0.0 0.0 0.0 0.0 0.0 0.0 0.0 0.0 0.0 3.2190413 0.0 0.0 0.0 0.0 0.0 0.0 0.0 0.0 0.0 0.0 0.0 0.0 0.0 0.0 0.0 0.0 0.0 0.0 0.0 0.0 0.0 0.0 0.0 7.0445347 0.0 0.0 0.0 0.0 0.0 0.0 0.0 0.0 8.722641 0.0 0.0 5.144966 0.0 0.0 0.0 0.0 0.0 0.0 0.0 0.0 0.0 0.0 7.392485 0.0 0.0 9.444856 0.0 0.0 0.0 0.0 0.0 0.0 0.0 0.0 0.44859862 0.0 0.0 0.0 0.0 0.0 0.0 0.0 0.0 0.0 0.0 0.0 0.0 0.0 7.9883127 0.0 0.0 0.0 0.0 0.0 0.0 0.0 0.0 0.0 0.0 0.0 0.0 0.0 0.0 1.7460134 0.0 0.0 0.0 0.0 0.0 0.0 0.0 0.0 0.0 0.9667745 0.0 5.7358627 0.0 0.0 0.0 2.5341876 0.0 0.06728106 0.0 0.0 1.2905813 0.0 1.0437664
1455 0.0 0.0 0.0 0.0 0.0 0.0 0.0 0.0 0.0 0.0 0.0 0.0 2.1288865 0.0 0.0 0.0 4.198647 0.0 0.0 0.0 0.0 0.0 0.0 0.0 0.0 0.0 0.0 0.0 0.0 0.0 4.6207757 0.0 0.0 0.0 0.0 0.05452407 0.0 0.0 0.0 0.0 4.9461718 0.0 0.0 0.0 0.0 0.06419677 0.0 0.0 0.0 4.9854074 0.0 0.0 2.7671194 0.0 0.0 0.0 0.0 0.0 0.0 0.0 0.0 0.0 0.0 4.3103423 0.0 0.0 6.1572804 1.7815315 0.0 0.0 0.0 0.0 3.7763736 0.0 0.0 0.0 0.0 0.0 0.0 0.0 0.0 0.0 0.0 0.0 0.58883375 0.0 0.0 0.0 0.0 2.0640333 2.859537 0.0 0.0 0.0 0.0 1.4679043 0.0 0.0 0.0 0.21526234 0.0 0.0 0.0 0.0 0.4593662 0.0 0.0 0.0 0.0 0.0 1.1533597 0.0 0.0 0.0 2.7292848 0.0 5.305017 0.0 0.0 0.0 0.0 0.0 0.31761274 0.0 0.0 0.0 0.0 0.0
1465 0.0 0.0 0.0 0.0 0.0 0.0 0.0 0.0 0.0 0.0 0.0 0.0 0.0 0.0 0.0 0.0 7.10585 0.0 0.0 0.0 0.0 0.0 0.0 0.0 0.0 0.0 0.0 0.0 0.0 0.0 0.0 0.0 0.0 0.0 0.0 0.0 0.0 0.0 0.0 0.0 8.406115 0.0 0.0 0.0 0.0 0.0 0.0 0.0 0.0 5.535762 0.0 0.0 2.6791425 0.0 0.0 0.0 0.0 0.0 0.0 0.0 0.0 0.0 0.0 6.748109 0.0 0.0 8.84633 0.0 0.0 0.0 0.0 0.0 7.1382604 0.0 7.1641703 0.0 0.0 0.0 0.0 0.0 0.0 0.0 0.0 0.0 0.0 0.0 0.0 0.0 0.0 0.0 0.0 0.0 0.3086602 0.0 0.0 0.0 0.0 0.0 0.0 6.5265474 0.0 0.0 0.0 0.0 3.10883 0.0 0.0 0.0 0.0 0.0 0.0 0.0 0.0 0.0 8.339452 0.0 9.579036 0.0 0.0 0.0 0.0 0.0 0.0 0.0 0.0 0.0 0.0 0.0
1466 0.0 0.0 0.0 0.0 0.0 0.0 0.0 0.0 0.0 0.0 0.0 0.0 0.0 0.0 0.0 0.0 6.942993 0.0 0.0 0.0 0.0 0.0 0.0 0.0 0.0 0.0 0.0 0.0 0.0 0.0 0.0 0.0 0.0 0.0 0.0 0.0 0.0 0.0 0.0 0.0 8.360835 0.0 0.0 0.0 0.0 0.0 0.0 0.0 0.0 6.0302043 0.0 0.0 3.2253802 0.0 0.0 0.0 0.0 0.0 0.0 0.0 0.0 0.0 0.0 6.076352 0.0 0.0 8.134435 0.0 0.0 0.0 0.0 0.0 3.4614458 0.0 4.479733 0.0 0.0 0.0 0.0 0.0 0.0 0.0 0.0 0.0 0.0 0.0 0.0 0.0 0.0 0.72734964 0.0 0.0 0.0 0.0 0.0 0.0 0.0 0.0 0.0 5.619032 0.0 0.0 0.0 0.0 2.1071448 0.0 0.0 0.0 0.0 0.0 0.0 0.0 0.0 0.0 6.2696786 0.0 7.5773206 0.0 0.0 0.0 0.0 0.0 0.0 0.0 0.0 1.1982192 0.0 0.0
1468 0.0 0.0 0.0 0.0 0.5684798 0.0 0.0 0.0 0.0 0.0 0.0 0.0 0.0 0.0 0.0 0.0 6.526608 0.0 0.0 0.0 0.0 0.0 0.0 0.0 0.0 0.0 0.0 0.0 0.0 0.0 0.0 0.0 0.0 0.0 0.0 0.0 0.0 0.0 0.0 0.0 7.5806174 0.0 0.0 0.0 0.0 0.0 0.0 0.0 0.0 7.5594883 0.0 0.0 3.8906841 0.0 0.0 0.0 0.0 0.0 0.0 0.0 0.0 0.0 0.0 6.7293253 0.0 0.0 8.470768 0.0 0.0 0.0 0.0 0.0 3.0816298 0.0 2.9932845 0.0 0.0 0.0 0.0 0.0 0.0 0.0 0.0 0.0 0.0 0.0 0.0 0.0 0.0 0.16484067 0.0 0.0 0.0 0.0 0.0 0.0 0.96117014 0.0 0.0 4.641654 0.0 0.0 0.0 0.0 3.1416311 0.0 0.0 0.0 0.0 0.0 0.0 0.0 0.0 0.0 6.4282126 0.0 6.2242565 0.0 0.0 0.0 0.0 0.0 0.0 0.0 0.0 0.0 0.0 0.0
243 0.0 0.0 0.0 0.0 0.0 0.0 0.0 0.0 0.0 0.0 0.0 0.0 0.0 0.0 0.0 0.0 3.2501457 0.0 0.0 0.0 0.0 0.0 0.0 0.0 0.0 0.0 0.0 0.0 0.0 0.0 0.0 0.0 0.0 0.0 0.0 0.0 0.36711597 0.0 0.0 0.0 7.135525 0.0 0.0 0.0 0.0 0.0 0.0 0.0 0.0 6.4184613 0.0 0.0 5.66044 0.0 0.0 0.53569317 0.0 0.0 0.0 0.0 0.0 0.0 0.0 6.975932 0.0 0.0 6.807426 0.0 0.0 0.0 1.3315209 0.0 0.0 0.0 0.0 0.0 0.0 0.0 0.0 0.0 0.0 0.0 0.0 0.0 0.0 0.0 0.0 0.0 0.0 5.73224 0.0 0.0 0.0 0.0 0.02938762 0.0 0.0 1.8336862 0.0 0.0 0.0 0.0 0.0 0.0 1.8820006 0.0 0.0 0.0 0.0 0.0 0.0 0.15962896 0.0 0.0 3.1457193 0.0 5.065478 0.0 0.0 0.0 3.3422954 0.0 0.0 0.0 0.0 0.0 0.0036806427 0.0
245 0.0 0.0 0.0 0.0 0.0 0.0 0.0 0.0 0.0 0.0 0.0 0.0 0.0 0.0 0.0 0.0 6.3297215 0.0 0.0 0.0 0.0 0.0 0.0 0.0 0.0 0.0 0.0 0.0 0.0 0.0 0.0 0.0 0.0 0.0 0.0 0.0 0.0 0.0 0.0 0.0 6.5129194 0.0 0.0 0.0 0.0 0.0 0.8110142 0.0 0.0 8.0740385 0.0 0.0 4.4931617 0.0 0.0 0.0 0.0 0.0 0.0 0.0 0.0 0.0 0.0 6.812886 0.0 0.0 9.157278 0.0 0.0 0.0 0.0 0.0 1.5984186 0.0 2.6405416 0.0 0.0 0.0 0.19826025 0.0 0.0 0.0 0.0 0.0 0.0 0.0 0.0 0.0 0.0 2.7991025 1.1165384 0.0 0.0 0.0 0.0 0.0 0.0 0.0 0.0 1.773542 0.0 0.0 0.0 0.0 3.675619 0.060402423 0.0 0.0 0.0 0.0 0.0 0.0 0.0 0.0 2.7837112 0.0 8.507544 0.0 0.0 0.0 0.0 0.0 0.0 0.0 0.0 0.0 0.0 0.0
1535 0.0 0.0 0.0 0.0 0.4359852 0.0 0.0 0.0 0.0 0.0 0.0 0.0 0.0 0.0 2.8446531 0.0 0.0 0.0 1.6508839 0.0 0.0 0.026480269 0.0 0.0 0.41636857 0.0 3.0334527 0.0 5.491421 0.0 0.0 0.0 0.0 0.0 0.0 0.0 0.0 0.0 0.0 0.0 1.5862987 0.2901819 0.0 2.1648817 0.0 0.0 0.0 0.0 0.0 0.0 0.0 0.0 0.0 0.0 0.0 0.0 0.0 0.0 0.0 0.0 0.0 0.0 0.0 2.032372 0.0 0.0 0.0 0.0 0.9791609 0.0 0.0 0.0 0.0 0.0 0.0 0.0 0.0 0.0 0.0 0.0 0.9901155 0.041817624 0.0 0.0 0.0 0.0 0.0 0.0 0.0 0.0 0.0 0.0 0.0 0.0 5.748211 0.0 0.0 0.18922938 0.0 0.7491226 0.0 0.0 0.0 5.874337 0.0 0.0 0.0 0.0 0.4564754 0.0 0.0 0.0 0.0 0.0 0.0 0.0 0.0 0.0 0.0 0.0 0.0 0.0 0.0 0.0 0.0 0.0 0.0 0.38429537
780 0.0 0.0 0.0 0.54228544 0.0 0.0 0.44555032 0.0 0.0 0.0 0.0 0.33847517 0.0 0.33811048 2.3074868 0.0 0.0 0.0 2.5303404 0.0 0.0 0.5087452 0.0 0.6528803 1.3129699 0.0 1.4073491 0.0 6.0282454 0.0 0.42141402 0.0 0.0 0.0 1.514746 0.0 0.4661514 0.0 0.21169889 0.0 0.63111633 0.6141504 0.22380312 1.7836683 0.0 0.0 1.7011058 0.0 0.3553682 0.0 0.0 0.0 0.0 0.0 0.0 0.4595238 0.0 0.058690388 0.0 0.0 0.0 0.0 0.0 0.8031811 0.0 0.0 0.073042855 0.0 2.6114557 0.0 0.0 0.0 0.0 0.0 0.2735856 0.0 0.0 0.0 0.48067546 0.0 2.2862134 0.85638595 0.0 0.0 0.33514908 0.0 0.0 0.0 0.0 0.0 0.0 0.0 0.0 0.0 4.5374827 0.0 0.0 0.0 0.0 1.4757636 0.0 0.0 3.622283 4.1994944 0.0 0.0 0.0 0.045897502 0.0 0.0 0.0 0.0 0.0 0.0 0.0 0.0 0.0 0.0 0.0 0.36141443 0.0 0.0 0.0 0.0 0.0 0.0 0.0 0.9451331
1550 0.0 0.0 0.0 0.0 0.0 0.0 0.021590877 0.0 0.0 0.0 0.0 0.0 0.0 0.0 4.2716055 0.0 0.0 0.0 2.64801 0.0 0.0 0.0 0.0 0.0 1.9016359 0.0 2.9993849 0.0 8.573542 0.0 0.5640951 0.0 0.0 1.2455297 0.0 0.0 0.0 0.0 0.0 0.0 2.5869572 0.0 0.0 6.11068 0.0 0.0 0.0 0.0 0.0 0.0 0.0 0.0 0.0 0.0 0.0 0.0 0.0 0.0 0.0 0.0 0.0 0.0 0.0 1.9464822 0.0 0.0 0.0 0.39450687 1.8436363 0.0 0.0 0.0 0.0 0.0 0.0 0.0 0.0 0.0 0.0 0.0 1.1635579 0.0 0.0 0.0 0.0 0.0 0.0 0.0 0.0 0.0 0.0 0.0 0.0 0.0 9.45075 0.0 0.0 1.0254861 0.0 0.7224036 0.0 0.0 0.0 11.057717 0.0 0.0 0.0 0.0 0.0 0.0 0.60306734 0.0 0.0 0.0 0.59396905 0.0 0.018819656 0.0 0.0 0.36085755 0.0 0.0 0.0 0.0 0.0 0.0 0.001627272 0.0
2273 0.0 0.0 0.0 0.41730955 0.0 0.0 2.5323796 0.0 0.0 0.0 0.0 0.0 0.0 0.0 0.48509017 0.0 1.4250222 0.0 0.0 0.0 0.0 0.0 0.0 0.0 0.0 0.0 1.847441 0.0 8.362365 0.0 0.0 0.0 0.0 0.0 1.5975777 0.0 0.0 0.0 0.0 0.0 0.0 0.0 0.0 2.1185546 0.0 0.0 0.47507742 0.0 0.0 0.2068623 0.0 0.0 0.0 0.0 0.0 0.0 0.0 0.0 0.0 0.0 0.0 0.0 0.0 0.0 0.0 0.0 0.62263733 0.0 2.430895 0.0 0.0 0.0 0.0 0.0 0.0 1.6490237 0.0 0.0 0.0 0.0 0.94090015 0.0 0.0 0.0 0.0 0.0 0.0 0.0 0.0 1.0264419 0.0 0.0 0.0 0.0 7.551691 0.0 0.0 0.0 0.0 0.0 0.0 0.0 0.0 5.169905 0.0 0.0 0.0 0.0 0.0 0.0 0.0 0.0 0.0 0.0 0.0 0.0 0.0 0.0 0.0 0.59131837 0.0 0.0 0.0 0.0 0.0 0.0 0.10154553 0.0
1616 0.0 0.0 0.025091056 0.25903168 0.0 0.0 0.0 6.314738 7.5414157 0.0 0.0 0.35771886 0.0 0.0 0.0 0.0 0.031201271 0.0 3.7135968 0.0 0.0 0.0 0.0 0.0 3.1748998 0.0 5.2335734 0.11101912 0.0 0.0 0.0 0.0 0.0 0.0 0.0 3.448432 0.0 0.42270544 0.0 0.0 0.0 0.0 0.0 4.4362664 0.0 0.0 0.0 0.0 0.0 0.0 0.0 0.0 0.29612583 0.0 0.0 0.0 0.0 0.0 0.0 0.0 0.0 0.0 0.0 1.9869605 0.0 0.0 0.0 10.648661 0.0 0.0 0.0 0.0 0.0 0.0 0.0 0.0 7.79338 0.0 0.0 0.0 4.383423 0.0 0.0 0.0 0.0 0.0 0.0 0.0 0.0 0.0 0.0 0.0 0.0 0.0 0.89619416 0.0 0.28278825 0.0 0.0 0.0 0.0 0.040677704 0.0 0.0 0.0 0.0 0.0 0.0 0.0 0.0 0.07908274 0.0 0.0 0.0 0.9845237 0.0 0.0 0.0 0.0 0.0 0.0 3.8012767 0.0 0.0 0.0 0.35796556 0.23946151 0.0
2158 0.0 0.0 0.0 0.0 0.0 0.0 0.0 6.462518 6.1405473 0.0 0.0 0.0 0.0 0.0 0.0 0.0 0.0 0.0 7.041587 0.0 0.0 0.0 0.0 0.0 7.468384 0.0 4.8669143 0.0 0.0 0.0 0.0 0.0 0.0 0.0 0.4687845 5.249867 0.0 0.0 0.0 0.0 0.0 0.0 0.0 0.109802 0.063088566 0.0 0.0 0.0 0.0 0.0 0.0 0.0 0.0 0.0 0.0 0.0 0.0 0.0 0.0 0.0 0.0 0.0 0.0 1.3442578 0.0 0.0 0.0 9.285365 0.0 0.0 0.0 0.0 0.014797098 0.0 0.0 0.0 6.226208 0.0 0.2779671 0.0 6.4206376 0.0 0.0 0.0 0.0 0.0 0.0 0.36494026 0.0 0.0 0.0 0.0 0.0 0.0 0.0 0.0 0.7115099 0.72063494 0.0 0.18783368 0.0 1.6198766 0.0 0.0 0.0 0.0 0.0 0.0 0.0 0.0 0.0 0.0 0.0 0.0 0.0 0.0 0.0 0.0 0.0 1.2730517 0.0 4.476155 0.0 0.0 0.0 0.0 0.0 0.0
1624 0.0 0.5785544 0.0 0.0 0.0 0.0 0.0 6.224664 4.978404 0.0 0.0 1.193562 0.0 0.0 0.0 0.0 0.58907104 0.0 4.398599 0.0 0.45446163 0.0 0.5122459 0.0 5.0217366 0.0 4.309378 0.0 0.0 0.0 0.0 0.0 0.0 0.0 0.0 2.5926602 0.0 0.0 0.0 0.0 0.13049828 0.0 0.0 3.7044237 0.0 0.0 0.36580068 0.0 0.0 0.0 0.0 0.0 1.7742479 0.0 0.0 0.0 0.0 0.0 0.0 0.0 0.0 0.0 0.33194804 3.385812 0.16604143 0.0 0.0 8.321664 0.0 0.0 0.0 0.0 0.0 0.0 0.0 0.0 4.743738 0.0 0.0 0.0 5.239051 0.0 0.0 0.0 0.0 0.0 0.0 0.0 0.0 0.0 0.0 0.0 0.0 0.0 0.0 0.0 0.0 0.0 0.6526017 0.0 0.0 0.24348322 0.0 0.0 0.0 0.0 0.0 0.08639234 0.0 0.0 0.0 0.0 0.0 0.18346018 0.0 0.0 0.0 0.0 0.0 0.0 0.0 3.8671181 0.0 0.0 0.0 0.0 0.0 0.0
2165 0.0 0.0 0.0 0.0 0.0 0.0 0.28377476 4.4517593 4.7074394 0.0 0.0 0.0 0.0 0.0 0.0 0.0 0.0 0.0 3.8840308 0.0 0.0 0.0 0.0 0.0 7.849667 0.0 4.0022373 0.0 0.0 0.0 0.0 0.0 0.0 0.0 0.0 2.8489785 0.0 0.0 0.0 0.0 0.6976709 0.0 0.0 0.9549616 0.0 0.0 0.0 0.0 0.0 0.0 0.0 0.0 0.0 0.0 0.0 0.0 0.0 0.0 0.0 0.0 0.0 0.0 0.0 2.0396807 0.0 0.0 0.0 7.289779 0.0 0.0 0.0 0.0 0.0 0.0 0.0 0.9800711 4.0331845 0.0 0.0 0.0 3.3499534 0.0 0.0 0.0 0.0 0.18765315 0.0 0.0 0.0 0.0 0.0 0.0 0.0 0.0 0.27952555 1.7050977 0.0 0.0 0.0 2.5638328 0.0 1.7069705 0.0 0.0 0.0 0.0 0.0 0.0 0.0 0.0 0.0 0.0 0.0 0.0 0.0 0.0 0.0 0.0 0.0 0.0 0.40487814 3.243099 0.0 0.0 0.0 0.0 0.0 0.0
2167 0.0 0.0 0.0 0.0 0.42653894 0.0 0.0 4.275073 4.6745915 0.0 0.0 0.0 0.0 0.0 0.0 0.0 0.0 0.0 5.4150133 0.0 0.0 0.0 0.0 0.0 7.7258673 0.0 4.381243 0.0 0.0 0.0 0.0 0.0 0.0 0.0 0.0 0.7844525 0.14394006 0.0 0.0 0.0 0.0 0.0 0.0 0.87842125 0.0 0.0 0.0 0.0 0.0 0.0 0.0 0.0 0.0 0.0 0.0 0.0 0.0 0.0 0.0 0.0 0.0 0.0 0.0 2.3396685 0.0 0.0 0.0 7.5640197 0.0 0.0 0.0 0.0 0.0 0.0 0.0 0.0 3.8000917 0.0 0.0 0.0 4.4122705 0.0 0.0 0.0 0.0 0.0 0.30648145 0.0 0.0 0.0 0.0 0.0 0.0 0.0 0.0 0.0 0.0 0.0 0.0 1.6945772 0.0 0.39152488 0.0 0.0 0.0 0.0 0.5312989 0.0 0.0 0.0 0.0 0.0 0.019094903 0.5388855 0.0 0.0 0.0 0.0 0.0 0.0 0.0 3.3274782 0.0 0.0 0.0 0.0 0.0 0.0
1631 0.0 0.0 0.0 0.0 0.0 0.0 0.0 6.922259 5.646445 0.0 0.0 3.355323 0.0 0.0 0.0 0.0 0.0 0.0 4.1476607 0.0 0.0 0.0 0.0 0.0 5.1894236 0.0 4.9780617 0.0 0.0 0.0 0.0 0.0 0.0 0.0 0.0 4.334124 0.0 0.0 0.0 0.0 0.6507715 0.7566629 0.0 5.4478807 0.0 0.4434406 1.02762 0.0 0.0 0.0 0.0 0.0 0.0 0.0 0.0 0.0 0.0 0.0 0.0 0.0 0.0 0.0 0.0 3.077577 0.0 0.0 0.5607295 10.026733 0.0 0.0 0.0 0.0 0.0 0.31733164 0.0 0.5041446 6.2372694 0.0 0.0 0.0 6.657832 0.0 0.0 0.0 0.0 0.0 0.0 0.92838115 0.0 0.0 0.34346902 0.0 0.0 0.0 0.0 0.90096307 0.0 2.0056067 0.0 0.0 0.0 1.9666241 0.0 0.0 0.0 0.0 0.0 0.0 0.0 0.0 0.0 0.0 0.0 0.0 0.0 0.0 0.0 0.0 0.0 0.0 0.0 4.2913737 0.033160865 0.0 0.2955244 0.0 0.0 0.53359413
1640 0.0 0.30420086 0.0 0.0 0.0 0.0 0.0 5.921305 5.842358 0.0 0.0 0.5527797 0.0 0.0 0.0 0.0 0.0 0.0 3.6196496 0.0 0.0 0.0 0.0 0.0 4.7317758 0.0 3.8046963 0.0 0.0 0.0 0.0 0.0 0.0 0.0 0.0 2.6641066 0.0 1.7452674 0.0 0.0 0.0 0.0 0.0 2.3880386 0.0 0.0 1.2938299 0.0 0.0 0.0 0.0 0.0 0.56878006 0.0 0.0 0.035943184 0.0 0.0 0.0 0.0 0.0 0.0 0.0 1.5882615 0.0 0.0 0.47433427 8.34037 0.0 0.0 0.0 0.0 0.0 0.0 0.0 0.64936674 7.842353 0.0 0.0 0.0 7.8627477 0.0 0.0 2.5035424 0.0 0.0 0.0 0.0 0.0 0.0 0.0 0.0 0.0 0.0 0.0 0.0 0.0 0.31896356 0.0 0.0 0.0 0.0 0.0 0.0 0.0 0.0 0.0 0.0 1.2866001 0.0 0.8529874 0.0 0.0 0.0 0.0 0.0 0.0 0.0 0.0 0.0 0.0 3.4143827 0.0 0.0 0.0 0.0 0.0 0.0
1659 0.0 0.7421748 0.0 0.37592444 0.0 0.0 0.0 7.3361397 7.4268594 0.0 0.0 0.041544538 0.0 0.0 0.0 0.0 0.0 0.0 4.5014124 0.0 0.047521234 0.0 0.0 0.0 3.6547656 0.0 4.7529745 0.0 0.0 0.0 0.0 0.0 0.0 0.0 0.0 3.6858747 0.0 0.0 0.0 0.0 0.0 0.0 0.0 3.9459143 0.0 0.0 0.0 0.0 0.0 0.0 0.0 0.0 0.0 0.0 0.0 0.0 0.0 0.0 0.0 0.0 0.0 0.0 0.0 2.161817 0.0 0.0 0.0 10.602851 0.0 0.0 0.0 0.0 0.0 0.0 0.0 0.0 7.61791 0.0 0.0 0.0 3.6654248 0.0 0.0 0.0 0.7479404 0.0 0.0 0.0 0.0 0.0 0.0 0.0 0.0 0.0 0.1022791 0.0 0.0 0.16944902 0.0 0.0 0.0 0.1617654 0.0 0.0 0.0 0.0 0.0 0.0 0.0 0.0 0.0 0.0 0.0 0.0 0.0 0.0 0.0 0.0 0.0 0.0 0.0 4.825734 0.0 0.0 0.0 0.0 0.0 0.0
1662 0.0 0.0 0.0 0.0 0.0 0.0 0.0 6.2412653 5.605876 0.0 0.0 0.0 0.0 0.0 0.0 0.0 0.0 0.0 2.3563612 0.0 0.0 0.0 0.0 0.0 2.5562997 0.0 5.3531713 0.0 0.0 0.0 0.0 0.0 0.0 0.0 0.40000665 2.947618 0.0 0.0 0.0 0.0 0.0 0.0 0.0 3.961706 0.0 0.0 0.0 0.0 0.0 0.0 0.0 0.0 0.0 0.0 0.0 0.0 0.0 0.0 0.0 0.0 0.0 0.0 0.0 1.1705037 0.0 0.0 0.0 8.24842 0.0 0.0 0.0 0.0 0.0 0.0 0.0 0.0 6.245358 0.0 0.0 0.0 4.1625404 0.0 0.0 0.0 0.0 0.030160643 0.0 0.0 0.0 0.0 0.0 0.0 0.0 0.0 2.8911245 0.0 0.0 1.1410753 0.0 0.0 0.0 0.09929126 0.0 0.0 0.0 0.0 0.0 0.0 0.0 0.0 0.0 0.04118476 0.0 0.0 0.0 0.0 0.0 0.0 0.0 0.0 0.0 4.860936 0.0 0.0 0.0 0.0 0.0 0.0
2280 0.0 0.0 0.0 0.0 0.62990373 0.0 0.0 4.3603177 6.44033 0.0 0.0 0.0 0.0 0.0 0.0 0.0 0.0 0.0 4.1270623 0.0 0.0 0.0 0.0 0.0 3.7160523 0.0 4.2846217 0.0 0.0 0.0 0.32592693 0.0 0.0 0.0 0.0 2.4853325 0.0 0.75241494 0.0 0.0 0.0 0.0 0.0 2.7308865 0.0 0.0 0.0 0.0 0.0 0.0 0.0 0.0 0.0 0.0 0.0 0.0 0.0 0.0 0.0 0.0 0.0 0.0 0.0 3.071892 0.0 0.0 0.2822153 8.64061 0.0 0.0 0.0 0.0 0.0 0.109916195 0.0 0.0 3.782268 0.0 0.0 0.0 5.6617174 0.0 0.0 0.0 0.0 0.051728487 0.0 0.0 0.0 0.0 0.0 0.0 0.0 0.0 0.0 0.0 0.0 0.0 0.13702136 0.3235224 0.0 0.26687443 0.0 0.0 0.0 0.0 0.0 0.44998622 0.0 0.0 0.0 0.0 0.0 0.0 0.3910407 0.0 0.0 0.0 0.0 0.0 0.0 2.7172735 0.13746923 0.0 0.0 0.5242737 0.0 0.0
2307 0.0 0.0 0.0 0.0 0.0 0.0 0.0 1.7136366 4.318459 0.0 0.0 0.0 0.0 0.0 0.0 0.0 0.0 0.0 4.3856673 0.0 0.0 0.0 0.0 0.0 6.5270724 0.0 3.8801773 0.0 0.0 0.0 0.0 1.3115692 0.0 0.0 0.0 3.9233553 0.0 0.0 0.0 0.0 0.0 0.0 0.0 0.72383046 0.0 0.0 0.0 0.0 0.0 0.0 0.0 0.0 0.0 0.0 0.0 0.0 0.0 0.0 0.0 0.0 0.0 0.0 0.0 1.2392635 0.0 0.0 0.0 9.1977625 0.0 0.0 0.0 0.0 0.0 0.0 0.023497384 0.0 3.8816488 0.0 0.0 0.0 4.840202 0.0 0.0 0.0 0.0 0.0 0.06953714 0.0 0.0 0.0 0.0 0.23391823 0.0 0.0 0.0 0.0 0.0 0.0 0.0 2.3712537 0.0 1.6235427 0.0 0.0 0.0 0.0 0.0 0.0 0.0 0.0 0.0 0.0 0.0 0.0 0.0 0.0 0.0 0.0 0.0 0.0 0.0 3.9014444 0.0 0.0 0.0 0.0 0.3806628 0.0
16 0.0 3.6142325 0.0 0.0 0.0 0.0 0.0 0.0 4.5204453 0.0 0.0 0.0 0.0 0.0 0.0 0.7103316 0.0 0.0 0.0 0.0 0.0 0.0 0.0 0.0 0.0 0.0 0.0 0.0 0.0 0.0 0.62532306 0.0 0.0 0.0 0.0 0.0 0.0 0.0 0.0 0.0 8.770597 0.0 0.35858533 0.0 0.0 0.0 0.0 0.0 0.17195645 0.0 0.0 0.0 0.0 0.0 0.0 4.2366796 0.0 0.0 0.0 0.0 0.0 0.0 0.0 0.0 0.0 0.0 0.0 0.0 0.0 0.0 5.2630033 0.0 0.0 0.0 6.1844635 0.0 0.0 0.0 0.0 0.0 4.4730654 0.0 0.0 0.0 0.0 0.0 0.0 0.0 0.0 1.699031 0.0 7.046553 0.0 0.0 0.0 0.0 0.0 1.5815017 0.0 0.0 0.0 0.0 0.0 3.3572862 0.0 8.255579 0.0 0.0 0.0 0.0 0.0 0.0 0.0 0.0 0.0 0.0 0.6370286 0.0 0.0 0.0 1.4330508 0.0 0.0 0.0 0.0 0.0 0.0 0.0
11 0.0 4.3322897 0.0 0.0 0.0 0.0 0.7584329 0.0 4.0465274 0.0 0.0 0.0 0.0 0.0 0.0 4.8283343 0.0 0.0 0.31308916 0.0 0.088177085 0.0 0.0 0.0 0.0 0.0 0.0 0.0 0.0 0.0 0.0 0.0 0.0 0.0 0.0 0.0 0.0 0.0 0.0 0.0 7.635225 0.0 0.12350415 0.0 0.0 0.0 0.0 0.0 0.0 0.0 0.0 0.0 0.0 0.0 0.0 6.87673 0.0 0.0 0.0 0.0 0.0 0.0 0.0 0.0 0.0 0.0 0.0 0.0 0.0 0.0 5.345736 0.0 0.0 0.0 8.472176 0.0 0.0 0.0 0.0 0.0 5.321775 0.0 0.0 0.0 0.0 0.0 0.0 0.0 0.0 1.853139 0.0 8.747982 0.0 0.0 0.0 0.0 0.0 1.5924258 0.0 0.0 0.0 0.0 0.0 3.9054928 0.0 9.269151 0.0 0.0 0.0 0.0 0.0 0.0 0.0 0.0 0.0 0.0 0.21494392 0.0 0.0 0.0 1.0963374 0.0 0.74270755 0.0 0.0 0.0 0.14450231 0.0
48 0.0 2.6599889 0.0 0.0 0.0 0.0 0.0 0.0 0.85778016 0.0 0.0 0.0 0.0 0.0 0.0 4.2621446 0.0 0.0 0.0 0.0 0.0 0.0 0.0 0.0 0.0 0.0 0.0 0.0 0.0 0.0 3.0636823 0.0 0.0 0.0 0.0 0.0 0.0 0.0 0.0 0.0 5.796198 0.0 0.0 0.0 0.0 0.0 0.0 0.0 0.0 0.0 0.0 0.0 0.0 0.0 0.0 4.4995217 0.0 0.0 0.0 0.0 0.0 0.0 0.0 0.0 0.0 0.0 0.0 0.0 0.10592889 0.0 6.0154195 0.5836225 0.0 0.0 6.9402966 0.0 0.0 0.0 0.0 0.0 6.710528 0.0 0.0 0.0 0.0 0.0 0.0 0.0 0.0 0.67329437 0.5793641 3.4566123 0.0 0.0 0.0 0.0 0.0 1.0817317 0.0 0.0 0.5960924 0.0 0.0 5.130115 0.0 8.057574 0.0 0.0 0.0 0.0 0.0 0.0 0.09230241 0.0 0.0 0.0 1.7698684 0.0 0.0 0.0 0.0 0.0 0.0 0.0 0.0 0.0 0.0 0.85632956
68 0.0 6.0188384 0.0 0.0 0.0 0.0 0.0 0.0 3.8619843 0.0 0.0 0.0 0.0 0.0 0.0 3.7389367 0.41086355 0.0 0.0 0.0 0.040014934 0.0 0.0 0.0 0.0 0.0 0.0 0.0 0.0 0.0 0.15589328 0.0 0.0 0.0 0.0 0.0 0.0 0.0 0.0 0.0 7.5178204 0.0 0.0 0.0 0.0 0.0 0.0 0.0 0.0 0.048913524 0.0 0.0 0.0 0.0 0.0 3.427766 0.0 0.0 0.0 0.0 0.0 0.0 0.0 1.0723705 0.0 0.0 1.4455059 0.0 0.0 1.6046283 3.1602168 0.0 0.0 0.0 8.617583 0.0 0.0 0.0 0.0 0.0 5.357149 0.0 0.0 0.0 0.0 0.0 0.0 0.0 0.0 0.0 0.0 5.5260196 0.0 0.0 0.0 0.0 0.0 0.90733254 0.0 0.0 0.0 0.0 0.0 2.030171 0.0 7.6186395 0.0 0.0 0.0 0.0 0.0 0.0 0.0 0.0 2.3877306 0.0 4.337406 0.0 0.0 0.0 0.0 0.0 0.0 0.0 0.0 0.0 0.0 0.0
67 0.0 3.9019725 0.0 0.0 0.0 0.0 0.0 0.0 0.057187185 0.0 0.0 0.0 0.3011513 0.0 0.0 2.7702844 0.0 0.0 0.0 0.3269406 0.0 0.0 0.0 0.0 0.0 0.0 0.0 0.0 2.052698 0.0 1.6040429 0.0 0.0 0.0 0.0 0.0 0.0 0.0 0.0 0.0 5.360318 0.0 0.0 0.9007626 0.33255026 0.0 0.0 0.0 0.0 0.0 0.0 0.0 0.0 0.0 0.0 1.6847934 0.0 0.0 0.0 0.0 0.0 0.0 0.0 0.0 0.0 0.0 0.0 0.0 0.0 2.040638 5.3640285 0.0 0.0 0.0 6.9503736 0.0 0.0 0.0 0.40020856 0.0 5.207292 0.0 0.0 0.0 0.0 0.0 0.0 0.0 0.0 1.3611053 0.0 4.3958044 0.0 0.0 1.6667048 0.0 0.0 2.8527074 0.0 0.0 0.2775896 0.0 0.0 6.4107275 0.0 8.529987 0.0 0.0 0.0 0.0 0.0 0.0 0.0 0.0 0.0 0.0 1.7023135 0.0 0.0 0.0 0.0 0.0 0.0 0.0 0.0 0.0 0.0 0.0
88 0.0 1.5095519 0.0 0.0 0.0 0.0 0.0 0.0 8.400975 0.0 0.0 0.0 0.0 0.0 0.0 0.0 0.0 0.0 0.0 0.0 0.0 0.0 0.0 0.0 0.0 0.0 0.0 0.0 0.0 0.0 1.4399511 0.0 0.0 0.0 0.0 0.0 0.0 0.0 0.0 0.0 10.723199 0.0 0.0 0.936897 0.0 0.0 0.0 0.0 0.0 0.4298103 0.0 0.0 0.0 0.0 0.0 4.1669083 0.0 0.0 0.0 0.0 0.0 0.0 0.0 1.333502 0.0 0.0 0.0 0.0 0.0 0.9142686 2.099415 0.0 0.0 0.0 2.6955924 0.0 0.0 0.0 0.0 0.0 0.48574495 0.0 0.0 0.0 0.0 0.0 1.075094 0.0 0.0 0.0 0.0 8.615912 0.0 0.0 0.0 0.0 0.0 0.0 1.4232485 0.0 0.0 0.0 0.0 0.0 0.0 3.2789857 0.0 0.0 0.0 0.0 0.0 0.0 0.0 0.0 0.0 0.0 0.0 0.0 0.49866205 0.0 2.4058552 0.0 0.0 0.0 0.0 0.0 0.0 2.0813713
116 0.0 3.4536035 0.0 0.82851523 0.0 0.0 0.0 0.0 1.922023 0.0 0.0 0.0 0.13788873 0.0 0.0 1.8150389 0.0 0.0 0.0 0.05438655 0.0 0.49308327 0.39620236 0.0 0.0 0.0 0.0 0.0 0.0 0.0 0.62952965 0.0 0.32239813 0.0 0.0 0.0 0.0 0.0 0.0 0.0 9.434658 0.3124879 1.4696314 0.0 0.0 0.0 0.0 0.0 0.0 0.0 0.0 0.0 0.0 0.0 0.0 3.9178443 0.0 0.0 0.0 0.0 0.0 0.0 0.0 1.1930368 0.0 0.0 0.0 0.0 0.0 0.0 4.5396185 0.0 0.0 0.0 4.3906746 0.0 0.0 0.0 0.0 0.0 4.4650736 0.0 0.0 0.0 0.0 0.0 0.0 0.0 0.0 4.26725 0.0 6.243525 0.0 0.0 0.0 0.0 0.0 2.4091656 2.3031003 0.0 0.0 0.0 0.0 4.108305 0.0 7.182884 0.0 0.0 0.0 0.28094494 0.0 0.0 0.25556093 0.0 0.0 0.0 0.0 0.0 0.0 0.0 1.2978557 0.0 0.0 0.0 0.0 0.0 0.0 0.0
119 0.0 0.0 0.0 3.0973005 0.0 0.0 0.0 0.0 2.7634652 0.0 0.0 0.0 2.1582108 0.0 0.0 0.0 0.0 0.0 0.17124255 2.780668 0.0 2.7617264 0.0 0.0 0.0 0.0 0.0 0.0 0.0 0.0 0.0 0.0 0.0 0.0 2.1544657 5.8130846 0.0 0.0 0.0 0.8079685 2.8146348 0.49660802 0.0 0.0 0.0 0.0 0.0 0.0 0.0 0.0 1.9939064 0.0 0.0 0.0 0.0 0.0 0.0 0.58555084 0.0 0.0 0.0 0.5997096 0.0 0.0 0.0 0.7729054 0.0 0.0 0.0 0.0 0.0 0.0 0.0 0.0 0.0 0.0 0.796807 0.0 0.0 0.0 0.0 0.0 0.0 0.0 0.0 0.0 0.0 0.0 0.0 0.0 0.0 0.0 0.0 0.0 0.0 0.0 0.0 1.9876072 0.11146048 1.5883138 0.0 0.0 0.0 0.0 0.0 0.0 0.0 0.0 0.0 0.0 0.0 0.0 0.0 0.0 0.0 0.0 0.0 0.0 2.3747692 0.0 0.10810544 0.0 3.395298 0.0 0.0 0.0 1.5705878 1.0860002
493 0.0 1.2013471 0.0 0.0 0.0 0.53816354 8.101029 0.0 0.0 0.0 0.0 0.0 0.0 0.0 0.0 0.0 0.0 0.0 0.0 0.0 0.0 0.0 0.0 0.0 0.0 0.0 0.0 0.0 0.0 0.0 0.0 4.077366 0.0 2.493925 0.0 0.0 0.0 0.0 0.0 0.0 1.1588551 0.0 0.0 0.0 0.0 0.0 0.0 0.0 5.6338415 0.0 0.0 0.0 0.0 5.718421 0.0 2.4369366 0.0 0.0 0.0 0.0 0.0 0.0 0.0 0.0 0.0 0.0 0.0 0.0 0.0 0.0 0.0 0.0 0.0 0.0 0.0 0.2534623 0.0 0.0 0.0 0.0 0.18488216 0.0 0.0 0.94692755 0.0 2.2621322 0.0 0.0 0.0 0.0 0.0 0.9902983 0.0 0.0 0.0 0.0 0.0 0.0 0.0 0.0 0.0 0.0 0.0 0.0 0.0 3.9859662 0.0 0.0 0.0 0.0 3.3739147 0.0 0.0 0.0 0.0 0.0 0.0 0.0 0.0 0.0 6.3837376 1.5202038 4.6895247 0.0 0.49590313 0.08558102 0.0 0.0
167 0.0 5.3997054 0.0 0.0 0.0 0.9346616 0.0 0.0 2.142956 0.0 0.0 0.0 0.0 0.0 0.0 2.9818327 0.0 0.0 0.0 0.055347793 0.18337058 0.0 0.28342912 0.0 0.0 0.0 0.0 0.0 0.49076495 0.0 1.7373899 0.0 0.0 0.0 0.0 0.0 0.0 0.0 0.0 0.0 4.99983 0.0 0.18668075 0.1666894 0.0 0.0 0.0 0.0 0.0 0.0 0.0 0.0 0.0 0.0 0.0 4.238814 0.0 0.0 0.0 0.0 0.0 0.0 0.0 0.0 0.0 0.0 1.709965 0.0 0.0 0.113742955 5.5850663 0.0 0.0 0.0 6.2839165 0.0 0.0 0.0 0.0 0.0 6.1115484 0.0 0.0 0.0 0.0 0.0 0.0 0.0 0.0 1.555806 0.0 4.3825088 0.0 0.0 0.6474332 0.0 0.0 2.3059726 0.0 0.0 0.0 0.0 0.0 5.348672 0.0 8.735925 0.60824406 0.0 0.0 0.0 0.0 0.0 0.0 0.0 0.0 0.0 0.4458798 0.0 0.0 0.0 0.0 0.0 0.07467534 0.0 0.0 0.0 0.0 0.0
181 0.0 5.72487 0.0 0.0 0.0 0.0 0.0 0.0 1.5660596 0.0 0.0 0.0 0.0 0.0 0.0 4.9724464 0.0 0.0 0.0 0.0 1.0272276 0.0 0.0 0.0 0.0 0.0 0.80500555 0.0 0.0 0.0 2.2677011 0.0 0.0 0.0 0.0 0.0 0.0 0.0 0.0 0.0 5.4349537 0.54486036 0.45175296 0.0 0.0 0.0 0.0 0.0 0.0 0.0 0.0 1.8746936 0.0 0.0 0.0 4.679185 0.0 0.0 0.0 0.0 0.21215084 0.0 0.0 0.0 0.0 0.0 0.0 0.0 0.0 0.0 4.7909665 0.0 0.0 0.0 8.810244 0.0 0.0 0.0 0.0 0.0 5.247864 0.0 0.0 0.06195537 0.0 0.0 0.0 0.0 0.0 2.7079716 0.0 4.80956 0.0 0.0 0.0 0.0 0.0 2.294165 0.0 0.0 0.0 0.0 0.0 4.3599834 0.0 10.175837 0.0 0.0 0.068329684 0.0 0.0 0.0 1.346047 0.0 0.0 0.0 2.6363275 0.0 0.0 0.0 0.0 0.0 0.0 0.0 0.0 0.0 0.25251657 0.0
15 0.0 4.252388 0.0 0.0 0.0 0.0 0.0 0.0 3.6346638 0.0 0.0 0.0 0.0 0.0 0.0 5.5010724 0.0 0.0 0.0 0.0 0.0 0.0 0.0 0.0 0.0 0.0 0.0 0.0 0.0 0.0 0.23379843 0.0 0.0 0.0 0.0 0.0 0.0 0.0 0.0 0.0 6.189376 0.0 0.0 0.46415383 0.0 0.0 0.0 0.32915783 0.0 0.0 0.0 0.0 0.0 0.0 0.0 3.295339 0.03183838 0.0 0.0 0.0 0.0 0.0 0.0 0.0 0.0 0.6205689 0.0 0.0 0.0 0.0 4.6151795 0.0 0.0 0.0 7.788819 0.0 0.0 0.0 0.0 0.0 6.799179 0.0 0.0 0.0 0.0 0.0 0.0 0.0 0.0 2.1697083 0.0 3.804079 0.0 0.0 0.0 0.0 0.0 2.2787328 0.0 0.0 0.0 0.0 0.0 2.9843369 0.0 7.769119 0.0 0.0 0.0 0.0 0.0 0.0 0.0 0.22246161 0.0 0.0 0.38941094 0.0 1.8341674 0.0 0.0 0.0 0.6592439 0.0 0.0 0.0 0.0 0.0
64 0.0 4.371943 0.0 0.9093674 0.0 0.0 0.0 0.0 1.56449 0.0 0.0 0.0 0.0 0.0 0.0 4.815948 0.0 0.0 0.0 0.0 1.4434859 0.0 0.0 0.0 0.0 0.0 0.0 0.0 0.0 0.0 0.0 0.0 0.0 0.0 0.0 0.0 0.0 0.0 0.0 0.0 6.0653057 0.0 0.0 0.0 0.0 0.0 0.0 0.0 0.0 0.0 0.0 0.0 0.0 0.0 0.0 3.9460897 0.0 0.0 0.0 0.0 0.0 0.0 0.0 0.0 0.0 0.0 0.0 0.0 0.0 0.0 5.568112 0.91875255 0.0 0.0 8.7178 0.0 0.0 0.0 0.0 0.0 5.948331 0.0 0.0 0.0 0.0 0.0 0.3356336 0.0 0.0 1.9671013 0.0 5.7752533 0.0 0.0 0.0 0.0 0.0 2.0909905 0.0 0.0 0.5370659 0.0 0.0 3.7310042 0.0 8.354911 0.0 0.0 0.0 0.28636354 0.0 0.0 0.0 0.0 0.0 0.0 0.824505 0.0 0.0 0.0 0.020288404 0.0 0.0 0.0 0.0 0.0 0.0 0.0
66 0.0 3.8264906 0.0 0.0 0.0 0.0 0.8438841 0.0 3.7576227 0.0 0.0 0.0 0.0 0.0 0.0 3.4839995 0.0 0.0 0.0 0.0 0.019051597 0.14644842 0.3772345 0.0 0.0 0.0 0.0 0.0 0.0 0.0 1.1735307 0.38896918 0.0 0.0 0.0 0.0 0.0 0.0 0.0 0.0 8.082829 0.0 0.0 1.9346185 0.0 0.0 0.0 0.0 0.0 0.0 0.0 0.0 0.0 0.0 0.0 5.4215217 0.0 0.0 0.0 0.0 0.0 0.0 0.0 0.0 0.0 0.0 0.0 0.0 0.0 0.0 7.9029055 0.0 0.0 0.0 7.4778957 0.0 0.0 0.0 0.0 0.0 5.2338567 0.0 0.0 0.0 0.2016315 0.0 0.0 0.0 0.0 0.80513537 0.0 8.046153 0.0 0.0 0.0 0.0 0.0 1.818227 0.0 0.0 0.0 0.0 0.0 3.1403441 0.0 8.396951 0.0 0.0 0.0 0.0 0.0 0.0 0.0 0.0 0.0 0.0 0.40174037 0.0 0.0 0.0 1.1529973 0.0 0.0 0.0 0.0 0.0 0.0 0.0
73 0.0 2.31189 0.43400794 0.0 0.0 0.26812285 0.0 0.0 2.9336681 0.0 0.0 0.0 0.0 0.0 0.0 4.699741 0.0 0.0 0.0 0.0 0.0 0.0 0.0 0.0 0.0 0.0 0.0 0.0 0.0 0.0 0.9984015 0.0 0.0 0.0 0.0 0.0 0.0 0.0 0.0 0.0 8.861696 0.0 0.0 0.0 0.0 0.0 0.0 0.8523931 0.0 0.0 0.0 0.0 0.0 0.20013799 0.0 2.9120438 0.0 0.0 0.0 0.0 0.0 0.0 0.0 3.854495 0.0 0.0 0.6374298 0.0 0.0 0.0 4.826827 0.0 0.0 0.0 7.917388 0.0 0.0 0.0 0.0 0.0 4.420649 0.0 0.0 0.0 0.0 0.0 0.0 0.0 0.0 6.0773387 0.0 5.4226027 0.0 0.0 0.0 0.0 0.0 2.3316915 0.0 0.0 0.0 0.0 0.0 2.2497578 0.0 7.6188006 0.0 0.0 0.0 0.0 0.0 0.0 0.0 0.0 0.0 0.0 1.5177646 0.0 0.0 0.0 1.8254298 0.0 0.0 0.0 0.0 0.0 0.0 0.0
92 0.0 5.183679 1.1783625 0.0 0.0 0.82814646 0.0 0.0 3.8490772 0.0 0.0 0.021783069 0.0 0.6001522 0.0 4.5001884 0.0 0.0 0.0 0.0 0.0 0.0 0.0 0.0 0.0 0.0 0.0 0.0 0.0 0.0 0.1814607 0.0 0.0 0.0 0.0 0.0 0.0 0.0 0.11160127 0.0 4.946406 0.0 0.0 0.0 0.0 0.0 0.86626136 0.0 0.0 0.0 0.1988094 0.0 0.0 0.0 0.0 5.380454 0.0 0.0 0.0 0.0 0.0 0.0 0.0 0.0 0.0 0.0 0.33534905 0.0 0.43978113 0.0 5.4211493 0.0 0.0 0.0 7.7516675 0.0 0.0 0.0 0.0 0.0 5.8380113 0.0 0.0 0.111266024 0.0 0.0 0.0 0.0 0.0 2.597947 0.0 5.708322 0.0 0.0 0.0 0.0 0.0 2.1421206 0.0 0.0 0.6453302 0.0 0.0 4.805975 0.0 8.522015 0.0 0.0 0.0 0.0 0.0 0.4433615 0.0 0.25397328 0.0 0.48508096 2.514076 0.0 0.0 0.0 0.43512374 0.0 0.0 0.0 0.0 0.0 0.0 0.031719476
172 0.0 4.5812783 0.0 0.0 0.0 0.0 0.0 0.0 3.3220603 0.0 0.0 0.0 0.0 0.0 0.0 3.6398942 0.0 0.0 0.0 0.0 0.0 0.0 0.578716 0.0 0.0 0.0 0.0 0.0 0.0 0.0 0.0 0.0 0.0 0.0 0.0 0.0 0.0 0.09541489 0.0 0.0 8.337237 0.0 0.91969275 0.0 0.0 0.0 0.0 0.0 0.0 0.0 0.0 0.0 0.0 0.0 0.0 2.7710297 0.0 0.0 0.0 0.0 0.0 0.0 0.0 0.0 0.0 0.0 0.0 0.0 0.0 0.08752424 5.665199 0.0 0.0 0.0 4.73117 0.0 0.0 0.0 0.0 0.0 5.17705 0.0 0.0 0.0 0.0 0.0 0.0 0.0 0.0 2.3614824 0.0 7.228458 0.0 0.0 0.0 0.0 0.0 1.5562797 0.0 0.0 0.0 0.0 0.0 4.063175 0.0 6.7847705 0.0 0.0 0.0 0.0 0.0 0.0 0.0 0.0 0.0 0.0 0.4682975 0.0 0.0 0.0 0.0 0.0 0.0 0.0 0.0 0.0 0.0 0.0
186 0.0 0.0 0.0 0.0 0.0 0.030063402 0.0 0.0 0.0 0.0 0.20009445 0.0 0.0 0.0 0.0 0.0 2.288353 0.0 0.28960648 0.0 0.0 0.19550513 0.0 0.0 2.3982215 0.0 0.0 0.0 0.0 0.0 4.6282554 0.0 0.0 0.0 0.0 0.0 0.0 0.0 0.0 0.0 7.0789733 0.0 0.0 0.0 0.0 0.0 0.0 0.50588536 0.0 0.42633 0.0 0.0 2.424685 0.0 0.03202801 0.0 0.0 0.0 1.1107926 0.0 0.0 0.0 0.0 7.6970987 0.0 0.0 0.0 0.0 0.0 0.0 0.0 1.4764919 0.0 0.0 1.9584476 0.38198936 0.0 0.0 0.0 0.0 0.86448133 0.030022796 0.0 0.0 0.0 0.0 0.0 0.0 0.0 3.244707 0.0 0.04896148 0.0 0.0 0.7742391 0.0 0.0 0.0 1.8416407 5.0895886 0.0 0.0 0.0 0.0 0.3226348 2.9410944 0.026230833 0.0 0.0 0.0 0.0 0.0 0.0 0.0 3.3752728 0.0 1.7698832 0.0 0.0 0.8921478 2.405615 0.0 1.3154924 0.0 0.0 1.918322 0.0 0.0
63 0.0 0.55026215 0.0 0.0 0.31748584 0.6954396 0.0 0.0 0.0 0.0 0.0 0.0 0.0 0.0 0.0 0.0 0.0 0.0 0.0 0.0 0.0 0.0 0.0 0.0 0.1922124 0.0 0.0 0.0 0.0 0.0 8.091061 0.0 0.0 0.0 0.0 0.0 0.0 0.0 0.0 0.0 6.5698867 0.0 0.00018021092 0.0 0.0 0.0 0.0 0.0 0.0 0.0 0.0 0.0 0.0 0.0 0.0 0.07373806 0.0 0.0 0.0 0.0 0.0 0.0 0.0 4.681476 0.7374288 0.0 0.0 0.0 0.0 0.42866474 0.0 3.1253726 0.0 0.0 0.63782525 0.0 0.0 0.0 0.9912487 0.0 0.13511717 0.0 0.0 0.0 0.0 0.0 0.0 0.0 0.0 2.7949913 0.0 0.0 0.0 0.0 0.0 0.0 0.0 1.5802454 0.65457183 1.1432434 0.0 0.0 0.0 0.0 0.0 2.3169177 0.0 0.0 0.0 0.0 0.0 0.0 1.0452975 0.0 0.0 0.0 0.0 0.0 0.0 0.0 3.5541983 0.0 0.0 0.0 0.0 0.34850597 0.0 0.0
436 0.0 0.0 0.0 0.0 0.0 0.0 0.0 0.0 0.0 0.0 3.4338837 0.0 0.0 0.0 0.0 0.0 0.0 0.0 0.0 0.34871763 0.0 0.0 0.0 0.0 0.0 0.0 0.0 0.0 0.37986037 0.0 0.0 0.0 0.0 0.0 2.200869 0.0 0.0 0.0 0.0 0.4382897 0.31499597 0.0 0.0 0.0 0.0 1.8073022 0.9636273 2.7990885 0.0 0.17457962 0.0 0.0 0.0 0.0 5.834036 0.0 0.0 0.0 0.5613791 0.0 0.0 4.6211 0.0 0.0 0.0 7.8798666 0.0 0.0 0.0 0.0 0.0 0.34940028 0.0 0.0 0.0 0.0 0.0 0.0 4.068838 0.6026702 0.0 4.3024883 0.0 0.0 0.0 0.0 0.0 3.7491066 0.0 0.0 0.0 0.0 0.0 0.0 0.0 0.0 0.0 0.0 0.0 0.0 0.8163526 0.0 0.0 0.0 0.0 3.0042632 6.931281 0.0 0.0 0.0 0.87807816 0.0 0.0 0.0 0.0 0.0 0.34255037 0.0 0.6296623 4.067113 0.0 0.0 0.0 0.0 0.0 0.0 0.0 0.0
100 0.0 0.0 0.0 0.0 0.0 0.0 0.0 0.0 0.0 0.0 0.0 0.0 0.0 0.0 0.0 0.0 0.0 0.0 1.4384608 0.0 0.0 0.0 0.0 0.0 2.1552117 0.0 0.0 0.0 0.0 0.0 6.154857 0.0 0.0 0.0 0.0 0.0 0.0 0.0 0.0 0.0 6.652859 0.0 0.55562025 0.9193645 0.0 0.0 0.37139022 0.0 0.0 0.0 0.0 0.0 1.7577268 0.0 0.0 0.0 0.0 0.0 0.0 0.0 0.0 0.0 0.0 10.780371 0.0 0.0 0.0 0.0 0.0 0.0 0.0 0.0 0.0 0.0 0.0 0.0 0.0 0.0 0.0 0.0 0.8684932 0.0 0.0 0.0 0.0 0.0 0.0 0.0 0.0 7.1111507 0.0 1.0576552 0.0 0.0 0.0 0.0 0.0 1.6332325 3.187618 1.6719501 0.0 0.0 0.0 0.0 0.0 2.3500607 0.0 0.0 0.0 0.0 0.0 0.0 0.0 0.0 0.0 0.0 0.0 0.0 0.0 0.0 4.6554728 0.0 0.0 0.0 0.0 3.685806 0.0 0.0
101 0.0 0.0 0.0 0.0 0.0 0.0 0.0 0.08091915 1.9050479 0.0 0.0 0.0 0.0 0.0 0.0 0.0 0.0 0.0 0.6602728 0.0 0.0 0.0 0.0 0.0 1.6544014 0.0 0.0 0.0 0.0 0.0 7.7823024 0.0 0.0 0.0 0.0 0.0 0.0 0.0 0.0 0.0 7.149172 0.0 0.0 1.6165696 0.0 0.0 0.0 0.0 0.0 0.0 0.0 0.0 0.46971154 0.0 0.0 0.0 0.22938979 0.0 0.0 0.0 0.0 0.0 0.0 6.953628 0.0 0.0 0.0 0.0 0.0 0.0 0.0 1.2008412 0.0 0.0 0.0 0.0 0.0 0.0 0.0 0.0 1.186298 0.0 0.0 0.0 0.0 0.0 0.0 0.0 0.0 4.3387384 0.0 1.0376242 0.0 0.0 0.0 0.0 0.0 0.43735418 2.5417051 0.5595944 0.0 0.0 0.0 0.0 0.0 2.9785492 0.0 0.0 0.0 0.0 0.0 0.0 1.4218123 0.0 0.0 0.0 0.0 0.0 0.0 0.0 4.4605556 0.0 1.4764719 0.0 0.0 3.2253442 0.0 0.0
107 0.0 0.0 0.0 0.0 0.0 0.0 0.0 0.0 0.0 0.0 0.0 0.0 0.7261282 0.0 0.0 0.0 0.0 0.13981272 0.0 0.0 0.0 0.0 0.0 0.0 0.0 0.0 0.0 0.0 0.0 0.0 4.296461 0.0 0.0 0.0 0.0 0.0 0.0 0.0 0.0 0.0 4.156756 1.3891357 0.0 1.3045471 0.0 0.0 0.0 0.0 0.0 0.0 0.0 0.0 5.750329 0.0 0.0 0.0 0.0 0.0 0.0 0.0 0.0 0.44978368 0.0 11.066995 0.0 0.0 2.1995683 0.016633524 0.0 0.0 0.0 0.0 0.0 0.0 0.0 0.0 0.0 0.0 0.98095024 0.0 0.0 0.0 0.0 0.0 0.0 0.0 0.0 0.0 0.0 11.62322 0.0 1.6649847 0.0 0.0 0.0 0.0 0.0 2.2341654 7.9510884 0.0 0.0 0.0 0.0 0.0 0.0 0.77822816 0.0 0.0 0.0 0.0 0.064898565 0.0 0.0 0.0 0.0 0.0 0.0 0.0 0.0 0.0 6.2650723 0.0 1.1535615 0.0 0.0 3.74733 0.0 0.16607508
458 0.0 0.0 0.0 4.006323 0.0 0.0 2.4173875 0.0 2.8637486 0.5840896 0.0 0.1413687 0.0 0.0 0.0 0.0 0.47451407 0.0 0.0 0.0 0.0 7.0466857 3.2742398 0.0 0.0 0.0 0.0 0.0 1.3307363 0.0 0.0 0.0 1.8698107 0.0 0.0 7.512353 0.0 0.0 0.0 0.0 4.8728476 0.0 1.918133 2.318868 0.0 0.0 1.5894326 0.0 0.0 0.0 0.0 0.0 0.0 0.0 0.0 1.9104468 0.0 0.0 0.3453509 0.0 0.0 0.0 0.0 0.0 0.0 0.0 0.0 0.0 0.0 0.0 0.0 4.1051993 0.0 0.0 0.0 0.0 0.0 0.0 0.0 0.0 0.0 0.0 0.0 0.0 0.0 0.0 0.0 0.0 0.0 0.0 0.0 0.0 0.0 0.0 4.9171376 0.0 0.0 0.03669663 0.0 0.0 0.0 0.0 0.0 0.0 0.0 0.0 0.0 0.0 0.0 2.711206 0.0 0.0 0.0 0.0 0.0 0.0 0.0 0.0 0.0 0.7674843 0.0 0.0 0.0 0.0 0.0 0.0 0.0 0.0
1443 0.0 0.0 0.0 0.0 0.0 0.0 0.0 0.0 0.0 0.0 0.0 0.0 0.0 0.0 0.0 0.0 5.3626432 0.0 0.0 0.0 0.0 0.0 0.0 0.0 0.0 0.0 0.0 0.0 0.0 0.0 0.0 0.0 0.0 0.0 0.0 0.0 0.0 0.0 0.0 0.0 8.906058 0.0 0.0 0.0 0.0 0.0 0.0 0.0 0.0 2.4291096 0.0 0.0 1.0664626 0.0 0.0 0.0 0.0 0.0 0.0 0.0 0.0 0.0 0.0 6.6562867 0.0 0.0 6.190452 0.32352206 0.0 0.0 0.0 0.0 4.1371636 0.0 5.571635 0.0 0.0 0.0 0.0 0.0 0.17129454 0.0 0.0 0.0 0.0 0.0 0.0 0.0 0.0 0.0 0.0 0.0 0.0 0.0 0.0 0.0 0.0 0.0 0.0 8.924285 0.0 0.0 0.0 0.0 2.046822 1.4994746 0.0 0.0 0.0 0.0 0.0 0.0 0.0 0.0 5.5241838 0.0 7.088071 0.0 0.0 0.0 0.0 0.0 0.0 0.0 0.0 0.0 0.0 0.0
1445 0.0 0.0 0.0 0.0 0.0 0.0 0.104589194 0.0 0.0 0.0 0.0 0.0 0.0 0.0 0.0 0.0 5.0344696 0.0 0.0 0.3869847 0.0 0.0 0.0 0.0 0.0 0.0 0.0 0.0 0.0 0.0 0.0 0.0 0.0 0.0 0.0 0.0 0.0 0.0 0.0 0.0 7.305115 0.0 0.0 0.0 0.0 0.0 0.0 0.0 0.0 3.065054 0.0 0.0 0.39877567 0.0 0.0 0.0 0.0 0.0 0.0 0.0 0.0 0.0 0.0 7.5531044 0.0 0.0 4.929065 0.0 0.0 0.0 0.0 0.0 4.4145856 0.0 5.12468 0.0 0.30881113 0.0 0.0 0.0 0.0 0.0 0.0 0.0 0.0 0.0 0.0 0.0 0.0 0.0 0.0 0.0 0.0 0.0 0.0 0.0 0.0 0.0 0.0 9.944868 0.0 0.0 0.0 0.0 2.599658 0.0 0.0 0.0 0.0 0.0 0.0 0.0 0.0 0.0 5.9325237 0.0 6.023597 0.0 0.0 0.0 0.0 0.0 0.59203565 0.0 0.0 0.0 0.0 0.0
133 0.0 0.0 0.0 0.0 0.0 0.0 0.0 0.0 0.0 0.0 0.0 0.0 0.0 0.0 0.0 0.0 0.0 0.0 1.3112662 0.8015498 0.0 0.0 0.0 0.0 0.48729882 0.0 0.6615132 0.0 0.0 0.0 5.26874 0.0 0.0 0.0 0.0 0.0 0.0 0.0 0.0 0.5906486 4.607367 0.0 0.0 0.5245036 0.0 0.0 0.0 0.0 0.0 0.0 0.0 0.0 0.69212466 0.0 0.0 0.119902454 0.0 0.0 0.0 0.079347365 0.0 0.0 0.0 5.600278 0.2787473 0.0 0.0 0.0 0.0 0.0 0.36694726 1.9611162 0.0 0.0 2.1384664 0.0 0.0 0.0 1.0598139 0.0 1.5903518 0.0 1.5937018 0.0 0.0 0.0 0.0 0.0 0.0 5.479535 0.0 0.25012633 0.0 0.0 0.0 0.0 0.0 1.0215054 0.60925514 1.4136417 0.0 0.0 0.0 0.0 0.0 4.6339927 0.0 0.8748569 0.0 0.0 0.0 0.0 1.2269741 0.0 0.0 0.0 0.0 0.0 0.21561372 0.0 3.7254665 0.0 2.4312708 0.0 0.0 0.61046416 0.0 0.0
1567 0.0 0.0 6.169203 4.680187 0.0 0.0 0.0 0.0 0.0 0.0 0.0 0.0 0.0 0.0 0.0 0.0 0.0 5.222142 0.0 4.226162 1.3701156 0.0 0.0 0.0 0.0 0.0 5.1721315 0.0 0.0 0.0 0.0 0.0 5.7484074 0.0 0.0 0.0 0.0 0.0 0.0 0.0 0.0 0.0 0.0 0.0 0.0 0.0 0.42038262 4.6325154 0.0 0.0 0.0 0.0 0.0 0.0 0.0 0.0 0.0 0.0 0.0 0.0 0.0 5.938276 0.0 0.0 0.0 0.0 0.0 0.0 0.0 0.0 0.0 0.0 5.0259285 0.0 0.0 0.0 0.0 0.0 0.0 6.264147 0.0 3.5787425 0.0 0.0 0.0 0.0 0.0 1.8422314 0.0 0.0 0.0 0.0 0.0 0.0 0.0 0.0 0.0 0.0 0.0 0.0 0.0 0.0 0.0 0.0 0.0 0.0 0.0 0.0 0.0 0.0 0.0 0.0 0.0 0.0 0.0 0.0 0.0 0.0 1.0965295 0.0 0.0 0.0 0.0 0.0 0.0 0.0 0.0 4.0419483
890 0.0 0.0 5.480948 4.2747607 0.0 0.0 0.0 0.0 0.0 0.0 0.0 0.0 0.0 0.3284477 0.0 0.0 0.0 6.1142497 0.0 4.7375655 0.0 0.0 0.0 0.0 0.0 0.0 6.5727077 0.0 0.0 0.0 0.0 0.0 6.3262424 0.0 0.0 0.0 0.0 0.20428956 0.0 0.0 0.0 0.0 0.0 0.0 0.30295417 0.0 0.0 3.7844803 0.0 0.0 0.0 0.0 0.0 0.0 0.0 0.0 0.0 0.0 0.0 0.0 0.0 8.630651 0.0 0.0 0.0 0.0 0.0 0.0 0.0 0.0 0.0 0.0 6.988833 0.0 0.0 0.0 0.0 0.0 0.0 6.3071256 0.0 6.8201895 0.0 0.0 0.0 0.0 1.2090515 2.6663935 0.0 0.0 0.0 0.0 0.0 0.0 0.0 0.0 0.0 0.0 0.0 0.0 0.0 0.0 0.0 0.0 0.0 0.0 0.054394267 0.0 0.0 0.0 0.0 0.81615627 0.0 0.0 0.0 0.0 0.0 0.0 4.0665 0.0 0.0 0.0 0.0 0.0 0.0 0.0 0.0 4.2036285
1592 0.0 0.0 5.716329 2.8345258 0.0 0.40103257 0.0 0.0 0.0 0.0 0.0 0.0 0.0 0.0 0.0 0.0 0.0 7.0886397 0.0 4.2455826 0.0 0.0 0.0 0.0 0.0 0.0 5.1087127 0.0 0.0 0.0 0.0 0.0 4.578138 0.0 0.0 0.0 0.0 0.0 0.0 0.0 0.0 0.0 0.0 0.0 0.0 0.0 0.0 4.7569017 0.0 0.0 0.0 0.0 0.0 0.0 0.0 0.0 0.0 0.0 0.0 0.0 0.0 7.04227 0.0 0.0 0.0 0.0 0.0 0.0 0.0 0.0 0.0 0.0 4.694837 0.0 0.0 0.7068024 0.0 0.0 0.0 9.274794 0.0 5.695693 0.0 0.0 0.0 0.0 0.0 2.819609 0.0 0.0 0.0 0.0 0.0 0.0 0.0 0.0 0.0 0.0 0.0 0.0 0.0 0.0 0.0 0.0 0.0 0.0 0.27944782 0.0 0.0 0.0 0.0 0.0 0.0 0.0 0.0 0.0 0.0 0.0 0.5962525 0.0 0.0 0.0375605 0.0 0.0 0.0 0.0 0.0 3.4262435
1597 0.0 0.0 4.9077153 5.0198507 0.0 0.0 0.0 0.0 0.0 0.0 0.0 0.6517106 0.0 0.0 0.0 0.0 0.0 7.5474586 0.073534116 3.3784637 0.0 0.0 0.0 0.0 0.0 0.0 6.298797 0.0 0.0 0.0 0.0 0.0 7.4319854 0.0 0.0 0.0 0.0 0.0 0.0 0.0 0.0 0.0 0.0 0.0 0.0 0.0 0.0 3.9005349 0.0 0.0 0.0 0.0 0.0 0.0 0.0 0.0 0.0 0.0 0.0 0.0 0.0 7.6071053 0.0 0.0 0.011106644 0.0 0.0 0.0 0.0 0.0 0.0 0.0 7.988508 0.0 0.0 0.0 0.0 0.0 0.0 6.974248 0.42200017 5.780468 0.0 0.0 0.18625279 0.0 0.031005155 3.418252 0.0 0.0 0.0 0.0 0.0 0.0 0.0 0.0 0.0 1.9540757 0.0 0.0 0.0 0.0 0.0 0.0 0.0 0.0 0.0 0.0 0.7309912 0.0 0.0 0.0 0.0 0.0 0.0 0.0 0.0 0.0 0.0 0.1884594 0.0 0.0 0.0 0.0 0.0 0.0 0.0 2.4788136
1601 0.0 0.0 5.195233 5.6797748 0.0 0.0 0.0 0.0 0.0 0.0 0.0 0.0 0.0 0.0 0.0 0.0 0.0 5.752975 0.0 3.809164 0.0 0.0 0.0 0.0 0.0 0.0 5.354343 0.0 0.0 0.0 0.5443628 0.0 5.041544 0.0 0.023978913 0.0 0.0 0.0 0.0 0.0 0.0 0.0 0.0 0.0 0.0 0.0 0.0 3.454875 0.0 0.0 0.0 0.0 0.0 0.0 0.0 0.0 0.0 0.0 0.0 0.0 0.0 8.371291 0.0 0.0 0.0 0.0 0.0 0.0 0.0 0.0 0.0 0.0 7.2362075 0.0 0.0 0.0 0.0 0.0 0.0 6.239885 0.0 3.9129202 0.0 0.0 0.0 0.0 0.0 3.6570704 0.0 0.0 0.0 0.0 0.0 0.0 0.27790612 0.0 0.0 0.45008096 0.0 0.0 0.0 0.0 0.0 0.81795067 0.0 0.0 0.0 0.0 0.0 0.0 0.0 0.0 0.0 0.0 0.0 0.0 0.0 0.0 1.3241056 0.0 0.0 0.0 0.0 0.0 0.0 0.0 0.0 4.95389
1398 0.0 0.0 0.0 0.0 0.0 0.0 0.0 0.0 0.0 0.0 0.0 0.0 0.0 0.0 0.0 0.0 4.842091 0.0 0.0 0.0 0.0 0.0 0.0 0.0 0.0 0.0 0.0 0.0 0.0 0.0 0.0 0.0 0.0 0.0 0.0 0.0 0.0 0.0 0.016995123 0.0 6.470181 0.0 0.0 0.0 0.0 0.0 0.0 0.0 0.0 3.6751251 0.0 0.0 0.96183896 0.0 0.0 0.0 0.0 0.0 0.0 0.0 0.0 0.0 0.0 5.8706336 0.0 0.0 5.512524 0.0 0.0 0.0 0.0 0.0 5.4400754 0.0 6.4200006 0.0 0.0 0.0 0.0 0.0 0.0 0.0 0.0 0.0 0.0 0.0 0.0 0.0 0.0 0.0 0.0 0.0 0.0 0.0 0.0 0.0 0.0 0.0 0.0 6.6587677 0.0 0.0 0.0 0.0 4.0283775 0.57826483 0.0 0.0 0.0 0.0 0.0 0.0 0.0 0.0 5.0892653 0.0 7.326983 0.0 0.0 0.0 0.0 0.0 0.0 0.0 0.0 0.31284344 0.0 0.0
1005 0.0 0.0 0.0 0.0 0.35465476 0.0 0.0 3.3021336 1.5673854 0.0 0.0 0.0 0.0 0.0 0.0 0.0 0.39821616 0.0 4.02594 0.0 0.0 0.0 0.0 0.0 2.286143 0.0 3.4778268 0.0 0.0 0.0 0.0 0.0 0.0 0.0 0.0 2.8458822 0.0 0.0 0.0 0.0 2.9922462 0.0 0.0 0.07867132 0.0 0.0 0.0 0.12140977 0.0 0.0 0.0 0.0 0.0 0.0 0.0 0.0 0.0 0.0 0.0 0.0 0.0 0.0 0.0 4.701729 0.0 0.0 0.0 2.8156064 0.0 0.0 0.0 0.0 1.3083099 0.0 0.51437366 0.2719791 7.40763 0.0 0.0 0.0 0.48863292 0.0 0.0 0.0 0.0 1.429053 0.0 0.0 0.0 0.0 0.0 0.0 0.0 0.0 0.19224718 0.0 0.0 0.0 0.0 5.7727532 0.0 0.0 0.0 0.0 0.0 0.0 0.0 0.0 0.0 0.0 1.0284203 0.0 0.0 0.0 1.5157346 0.0 1.7771395 0.0 0.0 0.0 0.0 0.607269 0.0 0.0 0.0 0.0 0.0 0.0
695 0.0 0.0 0.25954896 0.0 0.0 0.0 0.0 5.09437 3.3907168 0.0 0.0 0.0 0.0 0.0 0.0 0.0 0.0 0.95058525 2.1173248 0.0 0.0 0.0 0.0 0.0 4.097412 0.0 5.152939 0.0 0.0 0.0 0.0 0.0 0.0 0.0 0.0 2.889014 0.0 0.0 0.0 0.0 0.0 0.0 0.90455747 2.98232 0.0 0.0 0.0 1.8422165 0.0 0.0 0.0 0.0 0.0 0.0 0.0 0.0 0.0 0.0 0.0 0.0 0.0 0.0 0.0 2.3359845 0.0 0.0 0.0 5.5979238 0.0 0.0 0.0 0.0 0.0 0.0 0.0 1.935647 6.984786 0.0 0.0 0.0 1.5364071 0.0 0.8124849 0.0 0.0 0.0 0.0 0.0 0.0 0.0 0.0 0.2725998 0.0 0.0 0.0 1.2878716 0.4317471 0.4287513 0.66381663 0.042151574 0.0 1.1288015 0.0 0.1451167 0.0 0.0 0.0 0.5712607 0.15602706 0.0 0.0 0.8285258 0.0 0.0 0.0 0.0 0.0 0.0 0.29306376 0.0 0.0 2.2593358 0.0 0.0 0.0 0.0 0.8612425 0.0
700 0.0 0.0 0.0 1.0970798 0.0 0.0 0.0 6.7667637 3.6600142 0.0 0.0 0.0 0.0 0.0 0.0 0.0 0.29593793 0.0 0.0 0.0 0.47943926 0.0 0.0 0.0 1.8452929 0.0 4.0594606 0.0 0.0 0.0 1.1222612 0.0 0.0 0.0 0.0 4.4874897 0.0 0.0 0.0 0.0 0.0 0.0 0.0 2.4861271 0.0 0.0 0.0 0.0 0.0 0.0 0.0 0.0 0.0 0.0 0.0 0.36529875 0.0 0.0 0.0 0.0 0.0 0.0 0.0 2.702361 0.0 0.0 0.0 5.1750736 0.0 0.0 0.0 0.0 0.0 0.0 0.0 2.421843 9.787154 0.0 0.0 0.0 2.2045612 0.0 0.0 0.0 0.0 0.0 0.0 0.0 0.0 0.0 1.4294817 0.0 0.0 0.0 0.0 2.7858322 0.0 1.6360447 0.0 0.0 0.0 0.31851542 0.0 0.0 0.0 0.0 0.0 0.0 0.0 0.0 1.93761 0.0 0.0 0.0 0.0 0.0 0.0 0.0 0.0 0.0 0.0 2.0861595 0.0 0.0 0.0 0.0 0.0 0.0
714 0.0 0.0 0.0 0.0 0.0 0.0 0.0 0.0 4.148433 0.0 0.0 1.0017601 0.017585136 0.0 0.0 0.0 0.18572561 0.0 0.0 0.0 0.0 0.0 0.0 0.0 0.0 0.0 0.0 0.0 0.0 0.0 0.0 0.55793196 0.0 0.0 0.0 0.0 0.0 1.3493115 0.0 0.0 4.653595 0.0 0.0 0.0 0.0 0.0 0.6168569 0.0 2.7365735 0.0 0.0 0.0 0.0 0.0 0.0 0.0 0.0 0.0 0.0 0.0 0.0 1.94034 0.0 0.0 0.0 0.0 0.0 0.0 0.0 1.9622962 1.5745934 0.0 0.0 0.0 0.0 4.3559365 0.8838539 0.0 0.0 0.0 0.0 0.0 0.0 0.0 0.017473433 1.881884 1.7592833 0.0 0.0 0.0 0.0 0.026771605 0.0 0.0 0.0 1.0175295 0.0 0.0 2.8519347 0.06454888 0.0 0.0 0.0 0.0 0.0 0.0 0.0 0.0 0.0 0.0 3.353916 0.0 0.0 0.0 0.0 0.0 0.0 0.0 0.0 0.0 7.7006383 1.6387173 2.6170595 0.0 0.0 0.0 0.0 3.4396143
722 0.0 0.0 0.0 0.057986703 0.0 0.0 0.0 3.193017 3.0388684 1.0742701 0.0 0.18185379 0.0 0.0 0.0 0.0 0.0 1.9618218 1.5725933 0.0 0.0 0.0 0.0 0.0 2.1689384 0.0 4.8994675 0.0 0.0 0.0 0.22530495 0.0 0.0 0.0 0.0 1.6109172 0.0 0.0 0.0 0.0 0.020704798 0.0 0.34449628 1.2317828 0.0 0.0 0.0 0.71952707 0.0 0.0 0.0 0.0 0.0 0.0 0.0 0.0 0.0 0.0 0.0 0.0 0.22620851 0.0 0.0 0.6876309 0.0 0.0 0.0 3.8187158 0.0 0.0 0.0 0.0 0.441141 0.74568564 0.0 2.5129106 3.0952194 0.0 0.0 0.010987546 0.5390711 0.0 0.0 0.47877324 0.0 2.0934205 0.0 0.677444 0.0 0.0 0.0 0.0 0.34853816 0.0 0.0 0.0 0.0 1.5229815 0.0 0.0 0.0 0.74885136 0.0 0.0 0.0 0.0 0.0 0.0 0.0 0.0 0.22587223 0.0 0.0 0.0 0.0 0.0 0.0 0.0 0.0 0.0 0.0 3.6260223 0.0 0.0 0.0 0.0 0.0 0.0
663 0.0 0.0 0.0 0.0 0.0 0.0 0.0 5.4877357 1.8567214 0.0 0.0 0.0 0.0 0.0 0.0 0.0 0.0 0.0 0.28668758 0.0 0.0 0.0 0.0 0.0 3.891239 0.0 3.3275695 0.0 0.0 0.0 2.4723659 0.2821374 0.0 0.0 0.0 2.5061333 0.0 0.0 0.0 0.0 0.0 0.0 0.0 2.4305408 0.0 0.0 1.3596108 0.0 0.0 0.0 0.0 0.0 1.5400047 0.0 0.0 0.0 0.0 0.0 0.0 0.0 0.0 0.0 0.0 6.384321 0.0 0.0 0.0 7.3551292 0.0 0.0 0.0 0.0 0.0 0.0 0.0 1.5777591 4.4344378 0.0 0.0 0.0 3.3786418 0.0 0.0 0.35024914 0.37583753 1.980938 0.0 0.0 0.0 1.2587777 0.0 0.0 0.0 0.0 0.0 0.0 0.0 0.8423504 0.89105284 0.0 0.0 0.0 0.0 0.0 0.0 0.0 0.0 0.0 0.0 0.0 1.2885463 0.0 0.0 0.0 0.0 0.0 0.0 0.0 0.0 0.08238089 1.1566752 2.305213 0.0 0.0 0.0 0.0 0.0 0.0
788 0.0 0.0 0.94331115 0.0 0.0 0.0 0.0 2.1607623 0.7978523 0.2486878 0.0 0.0 0.0 0.0 0.0 0.0 0.0 0.0 0.46612632 0.0 0.0 0.0 0.0 0.0 2.5021086 0.0 2.3867288 0.0 0.0 0.0 0.0 0.6160804 0.0 0.0 0.0 1.4981078 0.0 0.0 0.0 0.0 0.5364052 0.0 0.0 1.4478822 0.0 0.0 0.0 0.314094 0.0 0.0 0.0 0.0 0.0 0.0 0.0 0.0 0.0 0.0 0.0 0.0 0.0 0.0 0.0 3.372281 0.0 0.0 1.0578386 4.8954425 0.0 0.0 0.0 0.0 0.0 0.0 0.41905382 0.776518 1.9408408 0.0 0.0 0.0 1.4336954 0.0 0.0 0.0 0.09125543 0.3804356 0.0 0.0 0.0 0.0 0.0 0.0 0.0 0.0 0.0 0.34480983 0.0 0.0 0.0 1.9618369 0.0 1.3647134 0.0 0.0 0.0 0.0 0.0 0.0 0.0 0.0 0.0 0.0 0.0 0.0 0.0 0.0 0.83947015 0.0 0.0 0.0 0.0 0.0 0.0 0.0 0.0 0.0 0.0 0.32682073
1018 0.0 0.0 0.0 0.0 0.0 0.0 0.0 1.6531801 0.615162 0.0 0.0 0.0 0.0 0.0 0.0 0.0 0.0 0.0 0.010582934 0.0 0.0 0.0 0.0 0.0 0.37402198 0.0 0.0 0.0 0.0 0.0 0.0 0.07301978 0.0 0.0 0.0 0.0 0.0 0.0 0.0 0.0 4.0007753 0.0 0.0 3.261536 0.0 0.0 0.0 0.0 0.0 0.0 0.0 0.0 4.9778047 0.0 0.0 0.0 0.0 0.0 0.6521755 0.0 0.0 0.0 0.0 8.89527 0.0 0.0 1.7665684 0.49016842 0.0 0.0 0.0 0.0 0.0 0.114737615 0.0 0.0 0.8095351 0.0 0.0 0.0 0.0 0.0 0.0 0.0 0.0 0.77349454 0.0 0.0 0.0 6.019391 0.0 0.0 0.0 0.0 0.0 0.14561556 0.0 2.6610405 3.2521021 0.0 0.0 0.0 0.0 0.0 0.0 0.0 0.0 0.0 0.0 0.0 0.0 0.0 0.0 0.0 0.0 0.0 0.0 0.0 0.0 0.0 5.254067 0.0 0.0 0.0 0.0 3.4669757 0.0 0.0
509 0.0 0.0 0.0 0.0 0.0 0.50706464 1.7641286 0.0 0.0 0.0 0.0 0.0 0.0 0.0 0.0 0.0 2.3358173 0.0 0.0 0.2404149 0.0 0.0 0.0 0.0 0.0 0.0 0.0 0.0 0.0 0.0 0.0 0.0 0.0 0.0 0.0 0.23978423 0.0 3.7498307 0.0 0.0 0.0 0.0 0.0 0.0 0.0 0.0 0.0 0.0 0.0 0.0 0.0 0.0 0.0 0.0 0.0 0.0 0.0 0.0 0.0 0.0 0.0 0.0 0.0 0.0 0.0 0.0 0.0 0.0 0.0 0.0 0.0 0.0 0.0 0.0 0.0 1.783846 0.0 0.0 0.0 0.0 0.0 0.0 0.0 0.0 0.0 0.0 0.0 0.0 0.0 0.0 0.0 0.0 0.0 0.0 2.210996 0.0 0.0 0.0 0.7776263 0.0 0.0 0.0 0.0 0.0 0.0 0.0 0.0 0.0 0.0 0.11348574 7.381133 0.0 0.0 0.0 0.0 0.0 0.0 0.5442231 0.0 0.0 4.334136 0.0 0.0 0.0 0.0 2.7851102 0.0 0.0
811 0.0 0.0 1.5112644 0.0 0.0 0.0 0.0 3.200732 3.309197 0.0 0.0 0.0 0.0 0.0 0.0 0.095274284 0.0 0.0 1.5112413 0.0 0.0 0.0 0.0 0.0 3.21918 0.0 4.4521146 0.0 0.3226326 0.0 0.0 0.112328105 0.0 0.0 0.0 1.964487 0.0 0.0 0.16189308 0.0 0.5859708 0.0 0.0 2.0250626 0.0 0.0 0.0 0.0 1.6668414 0.0 0.0 0.0 0.17072792 0.0 0.15555242 0.0 0.0 0.0 0.0 0.0 0.0 0.0 0.0 2.4743414 0.0 0.0 0.0 5.8142066 0.0 0.0 0.0 0.0 0.0 0.0 0.0 2.5483007 1.3869218 0.0 0.0 0.0 3.6052668 0.0 0.0 0.0 0.0 3.8043675 0.17765753 0.0 0.0 1.063627 0.0 0.0 0.1365755 0.0 0.0 0.3037228 0.0 0.81238645 0.0 0.0 0.0 0.0 0.0 0.05373029 0.0 0.0 0.0 0.0 0.006804874 0.0 0.25332516 0.0 0.0 0.0 0.0 0.0 0.0 0.0 0.0 0.0 1.0635825 3.7150857 0.0 0.0 0.0 0.0 0.0 0.0
1481 0.0 0.0 0.0 0.0 0.0 0.0 0.0 0.16258816 0.0 0.0 0.0 2.1952336 0.0 0.0 0.0 0.0 3.4260294 0.0 6.1441846 0.0 0.0 4.2169642 0.0 0.0 0.0 0.0 0.0 0.0 0.0 0.0 0.0 0.0 0.0 0.0 0.0 4.029373 0.0 0.0 0.0 0.0 4.0086093 0.0 0.0 0.0 0.0 0.0 0.0 0.0 0.0 1.3655537 0.0 0.0 0.0 0.0 0.0 0.0 0.0 0.0 0.0 0.0 0.0 0.2891332 0.0 5.0240464 0.0 0.0 3.256374 0.3114415 0.0 0.0 0.0 0.0 2.1062624 0.0 3.5937557 0.0 7.4722743 0.0 0.0 0.0 0.0 0.0 0.0 0.0 0.0 0.0 0.0 0.0 0.0 0.0 0.0 0.0 0.0 0.0 0.0 0.27480322 0.0 0.0 0.0 8.216386 0.0 0.0 0.0 0.50917006 0.0 0.0 0.0 0.0 0.0 0.0 0.46857962 0.0 2.2510993 0.0 3.0799654 0.0 4.3321114 0.0 0.0 0.0 0.0 0.0 0.0 0.0 0.0 0.0 0.5554444 0.0
1891 0.0 0.0 0.0 0.0 0.0 0.0 0.0 0.0 0.30883932 0.0 0.0 1.0830302 3.5157278 1.0780486 0.0 0.0 0.5409487 0.0 0.9263589 0.11070583 0.0 0.0 0.0 0.0 0.0 0.0 0.0 0.0 0.0 0.0 0.0 0.43807763 0.0 0.0 0.0 0.0 0.0 4.878344 0.0 0.0 0.6997136 0.0 1.7298613 0.35201266 1.3391037 0.0 0.0 0.0 0.0 0.0 0.0 0.9950137 0.0 0.0 0.0 1.2144202 2.875447 0.0 0.0 0.0 0.0 0.0 1.9082861 0.101059265 0.0 0.057146948 0.0 0.0 0.0 0.26935253 0.0 0.42217228 0.0 0.0 0.0 0.0 0.0 0.0 0.0 0.0 0.0 0.0 0.0 0.0 0.0 0.0 0.0 0.0 0.0 1.1743582 0.0 2.0501199 0.0 0.0 0.0 0.0 0.0 0.0 0.035058707 0.0 3.7585936 0.0 0.0 0.5327392 0.0 0.25230256 0.0 0.0 0.95278496 2.5981205 4.1172323 0.0 0.0 4.574926 0.0 0.0 0.0 0.0 0.0 0.0 1.7753106 0.0 0.0 0.0 0.0 0.0 0.0 0.0
390 0.0 0.0 0.0 0.0 0.0 0.0 0.73880595 1.7782917 0.0 0.0 0.0 0.0 1.2830929 0.0 0.0 0.0 0.0 0.0 0.0 0.0 0.0 0.0 0.43244648 0.0 0.0 0.0 0.0 0.0 0.8921166 0.0 1.0980158 0.5502245 0.0 0.0 0.0 0.0 0.0 0.0 0.0 0.0 0.0 0.7225178 0.17416704 1.6032972 0.0 0.0 3.4430878 0.0 0.0 0.0 0.0 0.0 0.0 0.0 0.0 0.15913078 0.0 0.0 0.0 0.0 0.0 0.0 0.0 0.768916 0.0 0.0 0.0 1.5897299 0.0 0.0 0.0 0.0 0.0 0.0 0.0 0.0 0.63811356 0.0 0.0 0.0 0.0 0.0 0.0 3.2959144 0.0 0.0 0.0 0.0 0.0 0.0 0.18476373 0.0 0.0 0.0 2.3249342 0.7501959 0.0 0.8602925 0.0 0.0 0.0 0.0 0.0 0.1583585 0.0 0.0 0.0 0.0 0.0 0.0 6.544095 0.0 0.0 0.0 0.0 0.0 0.0 0.0 0.0 0.0 3.187304 1.3780494 0.6264914 0.0 0.38067257 0.5482158 1.2845577 0.0
277 1.4400674 0.0 0.0 4.135273 0.0 0.0 2.116731 0.44484252 0.0 0.0 0.0 0.0 0.24933505 0.0 0.0 0.0 0.0 0.0 0.0 0.0 0.0 0.7019801 0.0 0.0 0.0 0.0 0.0 0.30041876 0.0 0.0 0.0 1.9820815 0.0 0.21241665 0.3033226 3.2644536 0.0 0.0 0.0 0.905057 0.0 0.74110585 0.0 1.2945974 0.0 0.0 0.17703907 0.0 0.0 0.0 0.0 0.8257213 0.0 0.053332835 0.0 0.0 0.0 0.0 0.0 0.0 0.0 0.0 0.0 0.0 0.0 0.0 0.0 2.012541 0.2612968 0.0 0.0 0.0 0.0 0.0 0.0 0.015316663 0.44079372 0.0 0.0 0.0 0.0 0.0 0.0 0.45775378 0.0 0.0 0.0 0.0 0.0 0.0 0.0 0.48048118 0.0 0.0 2.170722 0.0 0.0 2.1693559 0.0 0.0 0.0 0.0 0.0 0.0 0.0 0.0 0.0 0.0 0.0 0.30193767 3.640715 0.0 0.0 0.0 0.0 0.0 0.0 0.0 0.0 0.0 1.4098529 1.3827921 0.0 0.0 0.0 1.9927361 0.98278934 0.12145765
434 0.14754668 2.5082061 0.0 0.74671715 0.0 0.7721724 0.7141722 0.0 0.0 0.0 0.15710673 0.0 0.20736736 0.0 0.0 0.0 0.0 0.0 0.0 2.423186 0.0 0.0 0.0 0.0 0.03481767 0.0 0.0 0.0 0.0 0.0 0.0 0.14988694 0.0 0.0 0.0 0.0 0.0 3.628584 0.0 3.1261096 0.0 0.0 0.0 0.0 0.0 0.0 0.0 0.0 0.0 0.0 0.0 4.8034935 0.0 0.0 0.0 0.0 0.1259757 0.0 0.0 0.0 0.0 0.0 0.0 0.0 0.0 0.0 0.0 2.8122623 0.0 2.0576575 0.0 0.11256021 0.0 0.0 0.0 0.0 1.5186249 0.0 0.0 0.0 0.0 0.0 0.0 0.0 0.0 0.0 0.35670266 0.0 0.0 0.0 0.0 0.0 0.0 0.0 0.07359141 0.0 0.0 0.0 0.0 0.0 0.0 0.0 0.0 0.0 0.0 0.0 0.0 0.0 0.0 0.0 6.783263 0.0 0.0 0.0 0.0 0.0 0.0 0.0 0.0 0.0 4.067671 0.02826626 0.0 0.0 0.0 0.0 1.3919989 0.43192366
960 0.0 3.4184864 0.0 0.0 0.0 0.0 0.0 3.5493078 0.0 0.0 0.0 0.0 1.9107556 0.0 0.0 0.0 0.0 0.0 0.0 0.0 0.0 0.0 0.0 0.0 0.0 0.0 2.159989 0.0 0.0 0.0 11.555805 2.143271 0.0 0.0 0.0 0.0 0.0 0.5250385 0.0 0.0 0.0 0.0 0.0 0.8618764 0.0 0.0 11.167615 0.0 0.057693157 0.0 0.0 0.0 0.0 0.0 0.0 0.0 0.0 0.0 0.0 0.0 0.0 0.0 0.0 0.48280895 0.0 0.0 0.0 3.5394425 0.0 0.0 0.0 0.0 0.0 0.0 0.0 0.8381321 0.0 0.0 0.0 0.0 0.0 0.0 0.0 9.96217 0.97883755 0.0 0.0 0.0 0.0 0.0 3.1057312 0.0 0.0 0.0 0.0 9.901266 0.6858384 0.0 0.0 0.0 0.0 0.0 0.0 0.0 0.0 0.0 0.0 0.36929426 1.3512484 0.0 4.9612737 0.0 0.0 0.0 0.0 0.0 0.0 0.0 0.0 0.0 0.3502914 0.0 0.0 0.0 0.38073763 0.0 0.0 0.0
475 2.152602 1.0662082 0.0 0.0 0.0 0.0 2.907793 0.0 0.0 0.0 0.0 0.0 0.0 0.0 0.0 0.0 0.0 0.0 0.0 0.74596 0.0 0.0 0.0 0.0 0.0 0.0 0.0 0.59423155 0.0 0.0 0.0 5.034247 0.0 0.0 0.0 0.0 0.0 1.9139014 0.0 0.0 0.0 0.0 0.0 0.0 0.0 0.0 0.0 0.0 0.0 0.0 0.0 4.897463 0.0 1.0803969 0.0 0.0 0.0 0.0 0.0 0.0 0.0 0.0 1.8911349 0.0 0.0 0.0 0.0 2.7834647 0.0 0.0 0.0 0.0 0.0 0.0 0.0 0.0 0.0 0.0 0.0 0.0 0.0 0.0 0.0 0.0 0.0 0.60438436 0.0 0.0 0.0 0.0 0.0 2.1234858 0.0 0.0 0.59269553 1.2290998 0.0 0.0 0.0 0.0 0.0 0.0 0.0 0.13190411 0.0 1.6465392 0.0 0.0 0.0 0.0 8.611063 0.0 0.0 0.0 0.0 0.0 0.0 0.0 0.0 0.0 2.3226898 1.438121 0.0 0.0 0.0 4.4638586 0.0 0.0
346 0.0 1.2237471 4.4964867 0.0 0.0 0.72341216 0.0 1.7637092 0.9221682 0.0 0.0 0.0 0.0 0.0 0.0 0.0 0.0 0.0 0.0 0.8403505 0.0 0.0 0.0 0.0 0.0 0.0 0.0 0.0 0.0 0.0 0.0 0.0 0.0 3.9442465 0.0 0.0 0.0 0.0 0.0 0.0 1.3513898 1.6193691 0.0 0.0 0.0 0.0 0.0 0.0 0.0 0.0 0.0 3.0893774 0.0 0.22734569 0.0 5.0473037 0.0 0.0 0.0 0.0 0.0 0.0 0.0 2.752251 0.0 0.6755455 2.9179182 0.17512222 0.0 0.07036509 0.0 0.0 0.0 0.0 0.0 0.12156737 4.9213324 0.0 0.0 0.0 0.0 0.0 0.0 0.09948138 0.0 0.0 0.884065 0.0 0.0 0.0 0.0 0.0 0.0 0.0 0.0 0.0 0.0 0.0 0.0 0.0 0.0 0.0 0.0 0.0 0.0 0.0 0.0 0.0 0.0 0.0 6.273011 0.0 0.0 0.0 1.7574788 0.0 0.0 0.0 0.0 0.0 2.7222328 0.0 0.2504473 0.0 0.51913047 0.60356385 1.2824686 1.2943001
1716 0.0 0.0 0.0 0.0 0.0 0.0 0.0 0.0 1.8515348 0.0 0.0 0.0 8.731123 0.0 0.0 0.0 0.0 0.0 0.0 4.7219887 0.0 0.0 0.14472573 0.0 0.0 0.0 0.0 0.0 0.0 0.0 0.0 0.0 0.0 0.0 6.261463 0.0 0.0 0.0 0.0 0.0 0.7327068 4.5862083 0.0 0.0 0.0 2.810031 0.0 0.0 0.0 0.0 4.440063 0.0 0.0 0.0 0.0 0.0 0.0 7.983656 0.0 0.0 0.0 0.0 0.0 0.0 0.0 6.3106585 0.0 0.0 0.0 0.0 0.0 0.0 0.0 0.0 0.0 0.0 0.0 0.0 0.0 0.7873193 0.0 0.0 3.6088293 0.0 0.0 0.0 0.0 0.0 0.0 0.0 0.0 0.0 0.0 0.0 0.0 0.0 0.0 5.093957 0.0 0.0 0.0 0.0 0.0 0.0 0.0 0.0 0.0 0.0 0.0 0.0 0.0 0.0 0.0 0.0 0.0 0.0 0.0 0.0 4.7605047 0.0 0.0 0.0 3.7196755 0.0 0.0 0.07530758 0.0 0.0
1717 0.0 2.4427488 0.0 0.0 0.0 0.0 0.0 0.0 2.1089199 0.0 1.3885629 0.0 9.278804 0.0 0.0 0.0 0.0 0.0 0.0 6.9725018 0.0 0.0 0.0 0.0 0.0 0.0 0.0 0.0 0.0 0.0 0.0 0.0 0.0 0.0 3.9118934 0.0 0.0 0.36242244 0.0 0.817801 0.17855002 6.0332026 0.0 0.0 0.0 4.1558547 0.0 0.0 0.0 0.0 2.411542 3.6655953 0.0 0.0 0.0 0.0 0.0 6.371413 0.0 0.0 0.0 0.0 0.0 0.0 0.0 6.8547254 0.0 0.0 0.46732932 4.5086184 0.058295716 0.0 0.0 0.0 0.0 0.0 0.0 0.0 0.0 1.0431532 0.0 0.0 2.2392433 0.0 0.0 0.0 0.2546764 0.0 0.0 0.0 0.0 0.0 0.0 0.0 0.0 0.0 0.0 6.862488 0.0 0.0 0.0 0.0 0.0 0.0 0.0 0.0 0.0 0.0 0.0 0.0 0.10496165 0.0 0.0 0.0 0.0 0.0 0.0 0.0 5.706438 0.0 0.0 0.0 3.8707263 0.0 0.0 0.0 0.0 0.0
1718 0.0 0.0 0.0 0.0 0.0 0.0 0.0 0.0 2.9471962 0.0 0.0 0.0 7.73679 0.0 0.0 0.0 0.0 0.0 0.0 6.200029 0.0 0.0 0.0 0.0 0.0 0.0 0.0 0.0 0.0 0.0 0.0 0.0 0.0 0.0 5.7660108 0.0 0.0 0.0 0.0 0.0 0.0 7.4836845 0.0061320923 0.0 0.0 3.1420944 0.0 0.0 0.0 0.0 5.039627 0.4766013 0.0 0.0 0.0 0.0 0.0 7.1469865 0.0 0.0 0.0 0.0 0.0 0.0 0.0 7.2056303 0.0 0.0 0.0 1.7427386 0.0 0.0 0.0 0.0 0.0 0.0 0.0 0.0 0.0 1.9661614 0.0 0.0 4.1836104 0.0 0.0 0.0 0.0 0.0 0.0 0.0 0.0 0.0 0.0 0.0 0.0 0.0 0.0 5.86642 0.0 0.0 0.0 0.0 0.0 0.0 0.0 0.0 0.0 0.0 0.0 0.0 0.0 0.0 0.0 0.0 0.0 0.0 0.0 0.0 8.633322 0.0 0.0 0.0 5.210315 0.0 0.0 0.0 0.0 0.0
400 0.0 0.0 0.0 0.0 0.0 0.0 0.0 0.0 1.4102082 0.0 0.0 0.0 1.4714653 0.0 0.0 0.0 0.0 0.0 0.0 0.0 0.0 0.0 0.0 0.0 0.0 0.0 2.3179367 0.0 0.09531482 0.0 0.0 0.65747267 0.0 0.0 5.5914736 1.7377654 0.0 3.1002715 0.0 0.0 2.4802222 0.0 0.0 3.9820683 0.0 0.0 0.0 0.0 0.0 0.0 0.18067251 0.0 0.0 0.0 0.0 0.0 0.0 0.0 0.0 0.0 0.057592638 0.0 0.0 0.0 0.0 0.0 0.0 0.0 0.98194945 0.0 0.0 1.1295809 0.0 0.0 0.0 0.08037756 0.24020004 0.0 0.0 0.0 0.0 2.754507 0.0 0.0 0.81972086 0.5575614 0.0 0.0 0.0 0.0 0.0 0.0 0.0 0.0 8.011678 0.0 0.0 5.990797 0.0 0.0 0.0 0.0 0.0 0.0 0.0 0.0 0.0 0.0 0.0 2.4302762 0.25169286 0.0 0.0 0.0 0.0 0.0 0.0 0.0 0.0 0.0 0.0 0.0 0.0 0.0 0.0 0.49399343 0.0 0.0
410 0.0 0.0 0.0 3.078489 0.0 0.0 0.0 0.0 2.226722 0.0 0.0 0.0 3.3897808 0.0 0.0 0.0 0.0 0.0 0.0 1.4576683 0.0 0.0 1.0882913 0.0 0.0 0.0 0.0 0.0 0.18216106 0.0 0.0 0.0 0.0 0.0 2.27158 1.5229753 0.0 0.0 0.0 0.0 0.8837311 3.2537916 1.2718929 0.90244895 0.0 0.0 0.0 0.0 0.0 0.0 0.5427786 0.0 0.0 0.0 0.0 0.0 0.0 2.081035 0.0 0.0 0.0 0.0 0.0 0.09794629 0.0 0.40563947 0.0 0.17718512 1.3547127 0.0 0.0 1.473762 0.0 0.0 0.0 0.0 0.0 0.0 0.0 0.0 0.0 0.0 1.8033867 0.0 0.0 0.0 0.0 0.0 0.0 0.0 0.0 0.0 0.0 0.0 4.1851754 0.0 0.0 5.727486 0.0 0.0 0.0 0.0 0.0 0.0 0.0 0.62681425 0.0 0.0 0.0 0.89046764 0.34736854 0.0 0.0 0.0 0.0 0.0 0.0 0.0 1.5635338 0.0 0.036208954 0.0 0.7888097 0.0 0.0 0.0 0.9873287 0.0
2159 0.0 0.0 0.0 0.0 0.0 0.0 0.0 0.0 0.0 0.0 0.0 0.0 0.0 0.0 0.0 0.0 0.0 0.0 2.564266 0.0 0.0 0.0 0.0 0.0 0.0 0.0 5.0001893 0.0 4.261991 0.0 0.0 0.0 0.0 0.0 4.1073985 3.0086825 0.0 0.0 4.3603806 0.0 0.0 0.0 0.0 0.0 0.0 0.0 0.0 0.0 0.0 0.0 0.0 0.0 0.0 0.0 0.0 0.0 0.0 0.0 0.0 0.0 0.0 0.4125501 0.0 0.0 0.0 0.0 0.0 2.5543683 0.0 0.0 0.0 3.295533 0.0 0.0 0.0 0.0 4.3728485 0.0 0.0 0.0 0.0 0.0 0.0 0.0 2.931039 0.0 0.0 0.0 0.0 0.0 0.0 0.0 0.0 0.0 5.467891 1.2576003 0.0 0.0 0.0 0.0 0.0 0.0 0.0 2.4983923 0.0 0.0 0.0 0.0 0.0 0.0 0.0 0.0 0.0 0.0 0.0 0.0 0.002177787 0.0 0.0 0.0 0.0 0.4309783 0.0 0.0 0.0 0.0 3.1338363 0.0
1745 0.0 0.0 0.0 0.0 0.0 0.0 0.0 0.0 0.7975798 0.0 0.0 0.0 7.2009945 0.0 0.0 0.0 0.0 0.0 0.0 3.474057 0.0 0.0 0.0 0.0 0.0 0.0 0.42440093 0.0 0.0 0.0 0.0 0.0 0.0 0.0 4.463065 0.0 0.0 0.0 0.0 0.0 0.0 6.008831 0.0 0.0 0.49393472 1.8375452 0.0 0.0 0.0 0.0 3.4250603 0.0 0.0 0.0 0.0 0.0 0.0 7.0297103 0.0 0.0 0.0 0.0 0.0 0.0 0.0 5.6882973 0.0 0.0 0.0 0.0 0.0 0.0 0.0 0.0 0.0 0.0 0.0 0.0 0.0 0.31255633 0.0 0.0 3.2819026 0.0 0.0 0.0 0.0 0.0 0.0 0.0 0.0 0.0 0.0 0.0 0.0 0.0 0.0 6.7028084 0.0 0.0 0.0 0.0 0.0 0.0 0.0 0.0 0.0 0.0 0.0 0.0 0.0 0.0 0.0 0.0 0.0 0.0 0.0 0.0 3.7909524 0.0 0.0 0.0 4.8407097 0.0 0.0 0.0 0.0 0.0
1765 0.0 0.0 0.0 0.0 0.0 0.0 0.0 0.0 0.39291897 0.0 0.0 0.0 9.611968 0.0 0.0 0.0 0.0 0.0 0.0 3.6487556 0.0 0.0 0.0 0.0 0.0 0.0 0.0 0.0 0.0 0.0 0.0 0.0 0.0 0.0 5.600744 0.0 0.0 0.24397089 0.0 0.0 0.0 6.1850266 0.27942964 0.0 0.0 3.7740393 0.0 0.0 0.0 0.0 2.2955418 0.0 0.0 0.0 0.0 0.0 0.0 7.0240574 0.0 0.0 0.0 0.0 0.0 0.0 0.0 6.303642 0.0 0.0 0.0 0.5019482 0.0 0.0 0.0 0.0 0.0 0.0 0.0 0.0 0.0 0.7062435 0.0 0.0 4.599163 0.0 0.0 0.0 0.0 0.0 0.0 0.0 0.0 0.0 0.08280499 0.0 0.55119884 0.0 0.0 7.774912 0.6768961 0.0 0.0 0.0 0.0 0.0 0.0 0.0 0.0 0.0 0.0 0.0 0.0 0.0 0.0 0.0 0.0 0.0 0.0 0.0 6.3145804 0.0 0.0 0.0 5.142514 0.0 0.0 0.0 0.0 0.0
1799 0.0 0.0 0.0 0.0 0.0 0.0 0.0 0.0 2.063021 0.0 0.0 0.0 10.333258 0.0 0.0 0.0 0.0 0.0 0.0 2.9306326 0.0 0.0 0.0 0.0 0.0 0.0 0.0 0.0 0.0 0.0 0.0 0.0 0.0 0.0 5.9693527 0.0 0.0 0.0 0.0 0.0 0.0 6.840069 0.0 0.0 0.0 1.800717 0.0 0.0 0.0 0.0 3.8543653 0.0 0.0 0.0 0.0 0.0 0.0 6.6300826 0.0 0.0 0.0 0.0 0.0 0.0 0.0 5.1371303 0.0 0.0 0.0 0.05919742 0.0 0.03545454 0.0 0.0 0.0 0.0 0.0 0.0 0.0 0.38832307 0.0 0.0 3.3153982 0.0 0.0 0.0 0.0 0.0 0.0 0.0 0.0 0.0 0.0 0.0 0.0 0.0 0.0 5.958185 0.0 0.0 0.0 0.0 0.0 0.0 0.0 0.0 0.0 0.0 0.0 0.0 0.0 0.0 0.0 0.0 0.0 0.0 0.0 0.0 6.4508123 0.0 0.0 0.24950378 3.364896 0.0 0.0 0.0 0.0 0.0
1805 0.0 0.0615056 0.0 0.0 0.0 0.0 0.0 0.0 2.0409257 0.0 0.0 1.3445737 7.89572 0.0 0.0 0.0 0.0 0.0 0.0 3.7400224 0.0 0.0 0.0 0.0 0.0 0.0 0.0 0.0 0.0 0.0 0.0 0.0 0.0 0.0 5.0207396 0.0 0.0 0.0 0.0 0.0 0.0 6.7541413 0.0 0.0 0.0 3.1504946 0.0 0.0 0.0 0.0 3.5272136 1.373565 0.0 0.0 0.0 0.0 0.0 6.356936 0.0 0.0 0.0 0.0 0.0 0.0 0.0 6.232879 0.0 0.0 0.0 1.2953786 0.0 0.0 0.0 0.0 0.0 0.0 0.0 0.0 0.0 1.4929112 0.0 0.0 4.057907 0.0 0.0 0.0 0.0 0.0 0.0 0.0 0.0 0.0 0.0 0.0 0.0 0.0 0.0 5.903204 0.0 0.0 0.0 0.0 0.0 0.0 0.0 0.0 0.0 0.0 0.0 0.0 0.0 0.0 0.0 0.0 0.0 0.0 0.0 0.0 7.8009706 0.0 0.0 0.0 4.1737423 0.0 0.0 0.0 0.0 0.0
1815 0.0 0.0 0.0 0.0 0.0 0.0 0.0 0.0 0.0 0.0 0.0 0.0 8.081802 0.0 0.0 0.0 0.0 0.0 0.0 5.9293933 0.0 0.0 0.0 0.0 0.0 0.0 0.0 0.0 0.0 0.0 0.0 0.0 0.0 0.0 4.656944 0.0 0.0 0.0 0.0 0.0 0.0 5.600788 0.0 0.0 0.0 5.407823 0.0 0.0 0.09524156 0.0 4.931448 0.0 0.0 0.0 0.0 0.0 0.0 6.554402 1.8929851 0.0 0.0 0.088610515 0.0 0.0 0.9666521 8.246317 0.0 0.0 0.0 0.54987735 0.0 0.0 0.0 0.0 0.0 0.0 0.0 0.0 0.0 1.8097844 0.0 0.0 4.0513 0.0 0.0 0.0 0.0 0.0 0.0 0.0 0.0 0.0 0.0 0.0 1.4000508 0.0 0.0 7.6590595 0.0 0.0 0.0 0.0 0.0 0.0 0.0 0.0 0.0 0.0 0.0 0.0 0.0 0.0 0.0 0.0 0.0 0.0 0.0 0.0 3.8978062 0.0 0.0 0.0 3.432597 0.0 0.0 0.0 0.0 0.0
1829 0.0 0.0 0.0 0.0 0.0 0.0 0.0 0.0 2.1570024 0.0 0.0 0.0 7.3892107 0.0 0.0 0.0 0.0 0.0 0.0 2.784028 0.0 0.0 0.0 0.0 0.0 0.0 0.0 0.0 0.0 0.0 0.0 0.0 0.0 0.0 6.486996 0.0 0.0 0.0 0.0 0.0 0.23452696 6.582734 0.0 0.0 0.0 3.443501 0.0 0.0 0.0 0.0 4.905238 0.0 0.0 0.0 0.0 0.0 0.0 8.5502825 0.0 0.0 0.0 0.0 0.0 0.0 0.0 5.029151 0.0 0.0 0.0 0.0 0.0 0.0 0.0 0.0 0.0 0.0 0.0 0.0 0.0 1.920378 0.0 0.0 4.075603 0.0 0.0 0.0 0.0 0.0 0.0 0.0 0.0 0.0 0.0 0.0 0.0 0.0 0.0 5.7529263 0.0 0.0 0.0 0.0 0.0 0.0 0.0 0.0 0.026775172 0.0 0.0 0.0 0.0 0.0 0.0 0.0 0.57115775 0.0 0.0 0.0 6.412528 0.0 0.0 0.0 7.3415895 0.0 0.0 0.0 0.0 0.0
1840 0.0 0.0 0.0 0.0 0.0 0.0 0.0 0.0 1.6364764 0.0 0.0 0.0 7.590321 0.0 0.0 0.0 0.0 0.0 0.0 6.6302586 0.0 0.0 0.0 0.0 0.0 0.0 0.0 0.0 0.6937969 0.0 0.0 0.0 0.0 0.0 5.0937085 0.0 0.0 0.0 0.0 0.0 0.0 6.7316694 0.0 0.0 0.0 5.290911 0.0 0.0 0.0 0.0 1.8854281 0.0 0.0 0.0 0.0 0.0 0.0 8.1507845 2.6853466 0.0 0.0 0.04327291 0.0 0.0 1.3778008 9.54897 0.0 0.0 0.0 1.6115208 0.0 0.0 0.0 0.0 0.0 0.0 0.0 0.0 0.0 0.0 0.0 0.0 3.0566142 0.0 0.0 0.0 0.0 0.0 0.0 0.0 0.0 0.0 0.0 0.0 0.0 0.0 0.0 7.3371487 0.0 0.0 0.0 0.0 0.21903485 0.0 0.0 0.0 0.0 0.0 0.0 0.68520665 0.0 0.0 0.0 0.0 0.0 0.0 0.0 0.0 7.6503353 0.0 0.0 0.0 3.6664047 0.0 0.76891416 0.0 0.0 0.0
1855 0.0 0.0 0.0 0.0 0.0 0.0 0.0 0.0 2.307792 0.0 0.0 0.0 8.795681 0.0 0.0 0.0 0.0 0.0 0.0 5.086148 0.0 0.0 0.0 0.0 0.0 0.0 0.0 0.0 0.0 0.0 0.0 0.0 0.0 0.0 3.99936 0.0 0.0 0.0 0.0 0.0 0.0 5.309397 0.0 0.0 0.0 1.7282583 0.0 0.0 0.0 0.0 3.0706837 0.0 0.0 0.0 0.0 0.0 0.0 6.767983 0.0 0.0 0.0 0.0 0.0 0.0 0.0 5.278609 0.0 0.0 0.0 0.0 0.0 0.0 0.0 0.0 0.0 0.0 0.22759908 0.0 0.0 1.8321992 0.0 0.0 2.9180322 0.0 0.0 0.0 0.0 0.0 0.0 0.0 0.0 0.0 0.0 0.0 0.0 0.0 0.0 5.6021647 0.0 0.0 0.0 0.0 0.0 0.0 0.0 0.0 0.0 0.0 0.0 0.0 0.0 0.0 0.0 0.0 0.0 0.0 0.0 0.0 5.7389894 0.0 0.0 0.0 1.1694318 0.0 0.0 0.0 0.0 0.0
1865 0.0 0.0 0.0 0.0 0.47451368 0.0 0.0 0.0 1.3195001 0.0 0.0 0.0 8.902952 0.0 0.0 0.0 0.0 0.0 0.0 4.4609213 0.90249175 0.0 0.0 0.0 0.0 0.0 0.0 0.0 0.0 0.0 0.0 0.0 0.0 0.0 5.6326017 0.0 0.0 0.0 0.0 0.0 0.0 6.9614053 0.0 0.0 0.0 4.3353076 0.0 0.0 0.0 0.0 4.9429097 0.0 0.0 0.0 0.0 0.0 0.0 7.565513 0.0 0.0 0.0 0.0 0.0 0.0 0.0 6.9319506 0.0 0.0 0.0 0.38452208 0.0 0.0 0.0 0.0 0.0 0.0 0.0 0.0 0.0 1.8054507 0.0 0.0 4.6039877 0.0 0.0 0.0 0.0 0.0 0.0 0.0 0.0 0.0 0.0 0.0 0.0 0.0 0.0 6.525811 0.0 0.0 0.0 0.0 0.0 0.0 0.0 0.0 0.0 0.0 0.0 0.0 0.0 0.0 0.0 0.0 0.0 0.0 0.0 0.0 6.357065 0.0 0.0 0.0 4.889904 0.0 0.0 0.0 0.0 0.1733146
1783 0.0 0.0 0.0 0.0 0.0 0.0 0.0 0.0 0.5588646 0.0 0.42975903 0.0 9.113528 0.0 0.0 0.0 0.0 0.0 0.0 4.17997 0.0 0.0 0.0 0.0 0.0 0.0 0.0 0.010806086 0.0 0.0 0.0 0.0 0.0 0.0 4.7733054 0.0 0.0 0.0 0.0 0.19626455 0.0 7.4885497 0.0 0.0 0.0 1.5108953 0.0 0.32474935 0.0 0.0 1.0291966 0.088717476 0.0 0.0 0.0 0.0 0.0 8.527239 0.0 0.0 0.0 0.0 0.08986452 0.0 0.0 5.193225 0.0 0.0 0.0 0.0 0.0 0.0 0.0 0.0 0.0 0.0 0.0 0.0 0.0 2.3030002 0.0 0.0 4.695254 0.0 0.0 0.0 0.0 0.0 0.0 0.0 0.15624343 0.0 0.0 0.0 0.109446496 0.0 0.0 7.2617044 0.0 0.0 0.0 0.0 0.0 0.0 0.0 0.0 0.0 0.0 0.0 0.26102728 0.0 0.0 0.0 0.0 0.0 0.0 0.0 0.0 5.343373 0.0 0.0 0.0 2.8525724 0.0 0.0 0.0 0.0 0.0
902 0.0 0.0 0.0 0.0 3.3372939 0.0 0.0 0.0 0.0 0.0 0.0 0.0 2.8575027 0.0 0.0 0.0 0.0 0.0 0.0 0.0 3.3066828 0.0 0.0 0.0 0.0 0.0 1.1355398 0.0 0.0 0.0 4.651174 0.29783362 0.0 0.0 0.0 3.6432986 0.0 0.0 0.0 0.0 0.0 0.2171006 2.4954176 0.0 1.1033988 0.0 5.6299896 0.0 0.0 0.0 0.0 0.0 0.0 0.0 0.0 0.0 1.1552291 0.0 0.0 0.0 0.72405565 0.6446568 0.0 0.0 0.0 0.0 0.0 3.2435236 0.0 0.0 0.0 0.0 0.0 1.6545314 0.0 0.015494661 0.0 0.0 0.0 0.0 0.0 0.2547896 0.0 0.0 0.13690123 0.0 1.1001648 0.0 0.0 0.0 4.6429844 0.0 0.0 0.48070458 0.0 0.0 0.0 0.7940855 0.0 0.0 0.0 0.0 0.0 0.0 0.0 0.0 0.0 0.0 0.26295468 0.0 6.5430975 0.0 0.0 0.0 0.0 0.0 5.636031 0.0 0.0 0.0 0.0 0.0 0.0 0.0 0.0 0.0 0.0 0.0
1247 4.4090357 0.0 0.0 0.0 1.7172954 0.0 0.023218684 0.0 0.0 0.0 0.0 0.0 1.2120725 0.0 0.0 0.0 0.0 0.0 0.0 0.9945324 0.0 0.0 0.0 0.0 0.0 0.0 0.0 0.0 0.0 0.0 0.26896784 3.148738 0.0 0.0 0.0 0.9695159 0.0 3.1996343 0.0 0.0 0.0 0.0 0.0 0.0 2.7466688 0.6819478 0.0 0.0 0.0 0.0 0.0 0.0 0.0 0.0 0.0 0.0 0.0 0.0 0.0 0.0 0.0 0.0 7.074329 0.0 0.0 0.0 0.0 3.5562124 0.0 0.0 0.0 0.0 0.0 0.0 0.0 0.0 0.0 0.0 0.0 0.0 0.0 0.0 0.0 0.0 0.0 0.0 0.0 0.0 0.0 0.68165725 0.9420532 5.9528546 0.0 0.0 0.0 0.0 0.0 0.058659453 0.0 0.0 0.0 0.0 0.0 0.0 0.0 4.0771756 0.0 0.0 0.99430376 0.0 7.8573084 0.0 0.0 0.0 0.0 0.0 5.733822 0.0 0.0 0.0 0.0071446253 0.0 0.0 0.0 0.0 6.370509 0.0 0.0
933 0.0 0.0 0.0 0.0 4.6576385 0.0 0.0 0.0 0.0 0.0 0.0 0.15608405 1.4208138 0.0 0.0 0.0 0.0 0.0 0.0 0.0 0.0 0.008158725 0.0 0.0 0.0 0.0 1.1881684 0.0 0.0 0.0 8.893719 1.3125879 0.0 0.0 0.09126847 4.027781 0.0 1.5715867 0.0 0.0 0.26563057 0.0 0.0 1.3399874 2.8059006 0.0 1.6976905 0.0 0.0 0.0 0.0 0.0 0.0 0.0 0.0 0.0 0.0 0.0 0.0 0.0 0.83487225 0.7075583 0.0 0.0 0.0 0.0 0.0 7.8672047 0.0 0.0 0.0 0.0 0.0 3.2565925 0.0 0.0 0.0 0.0 0.0 0.0 0.0 0.0 0.0 0.0 0.5179019 0.0 0.0 0.7854344 0.0 0.0 8.265373 0.6880236 0.0 0.0 0.0 2.2242062 0.0 0.0 0.0 0.0 0.0 0.0 0.0 0.0 0.0 0.0 0.16515504 0.0 2.093606 0.0 4.242943 0.0 0.0 0.0 0.0 0.0 4.1443944 0.0 0.0 0.0 0.0 0.0 0.0 0.0 0.0 0.0 0.0 0.0
682 0.0 0.11065842 0.0 0.0 0.0 0.0 0.0 1.0429195 0.0 0.0 0.0 0.0 0.0 0.0 0.0 0.0 0.0 0.0 0.0 0.0 0.0 0.0 0.0 0.0 0.0 0.0 2.998561 0.0 0.14664471 0.0 8.416054 3.7778888 0.0 0.0 0.0 0.0 0.0 1.335543 0.0 0.0 0.0 0.0 0.0 1.2556031 0.0 0.0 10.544416 0.0 0.0 0.0 0.0 0.0 2.2487407 0.0 0.0 0.0 0.0 0.0 0.0 0.0 0.0 0.0 0.0 5.143571 0.0 0.0 0.0 1.5733219 0.0 0.0 0.0 0.0 0.0 0.0 0.0 7.1693 0.0 0.0 0.0 0.0 0.0 1.3197763 0.0 1.3608297 3.8746293 1.8417957 2.5907881 0.0 0.0 0.0 1.0284133 0.0 0.0 0.0 0.0 2.4543877 0.0 0.956699 1.133882 0.0 0.0 0.0 0.0 0.0 0.0 0.0 0.0 0.0 2.047382 0.0 1.916687 0.0 0.0 0.0 0.0 0.0 0.0 0.0 0.0 0.0 3.7817993 0.0 0.0 0.0 0.0 0.06367801 0.0 0.0
23 0.0 0.0 0.0 0.0 0.0 0.0 0.0 0.052782483 4.20048 0.65039766 0.0 1.1399405 0.0 0.0 0.0 0.0 0.0 0.6457509 0.0 0.9343045 0.0 1.3553843 3.7600296 0.0 0.0 0.0 0.0 0.0 0.0 0.0 0.0 0.58253366 0.0 0.0 0.0 0.0 0.0 0.0 0.0 0.0 7.620269 0.0 4.546473 5.7375274 0.0 0.0 0.0 0.0 0.0 0.0 0.0 0.73624325 0.70993835 0.6225275 0.0 8.466369 0.0 0.0 0.0 0.0 0.0 0.0 0.0 0.0 0.0 0.0 0.0 0.0 0.0 0.0 0.0 0.68387926 0.0 0.0 0.0 0.0 0.0 0.0 0.0 0.0 0.0 0.0 0.0 0.0 0.6455877 0.0 0.0 0.0 0.0 0.0 0.0 4.1167927 0.0 0.0 0.0 0.0 0.0 0.0 1.4148028 0.0 0.0 0.0 0.0 0.0 0.0 0.0 0.0 0.0 0.0 0.5471778 0.0 0.0 0.0 0.0 0.0 0.0 0.0 0.0 0.0 0.0 3.7834775 0.3732702 0.0 0.0 0.0 0.0 0.0 0.0
391 0.0 2.292471 0.0 0.0 0.0 0.0 0.07811169 0.0 3.6645136 5.6485367 0.0 7.22724 0.0 0.0 0.0 0.0 1.9292349 3.4889405 0.0 0.0 0.0 0.0 0.6561086 0.0 0.0 0.0 0.0 0.0 0.0 0.0 0.0 0.0 0.0 0.0 0.0 0.0 0.0 0.0 0.0 0.0 6.2461843 0.0 0.13196436 6.372297 0.0 1.4038863 0.0 0.0 0.0 0.18193924 0.0 0.0 0.0 0.0 0.0 10.2121725 0.0 0.0 0.0 0.0 0.0 0.0 0.0 4.12898 2.7361064 0.0 1.9858782 0.0 0.0 0.0 0.0 3.78114 0.0 0.0 0.0 0.53222847 0.0 0.0 0.0 0.0 0.39160466 0.0 0.0 0.0 0.0 0.0 0.0 0.0 0.0 0.0 0.0 0.8674206 0.0 0.0 0.0 0.0 0.0 0.0 0.444754 1.6999263 0.0 0.0 0.0 0.0 0.0 0.0 0.0 0.0 0.0 0.0 0.0 0.0 0.0 0.0 0.0 0.0 0.12869039 0.0 0.0 0.0 6.6151276 0.0 0.0 0.0 0.0 0.0 0.0 0.0
25 0.0 0.0 0.0 0.0 0.0 0.0 0.0 0.0 8.485975 0.31468198 0.0 0.0 0.0 0.0 0.0 1.2426947 0.0 0.0 0.7668845 0.0 0.0 2.0469348 1.5191191 0.0 0.0 0.0 0.0 0.0 0.0 0.0 0.14577647 0.0 0.0 0.0 0.0 0.0 0.0 0.0 0.0 0.0 12.408017 0.0 1.4482523 4.8062024 0.0 0.0 0.0 0.0 0.0 0.0 0.0 0.0 0.0 0.4712278 0.0 7.2132573 0.0 0.0 0.0 0.0 0.0 0.5851173 0.0 0.041277997 0.0 0.0 0.0 0.0 0.0 0.0 3.83894 1.1369755 0.0 0.0 1.2967881 0.0 0.0 0.0 0.0 0.0 0.0 0.0 0.0 0.0 0.0 0.0 0.0 0.0 0.0 1.9163151 0.0 8.272959 0.0 0.0 0.0 0.0 0.0 0.0 1.8400155 0.0 0.0 0.0 0.0 0.0 0.0 1.2763405 0.40613616 0.0 0.0 0.0 0.0 0.0 0.0 0.0 0.0 0.0 0.0 0.0 0.0 0.0 5.705364 0.0 0.0 0.0 0.0 0.0 0.0 0.0
89 0.0 0.0 0.0 0.0 0.0 0.0 0.0 0.0 1.9511173 0.0 0.0 0.28455257 0.0 0.0 0.0 0.0 0.04398398 0.0 0.0 0.0 0.0 0.0 0.0 0.0 0.0 0.0 0.0 0.0 0.0 0.0 3.334193 0.0 0.0 0.0 0.0 0.0 0.0 0.0 0.0 0.0 8.265814 0.0 0.0 2.382318 0.0 0.0 1.7596102 0.0 0.0 0.12494004 0.0 0.0 7.3565784 0.0 0.0 1.4989107 0.0 0.0 0.0 0.0 0.0 0.0 0.0 11.067542 0.0 0.0 3.6938531 0.0 0.0 0.4578813 0.0 0.0 0.0 0.0 0.0 0.18579455 0.0 0.0 0.0 0.0 0.16275209 0.0 0.0 0.0 0.0 0.0 0.0 0.0 0.0 9.013608 0.0 1.3792746 0.0 0.0 0.0 0.0 0.0 0.0 7.09165 0.0 0.0 0.0 0.0 0.0 0.0 0.0 0.0 0.0 0.0 0.0 0.0 0.0 0.0 0.0 0.0 0.0 0.8286458 0.0 0.0 0.0 5.3736234 0.0 1.6703588 0.0 0.0 4.0043964 0.0 0.0
980 0.0 0.61412436 0.0 0.0 0.15714432 0.0 3.6507497 0.0 0.0 0.0 0.0 0.0 0.0 0.0 0.0 0.0 0.0 0.0 0.0 0.6465729 0.0 0.0 0.0 0.0 0.0 0.0 1.7034097 0.0 0.0 0.0 0.9998398 0.5913928 0.0 0.0 0.0 0.0 0.0 0.0 0.0 0.0 1.1013451 0.0 2.295528 0.53901887 0.0 0.0 0.33207983 0.0 0.0 0.0 0.0 0.0 0.0 0.0 0.0 1.0208452 0.0 0.0 0.0 0.0 0.0 0.0 0.0 0.0 0.0 0.0 0.0 0.0 0.0 0.0 0.0 0.36918676 0.0 0.0 0.0 3.3180354 0.0 0.0 0.0 0.079861924 0.0 0.7191767 0.0 1.5026258 0.8154521 0.0 0.0 0.0 0.0 0.0 0.0 0.0 0.0 0.0 2.7206366 0.0 0.0 0.2590922 0.0 0.0 0.0 0.0 0.0 0.0 0.0 0.0 0.0 0.0 0.0 3.096521 0.0 0.41498467 0.0 0.0 0.0 0.0 0.0 0.0 0.0 1.6420538 0.0 0.5771532 0.0 0.0 0.0 0.0 0.0 0.0
1394 0.0 0.0 0.0 0.0 0.0 0.61676997 0.0 7.3604736 0.0 0.0 0.0 0.0 0.0 0.0 0.0 0.0 0.0 0.0 0.0 0.0 0.0 1.4358817 0.0 0.0 0.0 0.17033508 4.400679 0.0 0.0 0.0 10.842461 0.0 1.9978822 0.0 0.0 0.0 0.0 0.660382 0.0 0.0 0.0 0.0 0.0 0.0 2.59535 0.0 9.386614 0.0 0.0 4.909531 4.1507835 0.0 0.0 0.0 0.0 0.0 2.486776 0.0 0.0 0.0 0.0 0.0 0.0 0.0 0.0 0.0 0.0 0.32756108 0.0 0.0 0.0 1.2033923 0.0 0.0 0.0 0.0 0.0 0.0 0.0 0.0 0.0 0.0 0.0 0.9647674 1.8485029 0.0 0.0 0.0 0.0 0.0 0.22367275 0.0 0.0 0.0 0.0 8.38155 0.0 0.0 0.0 0.0 0.0 0.0 0.0 0.0 0.0 0.0 0.0 6.786781 2.3218417 0.0 2.0301948 0.0 0.0 0.0 0.0 0.0 0.0 0.3384289 0.0 0.0 0.0 0.0 3.8346095 0.0 1.9916354 0.0 0.0 0.0
1545 0.0 0.0 0.0 0.0 0.0 0.0 0.0 6.1916285 0.19709893 0.0 0.0 0.0 0.0 0.0 0.0 0.0 0.0 0.0 0.0 0.0 0.0 1.0642742 0.0 0.0 0.0 0.0 6.910188 0.0 0.0 0.002195267 9.734919 0.0 1.2500093 0.0 0.0 0.0 0.0 0.17992082 1.1645005 0.0 0.036217548 0.0 0.0 0.0 3.2509286 0.0 7.7915597 0.0 0.0 5.2122083 4.777679 0.0 0.0 0.0 0.0 0.0 2.3922098 0.0 0.0 0.0 0.0 0.0 0.0 0.0 0.0 0.2745664 0.0 0.0 0.0 0.0 0.16905186 1.1141376 0.0 0.0 0.0 0.0 0.028226838 0.0 0.0 0.0 0.0 0.0 0.0 0.36177722 2.0581634 0.0 0.0 0.0 0.0 0.0 0.0 0.0 0.0 0.0 0.0 7.6827526 0.0 0.0 0.0 0.0 0.0 0.6466891 0.0 0.0 0.0 0.0 0.0 7.094178 0.41086072 0.0 0.0 0.0 0.0 0.0 0.0 0.6697756 0.0 0.0 0.0 0.0 0.0 0.0 3.5401897 0.0 0.0 0.0 0.0 0.0
887 0.0 0.03906077 0.0 0.0 0.0 0.0 0.0 7.5848637 0.0 0.0 0.0 0.0 0.0 0.0 0.0 0.0 0.0 0.0 0.0 0.0 0.0 0.4036968 0.0 0.0 0.0 0.0 4.702019 0.0 0.0 0.0 9.967189 0.0 2.419104 0.0 0.0 0.0 0.0 0.0 0.0 0.0 0.0 0.0 0.0 0.0 0.6476587 0.0 6.662862 0.0 0.0 6.436107 6.461038 0.0 0.0 0.0 0.0 0.0 2.4101548 0.0 0.0 0.0 0.0 0.19707172 0.0 0.0 0.0 0.0 0.0 0.0 0.0 0.0 0.0 1.6373484 0.0 0.0 0.0 0.0 0.0 0.0 0.0 0.0 0.0 0.0 0.0 0.0 2.8840163 0.0 0.0 0.0 0.0 0.0 0.0 0.0 0.0 0.0 0.0 8.148143 0.0 0.0 0.0 0.0 0.0 0.0 0.0 0.0 0.0 0.67517745 0.0 8.639806 2.3645735 0.0 0.0 0.0 0.0 0.0 0.0 0.0 0.0 0.0 0.0 0.0 0.0 0.0 3.8839288 0.0 0.5370709 0.0 0.0 0.0
893 0.0 0.0 0.0 0.0 0.0 0.0 0.0 6.13479 0.0 0.0 0.0 0.0 0.0 0.0 0.0 0.0 0.0 0.0 0.0 0.0 0.0 1.1523893 0.0 0.0 0.0 0.0 4.80319 0.0 0.0 0.0 9.558199 0.0 0.8290878 0.0 0.0 0.0 0.0 0.0 0.0 0.0 0.0 0.0 0.0 0.0 2.9889169 0.0 5.34325 0.0 0.0 4.4258204 3.0619256 0.0 0.0 0.0 0.0 0.0 0.055392027 0.0 0.0 0.0 0.0 0.0 0.0 0.0 0.0 0.0 0.0 0.0 0.0 0.0 0.0 0.0 0.0 0.0 0.0 0.9048991 0.0 0.0 0.0 0.0 0.0 0.0 0.0 0.0 1.203003 0.0 0.0 0.0 0.0 0.0 0.0 0.0 0.0 0.0 0.0 7.676106 0.0 0.0 0.0 0.0 0.0 0.0 0.0 0.0 0.0 0.35132134 0.18509294 6.6165366 2.1486022 0.0 1.018471 0.0 0.0 0.0 0.0 0.6168767 1.0737139 0.33265537 0.0 0.0 0.0 0.0 3.9453132 0.0 0.37059593 0.0 0.0 0.0
289 0.0 0.28840202 0.0 0.0 0.0 0.0 0.0 4.7166214 0.0 0.0 0.0 0.0 0.0 0.0 0.0 0.0 0.0 0.0 0.0 0.0 0.0 0.8727009 0.0 0.0 0.0 0.05007067 4.5232363 0.0 0.0 0.0 8.422322 0.0 2.3844228 0.50087714 0.0 0.0 0.06889386 0.0 0.0 0.0 0.0 0.0 0.0 0.0 0.28817138 0.0 7.0527387 0.0 0.0 4.9975796 4.512405 0.0 0.0 0.0 0.0 0.0 1.1331092 0.0 0.0 0.0 0.0 0.0 0.0 0.0 0.0 0.0 0.0 0.0 0.0 0.0 0.0 0.0 0.0 0.0 0.0 0.0 0.0 0.0 0.0 0.0 0.0 0.0 0.0 0.90939516 2.2293963 0.0 0.0 0.0 0.0 0.25965798 0.0 0.0 0.0 0.0 0.0 5.8518825 0.0 0.0 0.0 0.0 0.0 0.058756553 0.0 0.0 0.0 0.44430694 0.0 5.571585 0.106244735 0.0 0.0 0.39467677 0.0 0.0 0.0 0.0 0.0 0.0 0.0 0.0 0.0 0.0 3.584468 0.0 0.014642098 0.0 0.0 0.0
931 0.0 0.0 0.0 0.0 0.0 0.0 0.0 5.4460235 0.0 0.0 0.0 0.0 0.0 0.0 0.0 0.0 0.0 0.0 0.0 1.0314263 0.0 0.4650128 0.0 0.0 0.0 0.0 4.777206 0.0 0.0 0.0 10.069303 0.0 0.17127986 0.0 0.0 0.0 0.0 0.0 0.0 0.0 0.0 0.0 0.0 0.0 2.7507248 0.0 7.004174 0.0 0.36383438 5.275248 4.9486732 0.0 0.0 0.0 0.0 0.0 0.0 0.0 0.0 0.0 0.0 0.0 0.0 0.0 0.4315295 0.0 0.0 0.0 0.0 0.0 0.0 1.1753657 0.0 0.0 0.0 0.9534381 0.0 0.0 0.0 0.0 0.0 0.0 0.0 0.0 2.0827007 0.0 0.0 0.0 0.0 0.0 0.0 0.076092646 0.0 0.0 0.0 5.9361863 0.0 0.0 0.0 0.0 0.0 0.0 0.0 0.0 0.0 0.0 0.0 6.0604925 0.91248435 0.0 0.0 0.0 0.0 0.0 0.0 0.0 0.0 0.0 1.0886484 0.0 1.1672753 0.0 4.185197 0.0 0.0 0.0 0.0 0.0
950 0.0 0.0 0.0 0.0 0.0 0.0 0.0 4.7808676 0.19081114 0.0 0.0 0.0 0.0 0.0 0.0 0.0 0.0 0.0 0.0 0.0 0.0 1.0619 0.0 0.0 0.0 0.0 5.1974483 0.0 0.0 0.0 8.270423 0.0 0.5345417 0.0 0.28186393 0.0 0.0 0.5929383 0.0 0.0 0.07758991 0.0 0.0 0.0 2.643599 0.0 7.788239 0.0 0.0 4.198808 4.4938817 0.0 0.0 0.0 0.0 0.0 2.185509 0.0 0.0 0.0 0.0 0.0 0.0 0.0 0.0 0.0 0.0 0.0 0.0 0.7230031 0.0 0.987002 0.0 0.0 0.0 0.0 0.0 0.0 0.0 0.0 0.0 0.0 0.0 1.7201574 2.2279916 0.0 0.0 0.0 0.0 0.0 0.0 0.0 0.0 0.0 0.0 7.298163 0.0 0.0 0.0 0.0 0.0 0.0 0.0 0.0 0.0 0.0 0.0 5.8803463 1.4245327 0.18780722 0.0 0.0 0.0 0.0 0.0 0.0 0.0 0.0 0.0 0.0 0.0 0.0 2.8366823 0.0 0.12151981 0.0 0.0 0.0
975 0.0 0.0 0.0 0.0 0.0 0.0 0.0 6.515727 0.0 0.0 0.0 0.0 0.07925784 0.0 0.0 0.0 0.0 0.0 0.0 0.0 0.0 1.9847255 0.0 0.0 0.0 0.0 4.6968374 0.0 0.0 0.0 10.024477 0.6841623 2.8841124 0.0 0.0 0.0 0.0 0.0 0.0 0.0 0.0 0.0 0.0 0.0 1.1441315 0.0 8.625279 0.0 0.0 4.276396 4.099122 0.0 0.0 0.0 0.0 0.0 0.6360624 0.0 0.0 0.0 0.0 0.0 0.0 0.024947451 0.0 0.0 0.0 0.0 0.0 0.0 0.0 0.79855716 0.0 0.0 0.0 0.0 0.0 0.0 0.0 0.0 0.0 0.0 0.0 3.5819695 3.5747485 0.0 0.0 0.0 0.0 0.2079255 0.50368434 0.0 0.0 0.0 0.0 7.5617495 0.0 0.0 0.28647798 0.0 0.0 0.0 0.0 0.0 0.0 0.0 0.0 5.0750194 0.40824956 0.0 0.0 0.0 0.0 0.0 0.0 0.0 0.0 0.0 0.0 0.0 0.0 0.0 1.9361069 0.0 0.9490485 0.0 0.0 0.0
999 0.0 0.0 0.0 0.0 0.0 0.0 0.0 7.2792916 0.0 0.0 0.0 0.0 0.12468355 0.0 0.3165461 0.0 0.0 0.0 0.0 0.0 0.0 2.0216486 0.0 0.0 0.0 0.0 5.19926 0.0 0.0 0.0 10.650563 0.0 1.3984234 0.0 0.0 0.0 0.0 0.20437405 0.2657318 0.0 0.0 0.0 0.0 0.0 2.8075132 0.0 7.758355 0.0 0.0 5.4263563 4.611729 0.0 0.0 0.0 0.0 0.0 1.6030518 0.0 0.0 0.0 0.0 0.4872198 0.0 0.0 0.0 0.0 0.0 0.67334557 0.0 0.0 0.0 1.2256807 0.0 0.0 0.0 0.0 0.0 0.0 0.0 0.0 0.0 0.0 0.0 0.5698012 2.3138845 0.0 0.0 0.0 0.0 0.0 0.0 0.0 0.0 0.0 0.0 6.8691525 0.0 0.0 0.0 0.0 0.0 0.0 0.0 0.2632479 0.0 0.0 0.14656495 7.293963 1.7299815 0.0 0.0 0.0 0.0 0.0 0.0 0.0 0.0 0.0 0.0 0.0 0.0 0.0 4.0140896 0.0 0.9579934 0.0 0.0 0.7507973
955 0.0 0.0 0.0 0.0 0.0 0.02345806 0.0 7.337843 0.0 0.0 0.0 0.0 0.0 0.0 0.0 0.0 0.0 0.0 0.0 0.0 0.0 3.345986 0.0 0.0 0.0 0.69877416 6.91828 0.0 0.0 0.0 11.266011 0.0 2.0771809 0.0 0.0 0.545671 0.0 0.0 0.0 0.0 0.0 0.0 0.0 0.0 0.0 0.0 7.8710895 0.0 0.47320765 5.02216 5.0054812 0.0 0.0 0.0 0.0 0.0 0.96843493 0.0 0.0 0.0 0.0 0.0 0.0 0.0 0.0 0.0 0.0 0.0 0.0 0.0 0.0 0.0 0.0 0.0 0.0 0.0 0.0 0.0 0.0 0.0 0.0 0.0 0.0 1.6778888 0.9762206 0.0 0.0 0.0 0.0 0.0 0.0 0.0 0.0 0.0 0.0 8.246737 0.0 0.0 0.0 0.0 0.0 0.0 0.0 0.0 0.0 0.0 0.0 8.713778 0.82006216 0.0 0.0 0.0 0.34619233 0.0 0.0 0.0 0.0 0.44706523 0.0 0.0 0.0 0.0 3.7806602 0.0 3.4356458 0.0 0.0 0.0
341 0.0 0.0 0.0 0.0 0.0 0.0 0.0 5.7127295 0.0 0.0 0.0 0.0 0.0 0.0 0.0 0.0 0.0 0.0 0.0 0.0 0.0 0.9896219 0.0 0.0 0.0 0.0 3.713177 0.0 0.0 0.0 9.91773 0.0 0.8013903 0.0 0.0 0.0 0.0 0.061253916 0.0 0.0 0.0 0.24244712 0.0 0.0 1.3643965 0.0 6.4385295 0.0 0.0 5.362773 3.8066788 0.0 0.0 0.0 0.0 1.4554529 3.1221814 0.0 0.0 0.0 0.0 0.0 0.0 0.52547526 0.0 0.0 0.0 0.87484366 0.0 0.0 0.0 0.0 0.0 0.0 0.0 0.0 0.0 0.0 0.0 0.0 0.0 0.0 0.0 0.5696147 1.7470585 0.0 0.0 0.0 0.0 0.0 0.0 0.0 0.0 0.0 0.0 7.1880717 0.0 0.0 0.0 0.0 0.0 0.0 0.0 0.0 0.0 0.04322025 0.0 6.981335 0.0 0.0 0.28205618 0.0 0.0 0.0 0.0 0.0 0.0 0.0 0.0 0.0 0.0 0.0 2.624342 0.0 3.2445638 0.0 0.0 0.0
1555 0.0 0.0 5.742134 5.6714225 0.0 0.0 0.0 0.0 0.0 0.0 0.0 1.3081039 0.0 0.0 0.0 0.0 0.0 6.400098 0.0 3.6294794 0.0 0.0 0.0 0.0 0.0 0.0 6.3796897 0.0 0.0 0.0 0.0 0.0 4.2950916 0.0 0.0 0.0 0.0 0.0 0.40787745 0.0 0.0 0.0 0.0 0.0 0.0 0.0 0.0 4.352509 0.0 0.0 0.0 0.0 0.0 0.0 0.0 0.0 0.0 0.0 0.0 0.0 0.55404437 8.434196 0.0 0.0 0.0 0.0 0.0 0.0 0.0 0.0 0.0 1.0412061 6.6809053 0.0 0.0 0.0 0.0 0.0 0.0 6.5994506 0.0 5.5088177 0.0 0.0 0.0 0.0 0.6418604 3.9911828 0.0 0.0 0.0 0.0 0.0 0.0 0.0 0.0 0.0 1.1120679 0.0 0.26208192 0.0 0.0 0.0 0.0 0.0 0.0 0.0 0.0 0.0 0.0 0.0 0.0 0.0 0.0 0.0 0.0 0.0 0.0 0.0 0.0 0.0 0.0 0.0 0.0 0.0 0.0 0.0 2.1236622
1619 0.0 0.0 6.1227636 5.565033 0.0 0.0 0.0 0.0 0.0 0.0 0.0 0.0 0.03599281 0.0 0.0 0.0 0.0 5.092051 0.0 3.5402176 0.0 0.0 0.0 0.0 0.0 0.0 4.3881683 0.0 0.0 0.0 0.0 0.0 6.570828 0.0 0.0 0.0 0.0 0.0 0.0 0.0 0.0 0.0 0.0 0.0 0.06347072 0.0 0.0 4.503482 0.0 0.0 0.0 0.0 0.0 0.0 0.0 0.0 0.0 0.15245052 0.0 0.0 0.0 7.3511143 0.29958215 0.0 0.0 0.0 0.0 0.0 0.0 0.0 0.0 0.0 5.5714483 0.0 0.0 0.0 0.0 0.0 0.0 7.3467717 0.0 5.2822 0.0 0.0 0.0 0.0 0.0 2.2145195 0.0 0.0 0.0 0.33578423 0.0 0.2623339 0.0 0.0 0.0 0.43688044 0.0 0.0 0.0 0.0 0.0 0.0 0.0 0.0 0.0 0.0 1.1199883 0.0 0.0 0.0 0.0 0.0 0.0 0.0 0.0 0.0 2.8682153 0.0 0.0 0.0 0.0 0.0 0.0 0.0 0.0 2.9963653
1575 0.0 0.030797534 5.94031 4.344794 0.0 0.0 0.0 0.0 0.0 0.0 0.0 0.25769928 0.0 0.0 0.0 0.0 0.0 7.7518477 0.0 4.7393346 0.0 0.0 0.0 0.0 0.0 0.0 5.171605 0.0 0.0 0.0 0.9125015 0.0 7.5613127 0.0 0.0 0.0 0.0 0.0 0.0 0.0 0.0 0.0 0.0 0.0 0.0 0.0 0.0 4.471398 0.0 0.0 0.0 0.0 0.0 0.0 0.0 0.0 0.0 0.0 0.0 0.0 0.0 8.276905 0.0 0.0 0.0 0.0 0.0 0.0 0.0 0.0 0.0 0.0 6.719859 0.0 0.0 0.0 0.0 0.0 0.0 7.2034373 0.0 4.744937 0.0 0.0 0.0 0.0 0.0 2.3300622 0.0 0.0 0.0 0.0 0.0 0.0 0.0 0.0 0.0 0.0 0.0 0.0 0.0 0.0 0.0 0.0 0.0 0.0 0.0 0.0 0.0 0.0 0.0 0.0 0.0 0.0 0.0 0.0 0.0 0.0 2.0774765 0.0 0.0 0.0 0.0 0.0 0.0 0.0 0.0 2.4892542
1600 0.0 0.0 6.060134 4.087084 0.0 0.0 0.0 0.0 0.29348385 0.0 0.0 1.5404129 0.0 0.0 0.0 0.0 0.0 7.772949 0.0 1.2113767 0.0 0.0 0.0 0.0 0.0 0.0 5.6342835 0.0 0.0 0.0 0.0 0.0 2.9459078 0.0 0.0 0.0 0.0 0.0 0.33634406 0.0 0.0 0.0 0.0 0.0 0.0 0.0 0.0 4.9767756 0.0 0.0 0.0 0.0 0.3833321 0.0 0.0 0.0 0.0 0.0 0.0 0.0 0.0 7.3314614 0.0 0.0 0.0 0.0 0.0 0.0 0.0 0.0 0.0 1.0867829 4.188984 0.0 0.0 0.0 0.0 0.003942998 0.0 5.1254325 0.0 5.107407 0.0 0.0 0.0 0.0 1.4311161 4.221806 0.0 0.4220481 0.0 0.17203252 0.0 0.0 0.0 0.0 0.0 0.49065343 0.31897345 0.0 0.0 0.0 0.0 0.0 0.0 0.0 0.0 0.0 0.093368344 0.0 0.0 0.0 0.0 0.0 0.0 0.0 0.0 0.16399965 0.0 0.0 0.0 0.0 0.0 0.0 0.0 0.0 0.0 4.5985284
1585 0.0 0.0 6.939868 4.727796 0.0 0.0 0.0 0.0 0.0 0.0 0.0 1.2530144 0.0 0.0 0.0 0.0 0.0 7.731455 1.19757 2.6344302 0.0 0.0 0.0 0.0 0.0 0.0 4.754197 0.0 0.0 0.0 0.0 0.0 6.412573 0.0 0.0 1.50178 0.0 0.0 0.0 0.0 0.0 0.0 0.0 0.0 0.0 0.0 0.0 4.023482 0.0 0.0 0.0 0.0 0.0 0.0 0.0 0.79566824 0.0 0.0 0.0 0.0 0.0 8.2029915 0.0 0.0 0.0 0.0 0.0 0.0 0.0 0.0 0.0 0.3337281 5.348154 0.0 0.0 0.0 0.6329644 0.0 0.0 5.391975 0.0 6.717266 0.0 0.0 0.0 0.0 0.74141866 4.031187 0.0 0.0 0.0 0.0 0.0 0.0 0.0 0.0 0.0 0.0 0.0 0.0 0.0 0.0 0.0 0.0 0.0 0.0 0.0 0.0 1.3163016 0.0 0.0 0.0 0.0 0.0 0.0 0.0 0.0 0.0 0.7304024 0.0 0.0 0.54168856 0.0 0.0 0.0 0.0 0.0 2.4990816
1565 0.0 0.0 3.0700207 4.7675962 0.0 0.0 0.0 1.9425871 0.32999274 0.0 0.21186498 3.43202 0.0 0.0 0.0 0.0 0.0 5.5664268 0.2823188 0.0 0.0 0.0 0.0 0.0 0.0 0.0 7.37442 0.0 0.0 0.0 0.0 0.0 2.7481601 0.0 0.0 0.052151524 0.0 0.0 1.2212874 0.0 0.0 0.0 0.0 0.0 0.0 0.0 0.0 1.8956251 0.0 0.0 0.0 0.0 0.0 0.0 0.0 0.0 0.0 0.0 0.0 0.0 0.0 6.8370037 0.0 0.0 0.0 0.0 0.0 1.2943487 0.0 0.0 0.0 1.360293 3.5835886 0.0 0.0 0.0 0.7464347 0.0 0.0 3.298514 0.0 6.847103 0.0 0.0 1.9934978 0.0 1.4341319 6.807091 0.0 0.0 0.0 0.0 0.0 0.0 0.0 0.0 0.0 2.337894 0.0 0.0 0.0 0.0 0.0 0.0 0.0 0.0 0.0 0.0 3.5559492 0.0 0.0 0.0 0.0 0.0 0.0 0.0 0.0 0.0 0.0 0.0 0.0 0.0 0.0 0.0 0.0 0.0 0.0 0.0
27 0.0 1.611545 0.0 0.0 0.0 0.0 0.0 0.0 4.096556 0.0 0.0 0.0 0.0 0.0 0.0 3.1544657 0.0 0.0 0.0 0.0 0.0 0.0 0.0 0.0 0.0 0.0 0.0 0.0 0.0 0.0 3.5377462 0.0 0.0 0.0 0.0 0.0 0.0 0.0 0.0 0.0 9.741654 0.0 0.5445723 3.7198548 0.0 0.0 0.0 0.0 0.0 0.0 0.0 0.0 0.17091773 0.0 0.0 3.7582428 0.0 0.0 0.0 0.0 0.0 0.0 0.0 1.452528 0.0 0.0 0.0 0.0 0.0 0.0 4.686159 0.0 0.0 0.0 5.3757014 0.0 0.0 0.0 0.0 0.0 4.358796 0.0 0.0 0.0 0.0 0.0 0.0 0.79714596 0.0 3.146734 0.0 5.5492587 0.0 0.0 0.0 0.0 0.0 1.1824061 0.76395625 0.73062253 0.0 0.0 0.0 1.7863319 0.0 7.6922283 0.0 0.0 0.0 0.0 0.0 0.0 0.0 0.0 0.0 0.0 0.0 0.0 0.0 0.0 2.1779373 0.0 0.0 0.0 0.0 0.0 0.0 0.0
43 0.0 0.0 0.0 0.0 0.0 0.0 0.0 0.0 8.233668 0.0 0.0 0.0 0.0 0.0 0.0 0.0 0.0 0.0 0.0 0.25513566 0.0 1.0917957 0.64994115 0.0 0.0 0.0 0.0 0.0 0.0 0.0 0.0 0.0 0.0 0.0 0.0 0.0 0.0 0.0 0.0 0.0 13.070171 0.0 2.917556 4.019633 0.0 0.0 0.0 0.0 0.0 0.0 0.0 0.0 0.0 0.0 0.0 6.169144 0.0 0.0 0.0 0.0 0.0 0.0 0.0 0.38133585 0.0 0.0 0.0 0.0 0.0 0.0 4.0328054 0.0 0.0 0.0 1.5805418 0.0 0.0 0.0 0.0 0.0 0.0 0.0 0.0 0.0 0.0 0.0 0.0 0.0 0.0 2.6477938 0.0 10.275926 0.0 0.0 0.0 0.0 0.0 0.0 5.001893 0.0 0.0 0.0 0.0 0.0 0.0 2.2507036 0.0 0.0 0.0 0.0 0.0 0.0 0.0 0.0 0.0 0.0 0.0 0.0 0.0 0.0 5.756655 0.0 0.077764004 0.0 0.0 0.0 0.0 0.0
60 0.0 2.6286678 0.0 0.0 0.0 0.0 0.0 0.0 1.4330744 0.0 0.0 0.0 0.0 0.0 0.0 3.73116 0.0 0.0 0.0 0.37759376 0.0 0.0 0.0 0.0 0.0 0.0 0.0 0.0 1.242586 0.0 1.1313046 0.0 0.0 0.0 0.07624195 0.0 0.0 0.9749071 0.0 0.0 7.336149 0.0 0.0 2.064886 0.0 0.0 0.0 0.0 0.0 0.0 0.0 0.0 0.0 0.0 0.0 2.0084758 0.0 0.0 0.0 0.0 0.0 0.0 0.0 0.0 0.0 0.0 0.0 0.0 0.0 0.0 3.6226208 0.0 0.0 0.0 5.9747734 0.0 0.0 0.0 0.0 0.0 5.238367 0.0 0.0 0.0 0.0 0.0 0.0 0.0 0.0 2.5414472 0.0 4.4549847 0.0 0.0 1.1222566 0.0 0.0 1.8828822 0.0 0.0 0.0 0.0 0.0 7.992409 0.0 8.532386 0.0 0.0 0.0 0.0 0.0 0.0 0.0 0.0 0.0 0.0 0.0 0.0 0.0 0.0 0.642934 0.0 0.0 0.0 0.0 0.0 0.0 0.0
85 0.0 0.4598992 0.0 0.008595977 0.0 0.0 0.0 0.0 8.135741 0.0 0.0 0.76147014 0.0 0.0 0.0 1.9001465 0.0 0.0 0.0 0.0 0.0 3.3394737 0.65947956 0.0 0.0 0.0 0.0 0.0 0.0 0.0 0.0 0.0 0.0 0.0 0.0 0.0 0.0 0.0 0.0 0.91934824 11.456178 0.0 3.0657198 6.2120495 0.0 0.0 0.0 0.0 0.0 0.0 0.0 0.6333879 0.0 0.0 0.0 7.6079855 0.0 0.0 0.0 0.0 0.0 0.0 0.0 0.0 0.0 0.0 0.0 0.0 0.0 0.0 4.8133636 0.0 0.0 0.0 2.7022607 0.0 0.0 0.0 0.0 0.0 0.82387626 0.0 0.0 0.0 0.0 0.0 0.26322457 0.45735395 0.0 0.0 0.0 9.871202 0.0 0.0 0.0 0.0 0.0 0.0 3.2795677 0.52710795 0.0 0.0 0.0 0.0 0.0 1.4523828 0.0 0.0 0.0 0.0 0.0 0.0 0.0 0.0 0.0 0.0 0.0 0.0 0.0 0.0 2.2281227 0.0 0.0 0.0 0.0 0.0 0.0 0.0
160 1.2272465 0.0 0.0 0.0 0.0 0.0 0.0 0.0 7.2891493 2.020482 0.0 2.0403974 0.0 0.0 0.0 0.0 0.0 0.0 0.0 0.013787022 0.0 0.4007145 2.5479503 0.0 0.0 0.0 0.0 0.0 0.0 0.0 0.0 0.0 0.0 0.0 0.0 0.0 0.0 0.0 0.0 0.0 7.207856 0.0 2.175182 6.372872 0.0 0.0 0.0 0.0 0.0 0.0 0.0 0.0 0.0 0.0 0.0 8.173972 0.0 0.0 0.0 0.0 0.0 0.0 0.0 0.0 0.76444757 0.0 0.0 0.0 0.0 0.0 1.1032177 1.7211498 0.0 0.0 0.0 0.0 0.0 0.0 0.0 0.0 0.0 0.0 0.0 0.0 0.0 0.0 0.0 0.0 0.0 3.3710063 0.0 6.7220697 0.0 0.0 0.0 0.0 0.0 0.0 0.0 0.0 0.0 0.0 0.0 0.0 0.0 0.0 0.0 0.0 0.0 0.0 0.0 0.0 0.0 0.0 0.0 0.0 0.0 0.0 0.0 0.0 4.5653815 0.0 0.0 0.0 0.0 0.0 0.0 0.0
216 0.0 0.0 0.0 0.0 0.0 0.0 0.0 0.0 0.0 0.0 0.0 0.0 0.0 0.0 0.0 0.0 0.0 0.0 0.0 0.0 0.0 0.0 0.0 0.0 0.0 0.0 0.0 0.0 0.0 0.0 0.5893557 0.0 0.0 0.0 0.0 0.0 0.0 0.0 0.0 0.0 5.527074 0.0 0.0 0.9319926 0.0 0.0 0.0 0.0 0.0 0.8377307 0.0 0.0 7.3702693 0.0 0.0 1.5385721 0.0 0.0 0.0 0.0 0.0 0.0 0.0 11.826785 0.0 0.0 7.3531537 0.0 0.0 0.0 0.8546014 0.0 0.0 0.0 0.0 0.0 0.0 0.0 0.0 0.0 0.0 0.0 0.0 0.0 0.0 0.0 0.0 0.0 0.0 10.87037 0.0 0.0 0.0 0.0 0.0 0.0 0.0 2.202848 4.4202824 0.0 0.0 0.0 0.0 0.0 0.0 0.0 0.0 0.0 0.0 0.0 0.0 0.0 0.0 0.0 0.0 0.0 2.1253996 0.0 0.0 0.0 4.6945333 0.0 0.0 0.0 0.0 1.4776177 0.0 0.0
31 0.0 0.0 0.0 0.0 0.0 0.0 0.0 0.0 0.0 0.0 0.0 0.0 0.0 0.0 0.0 0.0 0.31730893 0.0 0.0 0.0 0.0 0.0 0.0 0.0 0.0 0.0 0.0 0.0 0.0 0.0 3.124889 0.0 0.0 0.0 0.0 0.0 0.0 0.0 0.0 0.0 7.288832 0.0 0.0 1.4329667 0.0 0.0 0.0 0.0 0.0 1.1500885 0.0 0.0 6.3606715 0.0 0.0 0.0 0.103953466 0.0 0.0 0.0 0.0 0.0 0.0 11.77091 0.0 0.0 4.2131724 0.0 0.0 0.0 0.0 0.0 0.0 0.0 1.1652311 0.0 0.0 0.0 0.0 0.0 0.27857006 0.0 0.0 0.0 0.0 0.0 0.0 0.0 0.0 11.651784 0.0 1.6326429 0.0 0.0 0.0 0.0 0.0 0.9056512 7.4873304 0.19986805 0.0 0.0 0.0 0.0 0.0 1.236911 0.0 0.0 0.0 0.0 0.0 0.0 0.0 0.0 0.0 0.0 0.0 0.0 0.0 0.0 5.872175 0.0 0.8700433 0.0 0.0 2.9919264 0.0 0.995991
69 0.0 0.0 0.0 0.0 0.0 0.0 0.0 0.0 1.7501531 0.0 0.0 0.0 0.51609707 0.0 0.0 0.0 0.0 0.0 0.0 0.26478767 0.0 0.0 0.00947581 0.0 0.0 0.0 0.0 0.0 0.0 0.0 0.0 0.0 0.0 0.0 0.0 0.0 0.0 0.0 0.0 0.0 6.6664357 0.0 0.977416 2.15164 0.0 0.0 0.0 0.0 0.0 0.0 0.0 0.0 5.1794443 0.0 0.0 2.3751576 0.0 0.0 0.0 0.0 0.0 0.0 0.0 6.344121 0.0 0.0 2.6204257 0.0 0.0 0.29566592 0.0 0.0 0.0 0.0 0.0 0.0 0.0 0.0 0.0 0.0 0.0 0.0 0.0 0.0 0.0 0.0 0.0 0.0 0.0 6.876822 0.0 1.8015211 0.0 0.0 0.0 0.0 0.0 0.3310296 8.461826 0.0 0.0 0.0 0.0 0.0 0.0 0.0 0.0 0.0 0.0 0.0 0.0 0.0 0.0 0.38453838 0.0 0.0 0.0 0.0 0.0 0.0 6.6594043 0.0 0.0 0.0 0.0 0.45823207 0.0 0.0
70 0.0 0.0 0.0 0.0 0.0 0.0 0.0 0.0 0.0 0.0 0.0 0.0 0.0 0.0 0.0 0.0 0.0 0.0 0.584458 0.0 0.0 0.0 0.0 0.0 0.0 0.0 0.0 0.0 0.0 0.0 3.1765985 0.0 0.0 0.0 0.0 0.0 0.0 0.0 0.0 0.0 5.4305596 0.0 0.47172096 1.5958068 0.0 0.0 0.0 0.0 0.0 0.0 0.0 0.0 5.946913 0.0 0.0 0.3019445 0.0 0.0 0.0 0.0 0.0 0.0 0.0 10.872921 0.0 0.0 1.8038658 0.0 0.19072944 0.0 0.0 0.0 0.0 0.0 0.0 0.0 0.57537633 0.0 0.0 0.0 0.0 0.0 0.0 0.0 0.0 0.0 0.0 0.0 0.0 8.571035 0.0 0.927957 0.0 0.0 0.0 0.0 0.0 0.5571902 6.200416 0.0 0.0 0.0 0.0 0.0 0.0 0.66485727 0.0 0.0 0.0 0.0 0.0 0.0 0.0 0.0 0.0 0.0 0.54240805 0.0 0.0 0.0 4.575738 0.0 0.0 0.0 0.0 3.2859313 0.0 0.0
